function [y1] = bayesNeuralNetworkFunction(x1)
%MYNEURALNETWORKFUNCTION neural network simulation function.
%
% Generated by Neural Network Toolbox function genFunction, 20-Nov-2016 07:10:30.
%
% [y1] = myNeuralNetworkFunction(x1) takes these arguments:
%   x = Qx256 matrix, input #1
% and returns:
%   y = Qx1 matrix, output #1
% where Q is the number of samples.

%#ok<*RPMT0>

% ===== NEURAL NETWORK CONSTANTS =====

% Input 1
x1_step1.xoffset = [0;0;0;0;0;0;0;0;0;0;0;0;0;0;0;0;0;0;0;0;0;0;0;0;0;0;0;0;0;0;0;0;0;0;0;0;0;0;0;0;0;0;0;0;0;0;0;0;0;0;0;0;0;0;0;0;0;0;0;0;0;0;0;0;0;0;0;0;0;0;0;0;0;0;0;0;0;0;0;0;0;0;0;0;0;0;0;0;0;0;0;0;0;0;0;0;0;0;0;0;0;0;0;0;0;0;0;0;0;0;0;0;0;0;0;0;0;0;0;0;0;0;0;0;0;0;0;0;0;0;0;0;0;0;0;0;0;0;0;0;0;0;0;0;0;0;0;0;0;0;0;0;0;0;0;0;0;0;0;0;0;0;0;0;0;0;0;0;0;0;0;0;0;0;0;0;0;0;0;0;0;0;0;0;0;0;0;0;0;0;0;0;0;0;0;0;0;0;0;0;0;0;0;0;0;0;0;0;0;0;0;0;0;0;0;0;0;0;0;0;0;0;0;0;0;0;0;0;0;0;0;0;0;0;0;0;0;0;0;0;0;0;0;0;0;0;0;0;0;0;0;0;0;0;0;0];
x1_step1.gain = [0.0606999022156956;0.0535571254518826;0.0792630289601656;0.0964590459148576;0.0412537492553422;0.0890885823818071;0.0577075839274922;0.0568436779341084;0.1166011942166;0.0725659186079094;0.0651520629649515;0.081181684292951;0.0880010366333051;0.0700207643095608;0.049304812562661;0.0447550575524971;0.0580437427125371;0.0368432891782325;0.0618586720575281;0.0827106035196273;0.0911917264269079;0.0607579563397216;0.071335922602222;0.0457686671340538;0.0586358241658939;0.107314050817426;0.0623743902951174;0.0431747748795291;0.0728967137818055;0.07195040564462;0.089181483880839;0.070619329395999;0.0428410185952907;0.0425774024217782;0.0567422247682071;0.0673812827528178;0.0568411635282789;0.071172265123095;0.0667560502636307;0.0742108651694451;0.0880581112857963;0.064948291032979;0.0806537983762725;0.0799813825074745;0.077310973440131;0.0578206572361953;0.0820161511221671;0.0641230917577437;0.0704892297104047;0.123571357610802;0.0784146272426846;0.0823073137836822;0.0667949129470882;0.0454606781712649;0.0736869097612654;0.0600176542713961;0.096875423539419;0.0620325049246749;0.0956609914358372;0.0844252126539914;0.058516826232746;0.119042123780077;0.0699514118087037;0.0888271581825442;0.0783439769317059;0.0829120950371793;0.0628068725923905;0.0517321439108107;0.0616510077989193;0.0686035610682171;0.0528998199972556;0.0831407267106679;0.0597196359194437;0.0808033170960106;0.0728046678816794;0.0695855160598168;0.0538066870219262;0.0896154234357302;0.0427518363406265;0.0611414862467574;0.0870158739142164;0.125233317482743;0.354203924420016;0.0735845905316093;0.105370003791437;0.114302009258609;0.078393059506075;0.0666342702061802;0.0935246645954484;0.104302595459302;0.0903195253387555;0.0749693566644036;0.0571485875484515;0.0512389846610834;0.0888649785832703;0.0521185953324408;0.0612181821345072;0.0555865201246787;0.0751824107849866;0.0608250962921713;0.0653944781749197;0.0630915039082008;0.0589057591893627;0.116746269567361;0.0641639540977969;0.0923700064570632;0.0452989492355897;0.0747555027041208;0.0737512950379561;0.0860406550169144;0.0374899828377327;0.0668819277335903;0.0733311313442654;0.0557116892876391;0.0513543187247539;0.0703993357093933;0.049674855799395;0.0722647317708283;0.101308176846813;0.0789772044698536;0.0521715161680174;0.126347298065773;0.0539400435954172;0.0524684399063492;0.0536602106111683;0.0582523840358815;0.0659267105295339;0.0778249889245663;0.102271252079048;0.0564399050349681;0.0644879538652729;0.0648391533566408;0.0416022675064016;0.106501471513099;0.0468650639633824;0.0644384481052444;0.0397509048030094;0.0587561828205227;0.0706325156542239;0.0822109496891342;0.0587985135287901;0.0759684698277064;0.0801969620059153;0.198616340157304;0.0879844447056796;0.0528541756913818;0.0737538939550035;0.0892913269023827;0.0564602662685317;0.268805659455092;0.0793704656237253;0.0666113824852649;0.072426588695212;0.0907483151332034;0.0536755268292149;0.0679010882683842;0.0577427815740913;0.0736777920383724;0.0682458197014297;0.0601448971112122;0.0880444030698862;0.0618843294857074;0.073220899507846;0.0562467265544052;0.0691421931922988;0.0516985782614878;0.0969778401580684;0.0470300595608119;0.121770315675227;0.0829378351432403;0.0661710936137312;0.11214092906063;0.198768765558192;0.0691365858601962;0.072421451385073;0.0450277391134597;0.0913070335889745;0.150020895530503;0.0681752115732769;0.0891232926498204;0.0597564121077947;0.104429522501362;0.0689091774522907;0.0679167450928931;0.0662946385528648;0.0853621694633335;0.0493119401960296;0.0869153583682814;0.0568417366453284;0.0411240270372155;0.0585406093878598;0.0552491823608285;0.0585807775119751;0.0474410045887532;0.0607320985928202;0.103539899469403;0.0607319016122992;0.0478667537289995;0.0558751454460235;0.156492365561758;0.0899889120412486;0.104670167131717;0.0548047732569164;0.0856844877211221;0.0649161561970718;0.0693621643819052;0.0959618237812862;0.0909665920450558;0.0490286897809079;0.0922856463667922;0.0944429678323636;0.101835014565673;0.0569745423485503;0.0473428734612424;0.0591981565613112;0.0487708361027052;0.0716352098052442;0.0644879102388432;0.0658625423686549;0.0642895147078966;0.0598305238514485;0.076598392507299;0.0435288337177098;0.0889744882767956;0.0663244904137222;0.0618013447375121;0.0500734548456608;0.0656162527781635;0.06817023862145;0.0412014048248161;0.0679080229991074;0.0495287341250303;0.0794256258111469;0.0791936891924725;0.0811339640148784;0.0479765388165894;0.0837575891576251;0.0612128858467385;0.038079350670838;0.0500356164780991;0.062196484175182;0.0744325770296491;0.0738937685465378;0.0779410196116908;0.0624731149738961;0.0567446690123398;0.0480666328979306;0.0604849962511826;0.0478855309593026;0.0811475827860106;0.0596508881165839;0.148173311632027;0.0501221007290863;0.0621369312186619;0.0325803048636803;0.104178263958553];
x1_step1.ymin = -1;

% Layer 1
b1 = [-0.0071712794346743113233;0.0081642286367685640291;0.032456181824894118904;0.02336121254442339798;-0.06455923112902231531;0.06472000800097148232;-0.046950122530990970326;0.054638036484737063925;-0.016352143370155679952;0.021201932766679153913];
IW1_1 = [0.018659969160180180092 0.12114891818258401168 -0.022958951205147529184 -0.12788153851567424235 0.028962003543562264696 -0.091522896724184885087 -0.1714710288323300913 -0.021352528728353904058 0.25377972327704018118 -0.19786536473962587634 0.0069730426352032515852 -0.017304810842111339325 0.48966654799825998223 -0.036564250891738175886 -0.10854797302128812997 -0.080422032064005277707 0.12875520957731068084 0.052345271366799797641 0.16335165446183058657 -0.16434136589359030212 0.03985763398483013753 -0.12973522806824303033 -0.11433555525720624779 -0.17254249425848469657 -0.070137794880619136473 -0.028729269205142109883 -0.23524342650292556778 -0.079490001626821737979 -0.0021916308960289367785 -0.0039525414797142088483 -0.20618062678991705416 0.12530400740070837817 -0.10918692005394207978 -0.21217408601971679549 0.083507932233332263228 -0.072244181344005772849 -0.077836016344838471204 -0.023368081941943421448 0.033701917106055523377 0.0079977463605162852495 -0.24430143494160000417 -0.24088715325490775432 -0.017096915125292051763 0.22718910985012305548 0.079929359815007455792 0.058641092121437768392 0.10053485993751157257 0.11550141336759434108 0.17687501593937543509 0.047426663732357030034 -0.14803308015918797969 0.26588910307059909766 -0.14534822202160466165 0.16843002887412877877 -0.093212345015652439684 0.10864928018335133497 0.013440715607891361161 0.0029429262896062211713 0.1221785489774299821 -0.085321283510583198484 -0.2345073273620015275 0.16338383333859227142 0.21967469971224179437 -0.13445111213064270261 -0.08784234593386086587 -0.14782288300876794684 0.065654918023402467075 0.14480106445255405689 0.05838585280846932124 -0.12919822004948247618 0.025197947119808977029 -0.004031055811624655906 0.12895741558537943128 0.0577262988087927989 0.082472513848813558401 0.070874592841595696058 0.21624155549518314645 0.010345541825505682673 -0.047461557274922697158 -0.10991445259476582963 -0.12756132084001362004 0.053147455721868339107 -0.022448882156526957926 0.1470785616250861183 -0.10284990869885402009 0.22668603390747113502 -0.019582825519889063975 -0.12286228913754071446 -0.055718261949152865509 -0.035365968830938163125 0.091058067502328227105 0.07937902206041864972 0.21883140749497057009 0.02349464972873162999 0.041870723020412933812 -0.076616283021692696553 -0.045622328165391315413 0.1049892540676315017 0.045923655878782790318 0.1678993627045046455 -0.1297761723661410016 0.13427994407943261157 0.2126947128976315049 -0.23590256663398759263 -0.2585497197095474875 -0.12020236855577787205 0.14292992719790612033 0.11626301518325099504 0.37117186756550890614 -0.085324494950775015001 -0.22946293622496380382 0.067979986328644215199 -0.011084556441461964824 -0.026417852226432052276 0.2272655524134984395 0.17491324009100639447 -0.11843025908452525785 0.022260007939624258666 0.074456517228696839084 0.10092863250896873251 0.13027359763848123109 -0.056501004250027068998 -0.078619956542205646222 -0.012068640083892615347 -0.034332895804389571004 -0.054156524593082594476 -0.07958461791253934603 0.24042927618708806459 0.057136610199243917374 -0.13928826294708340772 -0.18892635569927637706 0.2334798932386513981 0.011677125377396268754 -0.14104871127648965778 0.19165673327603907627 0.096865404737198138041 0.36258840864325081466 0.01735321830260118034 -0.021746889810818299804 -0.056923895888486147898 0.081875463159224781684 -0.046404888022468893105 -0.017411399232389778574 -0.071934834169019662431 5.3458738195573803033e-05 -0.07228140423237909562 -0.083134739813264524333 0.20245300175942643195 0.12975865507772738061 0.00128809893487271147 -0.038270946322890464497 -0.065964036186440699883 -0.081018780510952626006 0.1415148703928074958 0.0009188727541230955068 -0.075236629129336818345 0.009164558594946831116 -0.18856264188923702041 0.027086075961211979191 -0.01290290277375844008 -0.13602835066422777621 0.059456267335639564897 -0.012283282499649711764 0.17009934205424340203 -0.12291351414474054049 -0.012865932279688159848 0.1224388596437212956 -0.10829811815769502248 0.045064541107124989061 -0.1912587148443001539 -0.13479508959927402612 0.13711467954946132686 0.053282620772291011679 0.084381883524045131484 -0.12946488583817017393 0.044616871426355210473 0.063184161755862805476 0.071843636976284167006 0.35379947298602693051 -0.01624277716451791656 0.10156370973953796066 -0.052620677113835188921 0.11634421942306359676 -0.26617857781997239508 -0.10487158530472488749 -0.085099199127123617559 0.0059341518975738532723 0.14255596221661762102 -0.32688329681756245204 0.14262773090696673206 -0.0081549675681406065542 0.24675939034510241399 0.15368910625130785541 -0.014272459707130466522 0.019176202582310612754 0.17307465592172957547 0.028363406699103425185 -0.15972846677022931039 -0.19543350698802944287 -0.099926305292002665093 -0.081401787622399440769 -0.079241157759644353931 0.1611792282932519027 0.17858159387160574272 0.013684145281505988648 -0.080464301695640824685 -0.19362448613325766722 -0.00073724400949340472382 -0.012411822127305582181 -0.073100635072007619231 4.961690293212652229e-05 -0.084285246593783919034 0.069437244326268299233 0.093290447773953649735 -0.084565344465579589395 -0.070981986101482291707 0.023739987195539775933 -0.013128617331067541849 0.15372330424206503974 -0.0094999392600655773594 0.060639981068575203593 0.015182742834452844435 0.20836278409693531621 -0.11423499165820744095 -0.0050392938827214309172 -0.207875060328661182 -0.073759969258456514751 0.09462932868387000096 0.084080329224006225552 -0.13142906098777748514 0.088408533612451670192 0.093314613943021831877 0.10196338786695012535 0.1266701728578243924 -0.20693068114646909206 0.075205092931154154945 0.01351676935246543497 -0.21593314491309356651 0.032543634827783829433 -0.20374973740424490165 0.070317654626383035987 0.020182142780126151316 0.051518633889298344475 -0.10587723792205282203 0.021098580394986164027 0.046503666841140670063 -0.11541069796708164352 -0.094232514007063339356 0.0083722515786267392296 -0.10371053884928270461 -0.044815231199704000375 -0.098295360752325658393 0.25300248122836027642 0.051692701605397795017 -0.0011305668055860893222 -0.051269157992234880294;-0.06866740165026453957 -0.01489353365000684222 -0.13981046766275384563 0.26968185381710441106 -0.076878170056173172897 -0.21693339591747481943 -0.025036737593304086297 -0.011619151104335232599 -0.19080599144458482153 0.24852785523829659664 0.061710411546197441179 -0.19003749356729804365 -0.26409017858184041794 0.2503347198225100434 0.29096144830815295901 -0.004634744064291325405 -0.01394297827037299653 0.14115735342189775214 -0.10768219287637272041 -0.0003764906619163666565 -0.10608377857686640544 -0.082615923820060901961 0.081172772006471091699 0.15607925778470554956 0.30281250139201809635 0.067214666084327717721 -0.17377517402352241072 0.022393548581797165231 0.010185678662063381641 -0.044846816960827998177 0.10288097663864120834 -0.21527020169415725381 0.059252858989203342766 0.19155814798966327994 0.060236559020623636762 -0.18718828306757528956 0.11791768286477469219 0.020487429700056968701 0.094847102324879639657 0.12758560527466961121 0.06313552744304962161 -0.1105969952770948922 -0.02267157971799343974 -0.10278744680217322127 0.16387598354122964728 -0.086078687551785881826 0.12764539222620496783 -0.10487025044870966484 -0.046601278668761673962 0.016829893844923154295 -0.29026699693391222468 0.028461836632476703729 -0.062539284083182669627 0.074195071200723106131 -0.10700965461365188891 0.042946287910288656609 -0.13769134248859035696 -0.021605984792358045449 -0.14786454902664408761 0.3316381372770635938 0.11556311407584192452 -0.11564734177541159676 0.086534532878406511536 -0.070652589592554798648 -0.099120192876143042859 -0.050722899892616857276 0.027948755888085465016 0.097926830665133912657 -0.018460496119926748937 -0.0036368838305222187489 0.096460159536758571797 0.17800488670322370255 -0.28692259525069030435 -0.18102425290585300033 0.096940845539785283624 -0.091886534046196316483 0.22885147284457255101 0.046306031523104695946 -0.11699188671387882044 0.0016131728865171140151 0.040752282387756827431 0.024973529253381799436 -0.06316462292459039396 -0.016858090184686029545 -0.29734388693748403654 0.15507601485321306778 0.16960154548557695997 -0.045859709737421955333 0.072195090482552404243 0.10770362095527480362 -0.064031646105013953485 -0.14109667805928954865 0.14878661183933211687 -0.018329755798293993069 0.23991959370523741057 0.038275336959121032676 -0.035463164798481716655 0.16382417952903852165 -0.12814399237467161141 -0.049722909515935782843 0.15443401034967327301 0.041627766179798839086 0.05930757040998453633 0.0054346715105816198119 0.050511765572975084182 0.042481166682360765874 0.33880053348178135186 0.08135319531367177226 -0.1585724579506825882 -0.25764207580480558146 -0.089816963068266475467 -0.25730359938967595212 0.013183168897375035708 0.069012994794460311154 -0.085206994014540862747 -0.1603992484535924079 -0.11689501140120638067 0.087149321531895793114 -0.10516144872101929053 -0.41838397417542033674 -0.052454669146857722806 -0.11351240397855887065 0.15141840890382934903 0.16481188496120116604 -0.004014797802301493107 0.22097440556383854404 -0.062301844322198998705 0.2603235171094570588 -0.11381205483438575077 0.039974642949521542457 0.10481575096539023917 -0.028842129037210399028 -0.061731804320577510214 0.18231979700586148363 -0.23055708597782798019 -0.17428398614473508688 -0.12682697806964154941 -0.27854428404581715872 -0.031596338756898462163 0.098331992690900385523 -0.012248370248515268871 -0.006747225691809262578 -0.0023539962745039882432 -0.14230508953032119934 0.010017932943244605912 0.056098636705373641775 0.069945239467434902614 -0.091033323264593263291 0.0098392293644823398263 0.1589759850612230685 -0.0009584373539285903458 -0.12830792778201896565 0.041041960454688643234 0.062978637329663411659 0.047611857819575893747 -0.073546574255472105253 0.010650025146959760797 0.010501083550996607313 0.076452559896556623875 -0.050681026387070830796 -0.18457385795012271057 -0.19328013773902261163 0.030961848374653311994 -0.017561502902146846478 0.047254546630187459211 -0.047631359475432656636 -0.04278202465158137402 -0.14880061984360601346 -0.25220976080498375138 0.073348640144612300973 0.087404941355387885671 0.056326218425221119546 -0.13346805339769926557 0.08158440233165828448 0.057207797163551891984 0.021607502930956361265 -0.014615572126833556096 -0.0054533570804116606595 0.097575326523773611709 -0.070432742026099864896 -0.21625863355991437054 -0.21615167373802365858 -0.063920201990375777323 0.022087108904865149217 -0.032213322821249057437 0.11934431990251181954 -0.0089822532507169202537 -0.089160949679711359872 0.084471396641420101736 -0.16263891733860133537 0.078853742233137361084 0.065957814955490440267 -0.15107912106624943327 -0.089641830257938384663 -0.11816954442600859088 -0.081771911655143511566 0.33486171148795323971 -0.013563539892237342493 0.18777525611146644868 -0.0018354022734260024095 -0.054806837231669500166 -0.28739344747557488136 0.00085337301627934250125 0.04638018133539781318 -0.0118366446482563413 0.18738493702883124437 -0.073304091763116419056 0.14239141275133410103 0.10401532100793432767 -0.16629755004947391339 0.10451468202948989428 -0.062299987365409197071 -0.080082477620477127145 -0.061858034463636989153 -0.074420391649621331354 0.22911445113626680015 0.021651575717696470991 -0.019202555466013217222 -0.092160325885013549829 0.021057387117304204871 0.042325511458535976239 0.09236092506088562637 0.24173953216259308485 -0.15188455589493668474 -0.26030881560425367383 0.23705561523433407722 -0.069283756558077475018 0.016471913311614364006 0.04194094265371441782 -0.20696765315745496716 -0.21683568246548301506 0.022011216628987303329 -0.064648545696134346317 0.094301170489009128461 -0.17898798506749183379 0.031908181331204731046 -0.07904499922810381829 0.10112655006679270586 0.18702813808576773669 0.1226540333170308833 0.16012758868689613845 -0.00117369216196210914 0.1115396166460781574 0.082388250744815164084 -0.049859353484508026066 0.19116324554363534061 0.11698137789137813547 -0.0028381098689958610647 -0.21148026403043831967 0.11521960676155493242 -0.071348729362807311594 -0.044639261802499698162 0.25334372611049438273 -0.031346588005123875165 0.024422141587653229539 -0.20973818315971692883;-0.069074243597010628881 -0.028771189040748896409 -0.036049439851857587036 -0.036614054666220002821 0.0089274110390117240865 0.022133420858508109225 -0.097744652492554442991 0.05676416498162521751 0.082347977636035837867 -0.016263698081192715789 0.03128842530732126731 0.15007989652431116823 0.13128141225718159557 -0.030856427970181728865 0.1938970033694389361 -0.098597963468662605524 0.12049606866030347641 -0.1750391106236083294 0.049633043233430734764 0.33145327809092600679 -0.25452857699782288625 0.0053957384749242854119 0.10812227598394306971 0.031532002857426438824 0.20848535086569389141 -0.22341795933220265358 0.027298085402955772627 -0.024370136060903224012 -0.0040822043250148794605 -0.044688213198767104406 0.14293231523629551516 -0.031117296409361928922 -0.15002748625380768477 0.050044042292967584606 0.1030056557453354199 0.034220649023396075561 -0.18452392821407789802 0.075556851591639176413 0.075246521304299970878 -0.199452659126202414 0.15960651732204020337 -0.05356511499451160202 0.31177866109552171414 -0.053992496196702252642 -0.12899409123410035538 -0.010327497208938839907 -0.032700496271081118393 -0.043027475961609044919 0.09363121275501884444 -0.0105164612228901104 -0.098156740447368634461 -0.19655840606879826371 0.18904253363030984469 -0.14981952419451396996 0.23438591678704853716 -0.17235983029956764012 0.12388696141973938591 -0.13080508423924896988 -0.0030781982676492190658 -0.04279460515678907423 -0.022212301069270565246 0.092548724001251178595 0.18342329721299271972 0.27281009195101102449 0.089339229701063407885 -0.17190901209332637434 0.15292099778605655613 -0.028446079016737731843 -0.052266881473447393547 -0.13310221002666383638 -0.23259829049978178461 0.038139346026160460268 0.34321271554297266837 -0.031930582309270059971 -0.049960651044766921092 -0.026817265267231660264 -0.01358274541009710408 -0.26599256259184583806 0.11079552297272056427 -0.030850919190858618057 -0.32727701370339618014 -0.031809343649574169099 0.00024376375328515870037 -0.079573017150655969698 -0.10702607880516257222 0.053740830209046894228 -0.048981599505346848367 0.035000412898407856632 0.011561064760174653496 -0.0069373892645996897838 -0.022250381154918234122 -0.044836075279701168017 -0.092293622501176564299 -0.19826441079151793656 0.16020018138882724523 0.01924717249645656672 0.0086908794757841589113 -0.045193979744104974261 0.006599488115616301831 -0.14520342239553565844 0.20348487237105350456 0.10601049326160343067 -0.18223931432242074235 0.056527899330934459898 -0.14970116608253167256 -0.17821402734494704023 -0.00089483325520373069566 0.077837797079245277243 -0.026915982606792270698 -0.13767936223171409194 0.15072190503352952962 0.068531177755545624741 -0.097554509416660342702 0.12677428611425742289 0.01090478926192673878 -0.1994084967176284473 -0.1179884313064251955 0.10894226786487370973 -0.11253936370936545863 0.14278824590481323242 0.10684282255675375817 0.030521475805187499308 -0.066971251704191228638 0.0012196885335573951197 0.080814771476899430191 -0.20735389029035722341 0.29026171655808635785 0.14189925659584068374 0.0013232142846209228246 0.057241644935800493899 -0.24017218541226065254 0.013051452332207400323 -0.056300025678624798786 0.10053517775685394398 -0.056178246484161649399 0.044316071478480108248 -0.14393327559758986589 -0.025491349839246096182 0.14247445777628620078 -0.13191680878359438034 -0.018027145351268869522 -0.20381744984300198542 0.23977176834074651057 0.12768304050625869928 -0.12299152474771384014 0.058490021468847429309 -0.13573916096777319251 -0.010919397714140089903 0.086032315887192498116 -0.19423722095892415052 0.043355465195743604634 0.13202279554320636712 -0.14322346410123534821 -0.073840518763960319437 -0.29561594829931137074 -0.056773536800703010285 -0.19678115518081651381 0.094695803822059124166 -0.10685257521295271621 0.040050791592169530941 -0.019103921826107525539 -0.16944606896605743374 -0.1832069395302509951 0.12022247694671522877 0.12528278547623514227 -0.153766266368421195 -0.02139768582693847912 0.041941642783706968578 -0.091085930980898635601 0.2702493718547968049 0.034812988003004294302 0.10804348503993603525 -0.021578209631906691141 -0.1037327232440731356 0.1446564924410519426 -0.020233047434852390739 -0.087230693523218133523 0.017367041907368208076 -0.26101792853306121645 0.068740833470237669434 -0.0041310656656462626732 0.05081865730273575632 -0.07336661365402596946 0.16978963399527707834 -0.21897358520654050529 0.075239561104537860947 -0.0089965011076498738879 -0.059036366080334606865 0.071909945742964151427 0.18189117541591334759 0.25793217319630323825 -0.14403019379220358132 -0.17241908250720425211 0.080836170456201450474 -0.044222344908427420329 0.0052439487170665962171 0.0096690060545088184207 0.17490356190861769403 -0.086301009435229503186 0.027178236078211303467 0.139640788713778774 -0.025725072367913631721 0.36632480363909597498 -0.092506563934011548644 0.051907074095968550043 0.10410184859273573232 0.14745974577447595877 -0.090382931633698482266 -0.09954031367868187985 -0.025546780883153725333 0.054533401690983175636 0.068912510147680017258 0.20372613043450532588 0.017809172836900279829 0.1268532210095123236 0.087709030909019755629 0.12907882639997714236 0.10293619314560362166 -0.12783820600818840418 0.089531284370107627746 0.19705021993488788801 0.11555846948981025879 -0.038396071828209428489 -0.14080615002346852371 0.12545985342941901042 0.039010213703047108558 0.040613559049380382193 -0.029541752179521180155 -0.042437498870202310097 0.079618124684157534632 0.0053001925450396458056 0.20322147237494259109 -0.051709136006499477334 0.034670469667157921556 0.13201838790347322772 -0.27721671834184791194 -0.102974043633774201 0.12423419101171288836 -0.051790805948179641227 0.12609925849023922995 -0.0056699930348856732512 -0.15795022315262033374 0.064338128107200909245 -0.048063905862785853695 0.047715503934879874293 -0.021260594684529589976 -0.079664712037409463052 -0.040979542670319349384 0.055413215322782712058 0.031116444590446830365 0.31507068078893724072 -0.012412136869649863236 0.064456780854792325441 0.039841965225796679984 -0.097526643777501337285 0.073066365515491324412;-0.14414708493023214997 0.024464737538510347714 -0.12610030423063064986 0.11972216670327145982 -0.067439210835287519141 -0.085964613218344337886 -0.12233817219684769984 -0.20032708583438940675 0.032943624106440326516 0.10954979096555834961 0.27719346016837465019 -0.056522544022727223834 0.36504803528150647773 0.17845051644144929726 0.13512072350972356705 0.046874124581530757228 -0.0088181118799679977793 0.16603776426087299423 -0.19644545893894435618 -0.17511197049142390725 -0.22227012473024776451 0.11136052089862999437 0.031043382046183620737 0.11810918405505974049 0.026631693413717214686 -0.19763559396655427935 -0.23766065391402277363 -0.12210792569130032859 -0.031952289396442040692 0.0020691235284395997733 0.014667982036990323547 -0.089575895293403165476 0.13536819865652580108 -0.070080476506601041553 0.13911350429014465724 -0.072707163000159294453 0.022083177467323168719 -0.14612866623014264533 -0.11721363436556000992 0.05637849869120719476 -0.18360450637106212612 -0.049136184225812049031 -0.097885202900287321404 -0.06418848171795021873 0.17631993779344440343 0.0018061617561682210588 -0.15013806712390720399 0.11161030102849810175 -0.12163793263920824606 -0.152399962773108133 0.10616435374555389937 0.11866986902264076154 0.23730919958521029534 -0.040176170473355067581 0.10892288603015753967 0.15874708877828053177 -0.06968223626583261443 -0.075841478386770189157 -0.027624362797524192048 -0.1700043602473079174 -0.10736606698619319267 -0.15624270400637890743 -0.12003671109224965663 0.10430885169645014166 -0.082769718521755270002 0.21180762648615536481 0.090961279827653868102 0.057521116004254004006 0.063331411891648203838 0.031590625728014347373 0.074871761603537687058 -0.075105975183210799129 0.10252378636028411374 0.15813246736757943789 -0.018906840123329052977 0.028089575067308924367 0.10784893271018990146 0.08923608631600538077 0.0056505161533733231152 -0.1841960432923790969 -0.26271365912340871596 -0.057087514708129255547 0.058170200316290922304 0.28507630291839131109 -0.0019481516807117514687 0.074207401685153079329 0.064759767545542690215 0.0052425400185179731397 -0.035535773703534043189 0.040196394865179167766 0.0038628145707619520287 -0.077968766032947098288 -0.061918165292744360706 -0.055749208248216733375 -0.11769673794794265065 -0.032807906289193181082 0.026053538685953836485 0.070301821984863246962 -0.37089207711492039321 -0.071256485435023997344 -0.048418245008822483055 -0.010078233676677074426 0.38771915261084838322 0.0030537243951051485334 -0.17084173467613691932 -0.084882927251523215828 -0.19708049942609223715 -0.17135877487380257733 0.081555743178174308627 -0.096938962137740100622 -0.26780042889825633745 -0.17563073107508772597 0.29857016907515837589 -0.20894443620540131823 0.047548389938267932031 -0.0045424236067193911673 0.090302738736748253134 0.16332913622417299937 -0.015292934116036905126 -0.14262432608151517921 -0.053489684576914046932 0.014504290521850040155 0.024590223625151744202 0.18153608609299290433 -0.069585585198960187014 -0.026952033565449843439 0.16599776888811856868 -0.051965476189810066998 -0.053034855223658652901 -0.14372936101591179958 -0.028534490891216686415 -0.040114353426448423612 0.032262775429648504755 -0.072236321033806019654 0.060977032952300863622 0.26125164061900141288 -0.25852845217535652678 0.15494766494237560694 -0.22199294384543394321 0.14926827003787787596 -0.26540539045643152249 -0.024372302336487072782 -0.21071286131597280478 0.099122166128359570636 0.14297512953957097759 0.16128029198315038673 0.12177125391798931942 -0.1272418226670356256 -0.045222639643098583306 0.11779835263699067749 0.088359350505114453433 0.081077392530227221368 -0.020284052101685597774 0.16271486529374257213 -0.06981285700292554075 0.03910180225104835372 0.046037147336220531069 0.017598080833992932326 -0.0070465659512384086482 -0.17385007647258302055 -0.11967404312480754702 -0.031818755475754426087 0.011679976338946684855 -0.12759457316342109889 -0.069425602400258482061 -0.12520044833528265471 0.080848515351222810521 0.26378029660855395466 -0.19262292189648799745 -0.095778213952346563653 -0.0074034411819704762023 0.060337312907523421579 -0.11330254787748073042 0.066893111895261578304 8.643672550477903959e-05 -0.055921632697334126838 0.076724756384474721016 -0.10307466225080003097 0.032427508645904941365 -0.0011965612902926441551 0.377912614538089775 0.030556344887642725855 -0.2012682299459957469 0.074424595323590012064 0.13984869220768136877 0.091890003046261034547 -0.013288411498339647299 -0.12557613433681383275 0.015000203751783293751 0.001313110312677659517 -0.079637697540683227704 0.0024216137209936900755 -0.11159927389579596402 0.24438281241512058162 -0.20050829912614384631 0.020519841416760213615 0.1880171263684989047 0.063328222858719585009 -0.020303650906990967917 -0.037877851988941745043 0.16331248226253927691 0.11976205553722005237 0.1099868461722777746 -0.1072555498686841996 -0.10694651598164225947 -0.070922981602220325215 0.083948881404499506309 0.04055064207013799743 0.044051815736577626392 -0.12608680851480125185 0.13316660988835682389 0.22875587173490921633 0.099362799992770922675 0.23348764362507065662 0.19459588774468003503 0.11498643256754227659 -0.025089546140244181616 0.097729720988494556133 0.0014003247804388167536 -0.034820254036823719557 -0.10328575293316130668 0.15080004767472174332 0.19700782084241061365 -0.20713176491096124687 -0.09120563532552208863 -0.022923677612039561335 -0.074694023726571343036 -0.006690337444821156665 0.080602371717461734901 -0.028275125609184034725 -0.045456299699597461916 0.075240056600856752844 0.3397816052509779472 -0.029801395001572927174 0.13412173638435920253 -0.051663416730340271099 0.0031426379145444737796 -0.042750485813184815886 0.22283599580174559551 -0.19119440106365453991 -0.057148048000665918611 0.028339359085748187794 -0.032276124731897712361 0.068018752736639709333 0.046628914947215091558 -0.028490862424000316239 0.081784735701215735548 -0.06637614078765199932 0.013233951392953498608 -0.051821514366738936908 -0.14706288377765999731 0.12518703284430821032 -0.016257296038046507858 0.081072742765532931908 0.2712820231812507199 -0.048504310623074864406;-0.18063644667921019416 -0.11019793710520996155 -0.20537470557467721322 0.082266608085318715382 0.0066445691234951354681 0.14474452007096150208 0.20561161722045326328 -0.00017540348029730179567 -0.21334801438684081187 0.052358721740464610195 -0.070237594295464056415 0.0076617290945314416376 -0.062904389059252177607 0.25863983271590601509 -0.033930567560501896651 -0.036158782918026169395 -0.043250411910809631599 -0.082543385026520116332 -0.068517620391635322696 -0.061338655784154129391 0.20037211477284097572 -0.10067683186088145775 0.037899848760336668496 0.37468963913886199624 -0.053218801313997136926 0.13286249454852311347 -0.17455938805822382442 0.0036830590182938172279 -0.10702575266455587044 0.221493586176454621 -0.10029297687824186014 0.22352686640382293803 0.0054560558739271004108 0.22025384328314312476 0.024510066328761653809 0.11166307826035663797 0.12533993587474065445 -0.074488799711031589146 -0.22305788039373539156 0.19541287013139604922 -0.11321125578717988747 0.12334192185655915019 -0.27333995539599992286 -0.065984531429263484914 -0.072914337958727315492 -0.096882718580811641451 -0.035726979964183502858 -0.082195991861306799686 -0.19722952715738370499 0.016819251498048418819 0.1741605634051888174 0.19304825678803200217 0.003737428689306339976 0.14717083040175760189 -0.053794255681017338899 0.044233459546579062538 -0.15148083464203707105 -0.063598965496016818255 0.011076370950563718329 -0.1417157582568392693 -0.064537193114460322807 -0.14312284742481945488 -0.087423054996619203871 0.13275113077993050403 -0.12776479482880170879 0.11474253093388422919 -0.13803121106469926072 -0.084729497587751084753 -0.054799521282560818836 0.066621911852192142178 0.2479068713246649347 -0.18431087884440416902 -0.14235751285898509688 0.017697668956899691162 0.13673080484763680542 0.1514070338446750208 -0.043149128208772279114 0.29865309812413021184 -0.21535231580389849193 -0.11286591981600611889 -0.030688194978927225975 0.02861932318538528211 0.043164117538814536501 0.0090246080434009078031 -0.040612313435832408937 -0.38745627230803603158 0.094479031651976283501 0.080343445555941223057 -0.1314898489924887226 -0.029611185907198234873 0.1179274634638583924 0.032164236449844799126 -0.016276228152178624092 0.14246948671017503618 -0.013435594553303538759 0.17200774315663647229 0.19481048488363625348 -0.22329781377547852639 0.038897901548285790385 0.051748300657882509435 -0.10840124522090667514 -0.17467172242796710768 0.21382442671635157327 -0.040083554397198961627 0.15720289533255452086 0.25287168075413285484 -0.32958529708275952075 -0.024400994470597195396 0.081131214494771203283 0.3304468126135108319 -0.066897046616140029562 0.065329057599167447701 -0.097515261095336869257 -0.14305559210553570049 0.00029194800476443503925 -0.049621866270382675168 0.31053477433792708862 0.046634046122108259447 0.14472259369455742206 0.18421577245871290085 -0.062657912591402353808 0.018347261647111094002 0.09729921160847804229 -0.0088799733828002838654 -0.21496706511946808704 0.088319010411637727254 -0.30004304830143918581 -0.12191311677774729905 -0.0085304090173771197902 -0.12491115806298411228 0.097542259949757542659 -0.18598463917891489006 0.070158837195321385738 -0.081322701319742271564 -0.006666752556519424909 -0.20594038694482982854 0.27408525677043449331 0.14219286488424570658 -0.13920845183244337506 0.25410136026568785894 -0.2276512198058753822 0.46750010521969959099 -0.080644295574636398749 0.25360807190412448797 0.23767442405465660782 0.04210579551765571138 0.23005563372975249004 -0.0099441111097565825644 0.13610786452331899432 0.1044106763064690524 -0.013469883753243969138 0.027522625986760848593 0.27409917668969302484 0.068854327959931224679 0.054313296723644544084 0.17756122469290253063 0.19464894547250044532 0.1054205441292564438 -0.036194668956362814616 -0.065983373198750416844 0.059843841900220878793 0.23622409153239537494 0.092480834424236865732 -0.15789105644876391676 -0.036726349607340995351 0.079834129702318290533 0.036098717475839703361 0.19565534651499669194 -0.055533685220345872791 -0.14345727108993194809 0.065008815686426274505 -0.2710793922749400453 -0.023029373199701927422 -0.11307758527461470033 -0.086168004231284789363 0.011714082961928275542 0.038386170174065127603 -0.12256310375881637742 0.06394181501259563194 -0.15494805149098225816 0.14810973502394833567 0.17063665130892216593 0.033842870286538762059 0.25604353293723530749 0.17010558395018299249 0.16208480778850756221 -0.03728920879206797101 0.043338024437171406011 0.013558721136091972034 -0.20020471844347909052 -0.31395900366660939307 0.16744099857213445848 0.032494283556717358519 0.038277084131744541773 0.13383018275063843228 0.04499077048773158366 -0.15246827007241400831 -0.072638591364474786038 0.0093341542974921028891 0.016365614360499533553 -0.055560029261996775329 0.14257711282452154022 -0.029452078208863429615 0.20483153684944827022 0.0085385604348418072534 -0.13599179663160404496 0.0046409736294608788798 -0.40965278606662064442 0.050338641591748639614 -0.082853264187077585445 0.084652954331276716871 -0.10183689686420722975 -0.10718592302363000313 -0.1748229742703066858 -0.0038624756301200184258 0.070899985287666736355 -0.16114025213279373205 -0.0075567765723649274467 -0.16005922971969438473 0.17347190993150751748 -0.064603771596629541718 -0.068560400106666904985 -0.27591644211960569821 0.15031901888258700217 -0.16550972985593606635 -0.026984502206292650117 0.070748590110353171134 -0.14352283516511399331 0.043618115150942396441 -0.099624365305355261357 -0.017780533547841596148 -0.39542440791527300181 0.09715353452180375271 -0.055879334447259794427 -0.026089295475704391003 -0.028651768746715825659 -0.020050725727420441735 -0.034447189486854067064 0.034203029449088533098 -0.20179753133155939326 -0.086725394335123939804 0.13082186691814168267 -0.10130496985870161841 -0.093298759347883966631 -0.031156297845764294868 -0.092183764593160688605 -0.037877416017064645393 -0.05885135346668815548 0.17754294221796715347 -0.11241210880534237282 -0.15235326951224414938 0.12443087670865662919 -0.10951654199348027918 -0.059291442404808589184 0.043479391185767317374 -0.034460054808174482577;0.044596435142477082458 -0.085623881865543233216 -0.1793844509279434174 -0.097545285386814839512 0.027583607504374222513 0.095102861834770582861 0.033990860800066940994 -0.066863118581598490753 -0.24775069605042682186 -0.13418920898974931455 -0.19572417766343261358 0.15962934892446384305 -0.014695883710450987833 0.25420595334366558049 0.12120067616979332548 -0.06791708148980736548 -0.051073297759489703906 -0.03752420624768395413 0.010860440486939165056 0.10783099278397298426 -0.1365918284224782453 -0.19154667922818513492 0.017074487188919792308 0.30000809096307645696 0.095853145649601498302 0.092021520172474294275 -0.040224292429284207173 0.12324975290024496599 -0.055245780952190529089 -0.10459568145562307684 0.13066141500289144006 0.22878350400868277537 -0.22010951551454727149 -0.0043164695347373696968 0.16735105439642061764 0.064535045813649896673 0.036580664700473726481 -0.024142149572273629426 0.10072120277615005668 0.094940058487259670894 -0.033922890158999317867 0.16629975651782669122 0.083151156422443014971 0.01445334175503984811 -0.10613899106804494665 -0.046238973130907135012 0.092170284645857566974 0.091457650360614400897 0.060575941811837022422 0.11708783150724207112 0.018798795643012237294 0.012997984258468328958 -0.080686899947332121896 0.25624191556107350776 -0.30263257998178655361 -0.14466145885899242551 0.083027980952605898168 0.31578134671318247584 0.077359592863161186216 0.094663425031755232819 -0.14608492971646044878 0.043430821388159013274 0.40059269949978443259 0.15298021061909544693 0.048112236241834895056 0.1279667740688364419 0.077567741906567552745 0.0054581463979645698098 -0.20354570810176728091 0.039795265564474317788 -0.026759246465099206097 -0.020072349701890656454 -0.13732687741738430764 -0.18261662629627695154 0.095929348261371796824 0.0059377516664144286418 0.25241434456420452914 -0.28611232859192431421 0.016976761415090361323 0.016374400153693954157 -0.13449062189016783297 0.064566167937575108526 0.030403489417874119544 -0.11538808974264261331 -0.26839235634034447342 -0.0047149400095892529325 -0.058600407321451171427 0.087594391212296618399 -0.067304592647788902271 -0.088650232328562131312 -0.075904829896439970915 -0.029217606559515708203 0.31071208441696324121 -0.12364071582520475001 0.1644110838819700382 0.10086345741132146658 0.091306702900362066155 0.08194032878152938959 0.12200747806505457538 -0.14762001748648700961 -0.080196670191030106079 0.039690276142766760248 0.26970067618007914634 0.10860128981823399807 0.10051027170626264384 -0.20883924362684430642 0.12657831757559442898 0.15722454866887253244 0.11711828715261317357 0.23776057303466549553 0.15086111184411676867 0.0075073529286210491027 0.11252238141369229341 0.11183152898226478289 0.13743646670304296431 -0.019920252576563358959 0.1625755954586398655 -0.18852052020692872114 -0.13023411496598569226 -0.19710696534885380204 0.04818210720458075691 0.022734822374094874886 -0.089832183291359432586 -0.087150956890826900003 -0.020715332227735670095 0.0071717235054263375749 0.074371118656563137139 0.21872884801916386843 -0.15302404846138228933 -0.014877710143257548772 -0.11700944579374837617 0.04607803500175236544 -0.035961114831855003904 -0.06125005371262483983 0.017966890261776169435 -0.32335373394147687298 0.016314553578526937161 -0.11074061268040416572 0.041588399847590891423 0.047777604533184470093 -0.066126333793669445082 0.048862388407241233446 -0.019145509554656426482 -0.12135302806352946114 -0.02158803712380020362 -0.24711421980516512509 -0.040118625493467549581 0.032532748495335897521 0.17743156322083844523 0.086463519479760997388 -0.10112767288406082633 -0.052179023006689209674 0.17906654856168471857 0.11578868569897912688 0.033812874133492161477 0.10928295471645249615 -0.064758190355784270298 0.14433887612178644688 0.073662753059966973312 -0.1986476703298189761 -0.026551719986490834868 -0.10341088626377063775 -0.084149549623912883733 0.19181531830080050804 -0.23356343638567961252 0.061410328200911468155 -0.15275992706035373958 0.010330179631569558901 -0.35309639254214025827 -0.04476361536789651846 -0.050899325331116643256 -0.10688727420981829208 0.030740172151348749141 0.067724420443722482821 0.15563246823528223417 0.021776282362829059436 -0.021740898069818319349 0.15010391000567013808 0.068469154072261673161 0.060521736436280587634 -0.26466946154212839248 -0.044534350976720288307 -0.20969564977077578827 -0.14377286573033865036 0.068697317946908628694 -0.1517162127442658881 -0.064305609591746595854 -0.16402026164439556521 -0.023249344795765864574 0.13849207466435525804 0.14751517257681842632 0.24927062658294749098 -0.0960429911211965609 -0.30153464341766889056 0.022430241017853316116 0.099964622160143290497 -0.0065832744912941460608 0.12365679172614314763 0.047922269097592104514 -0.16229206962170525386 -0.093719433510711588897 -0.052060314099669310894 0.10193874190795042256 0.23169853339260013114 0.17678551086775104451 0.041992722891710992927 -0.086219107952591064747 -0.13731709025923455325 0.074390044420579781725 -0.097867701690392411296 -0.0051241570037184385952 -0.01075898250334606128 0.0053230159782219404682 -0.1769695132494462364 0.053614239966724541731 0.041310926881721783677 0.079059980809271609981 0.028955921369584809721 -0.19293201484972594129 0.18932512704254420011 -0.083283036919547401289 0.11404328399818979001 0.10909369563322220131 0.057139383133125387637 -0.056715879486876646931 0.24008073356424633471 0.16601159331261097774 -0.16195965160529562921 0.36765360639723132508 -0.0056301572558547837571 0.020375835622545274139 -0.067912582480915556493 0.028286126456570224313 -0.1357467135931240132 -0.15886852068808410277 0.040164196117091426064 -0.08803885781109822839 -0.0051521890417701651788 -0.041998703056120668953 0.17738276206234562804 0.001286175407326508105 -0.0068281632972287909997 0.064209129765204389639 -0.040650476009564645574 -0.046715290421200955651 -0.13341513787679371017 0.11536335088717784847 -0.16552609904898013538 -0.11277536808538250745 0.011010026861463146491 -0.17557186350602388414 -0.10796818130421330373 0.13972031561765543839 -0.023522050502044047904 -0.090264854196316787749 -0.10705429983646221059;-0.18058486806239643085 0.10387598666421143934 0.0017029111458796632617 -0.017797573464865865112 -0.0035636342489276202558 -0.075915008158167193719 -0.073942127153288447761 0.16173921753408543323 0.12003949057027413216 -0.12488593727097713204 -0.26974030334130266739 -0.12324651600014593922 0.088497688674446559065 -0.30632351088467280054 0.13583173801630626931 -0.14591694861930010196 -0.27669899273369918946 -0.19386315374354479157 0.13753611067511978261 0.015220551910543039104 0.35929464594261451005 0.16228439361272789521 0.1634122750953666825 -0.17896578086930206575 0.065467907033828903751 0.099505224738932029904 0.22190510746955666166 0.024029632902210620871 0.057607099676591555504 0.17769286900169614651 -0.073113456485767544524 -0.142411957843772502 0.031626341038354433 -0.037670719442388152232 -0.019780703125643436802 -0.10086014532456287485 -0.012863048909313924695 -0.065743993745143461394 0.063509550722032098724 -0.17410788836680426983 0.19823928712163771393 -0.09807352109336121837 0.028266213142357738547 0.062148702514884357484 0.070902079251821042982 -0.059501637625846530433 -0.15106405523857655004 -0.011809847325338988441 0.1528334806561085224 -0.024081867764462323162 -0.047113450754858704483 -0.1638937843520214821 -0.00022849663839453413774 0.095605265457331237156 -0.028060481483112933304 -0.050717922111947845443 0.02651895245428971884 0.12343624809506510698 0.06317592570457192247 0.19788203242496726908 0.041766337470443073987 0.075099368743386726854 0.039466295257564835974 -0.00082324038687501947288 0.094234280250336324714 -0.091505895914368612365 -0.022199707068722318581 0.088910735362917700519 0.032222954129105231547 0.098812920057855885281 -0.24481444182997882941 0.09925267713521027102 0.064170744882004110421 0.10877330039880538093 -0.038216179323515446498 -0.017930428596268976893 0.01267946194540222303 -0.059032084572683253543 0.33586302647515015041 0.18393594153593567642 0.0072167253546513059417 -0.024928991922628266492 -0.15027241269181587646 0.14448108406449319818 -0.033347730684909239474 0.35037496682024904526 -0.037808463089790349254 -0.33011009284879810899 -0.089156533918416311368 -0.051509479864396218174 -0.036249312448017247112 0.18982344375374532452 -0.15567046577142501507 0.07267111714211936524 0.032881033583001484377 -0.0095144932778591234657 0.012638704443348943232 0.11714178736973153427 0.09691427655046505607 0.23053252608058633077 -0.047403734118790522012 0.055777331178079224416 -0.18433718262278092626 -0.013601114790403708715 -0.16400034179867162276 0.02762444485859144247 0.26102057332787581556 0.19577806724699700625 0.2197401560380184693 -0.027903377719381731309 0.1547438521492355834 -0.13389614240655875466 -0.21087332353307014499 0.0090869582353051547158 -0.17256289204003061322 -0.073448159509502133901 -0.081421985746854455557 -0.047011675493649873747 0.076113883120017336581 0.13086029900805068449 -0.18980333959111081454 0.027046661383291922126 0.083753134912827806313 -0.19478524072615074902 0.029938507492537867749 0.29578020807803984127 0.13376424953292381792 0.017329438159773308259 -0.039343484237174576601 0.034654790309043698171 0.19681699919222955808 0.20703102542602738745 0.22095466411853417754 0.070147423912663819934 -0.25107008471135405792 -0.19431493910025904315 0.2421959329968323138 9.2808487591400411557e-05 0.35100416294690339747 0.029677315692940353653 0.33084657180926363429 0.14533242283053204869 -0.051428098270709127204 -0.10559361202616994457 -0.056272030220830507319 -0.018612554975878738833 -0.19098398357583143414 0.10378244663012071991 0.17673878691017205766 0.018582904093203279211 0.1048142198569528144 -0.052385761519956698662 0.023888657254292115784 0.007223285829437956114 -0.19120657687202702313 -0.26450521996013104387 0.13086372901347093078 0.062042290821614436147 -0.1476165349856454756 -0.014023173078200345393 -0.0081722697991594948908 -0.01528745748350305092 -0.27658378773018454932 0.00586382780919733268 0.1666285475953419859 -0.091328529976400035784 -0.082195982303445311312 -0.094913362820739491377 0.013011940560688191673 -0.092400340864824626053 0.20511836276611714047 -0.15327656056204413959 -0.0169811138445756446 -0.19401483535523703083 -0.044943970427024505787 0.1360764665238599902 0.046293119450912613433 -0.068998227923719207544 -0.19616943916552559424 -0.084801152410776334256 0.0098464393669071819531 -0.11571016681404620863 0.074189461205242723807 0.030763006678451901288 -0.17650468041188108193 0.20646240634064533248 0.055711955241754436419 -0.0054556683075705761019 0.050198455013990374296 -0.11162877381190926263 0.11722301669016484127 -0.22192912582460500026 0.0084947875212798493183 0.01278535337684560437 0.030628931341110287451 0.044166925499849962744 0.13909034749933185671 0.21529392169961775183 0.032790115370373074111 0.22714912862987160502 -0.30296087976371971484 -0.0026347121601489617918 0.055058874342017900816 0.044556233962675266536 0.043160850924902342818 0.055097016531285396279 -0.11486454062620861383 0.1753009566545382647 -0.084734285538350176403 0.25954607078181923807 -0.13931930312777243697 0.038487397050002779275 -0.10931545791648701604 -0.20438794565882181797 -0.081935735191892788976 0.02503957950306311131 0.14154381783781003201 -0.043998177950269633241 0.0079282002554136605382 0.0045557664430288863019 0.17405406451300220461 0.095960327690583505089 -0.0045404589103868898264 -0.18002495959557640592 -0.16412948395266041546 -0.12564824498409560283 -0.40289621824758664603 0.29255651673017452064 -0.14470623326496048766 0.30615321050023663885 -0.046960088543407690898 0.088256473292901330141 -0.24992761164411672614 0.1171414880142631898 -0.038514796129094884536 0.33893087719630465848 -0.037179364922166960317 -0.14681533540094052204 0.0074335667806438481334 0.29570372636460562354 -0.022463609326005412603 -0.011451741798038364215 -0.02742463532289998035 -0.036796009005330324038 -0.23524630213083358443 -0.059630695296651457793 -0.15836811091961533471 -0.11298700051197507754 -0.19872616162413855867 -0.26175552155836795398 0.20241202933433985467 -0.028869795064796324735 0.096884786603446265696 -0.11445438492547173326 -0.099009158650794168444 -0.17227126192421665651;0.1315771527051486367 -0.079177372875668478036 -0.033946892665677332046 -0.19708027571846242765 0.011478387252700655158 0.085013412870978327662 -0.023688036277444826649 0.098044051889854086368 0.0075439654760278808746 -0.067197995174426067289 -0.30372955931918688144 -0.045645257985889871322 0.21818714617378623388 -0.067560055331196411377 0.098976332123438551247 0.11038446616459791916 -0.18163293144087436226 0.11840142281663801338 -0.079886621314518957426 -0.18153094845324030393 0.07993232833546654037 -0.056313945081424128525 -0.055875931127499715856 -0.052008518660015608248 -0.078838358115751322464 0.13509599215749565349 0.33730504964770818832 0.0055851496306823502844 0.069433597737445562625 -0.13727263611305373647 -0.097485188429635133422 0.12414713096816801241 0.10829647704891154358 -0.1396035216270036794 0.088726826038190834134 -0.074219391060199840782 -0.086369248314895674667 -0.22874149649751943092 0.092460980276648771503 -0.0069303185012556927508 0.079196910661765720918 0.36684514257495143275 0.046774604572945438496 -0.18411075638335930305 0.19352147869183786155 -0.036345934234752699798 -0.11917058094492527509 0.079468107465205412021 0.081965007281364091196 -0.066262390738722809491 0.11762399415901617084 -0.17352810953267933103 -0.061849130698562605757 0.088728611822071382087 -0.14650745146974150646 0.25534820836194388471 0.042158201740919963585 0.16536705878482993448 -0.13025195050233015492 0.15064798879640042828 0.023553840339318822539 -0.020580696222706452991 0.018010690434189791098 0.14013289143086379851 -0.010654825525637144634 0.3275379161455694299 0.07608879778628868662 0.155994973128134512 0.17055553539458850887 -0.040731413364012467038 -0.054098686543374387148 -0.16606070317681181914 -0.019624756522371594042 0.09520865232686485935 -0.13621415275446202564 -0.12324377536676524303 -0.13738022880167197193 -0.13660649411538614006 0.0093680869649433277935 0.18307393288024814693 -0.012688276831162687355 -0.035143047563843211878 -0.050606108794714034504 -0.091275573931520248561 0.20765112002852970097 -0.068510058526244144161 0.019713054399096933272 0.017643115351014645314 -0.090113400268592130926 -0.18504533380039908663 -0.019964358922983579947 0.082460306246738668268 0.11391769051886935227 -0.05828325363799608666 -0.00029063949662893619717 0.016520256117283912273 0.020618822905479814583 0.057709089171592099776 -0.052653520214316219816 -0.20680963174823194239 -0.077140139573300472997 -0.0073211189954665179674 0.15450755736070817536 0.059215198869988348862 0.15179593497788668177 -0.053172509399484597925 -0.020166209391801179218 -0.086447525144974043942 0.20223903933750408957 0.14372906413746100451 -0.024038794804283201284 -0.1288662304195672681 -0.20597251075866881975 -0.014149444123873516216 -0.25379763298936902638 -0.068580257323618221132 0.13012235975985450565 -0.14245282324544700225 -0.10344621708554010975 -0.088422126619116941937 -0.038892467823809791228 0.042111454143339992207 0.1958341702863491407 0.044839928209306108287 0.059673993588430625234 0.2604063848426675376 -0.005666704484225981199 -0.18932942569184796344 -0.059932285675029714489 0.04560683545518142562 -0.12509295697132941094 -0.035221395638303426567 0.14045678123085125755 -0.13366516632150990396 -0.09994530462781767155 0.18082579058287504004 -0.2749004661711487163 -0.043707587012697321494 0.21832111465145978557 0.075912285799048864754 0.10478405562044200428 0.33892962505860713129 -0.1790397886114019621 -0.12246353505526913485 0.13039633099430297802 -0.17430429376261336039 0.088412166437925224227 0.17117775938299867322 -0.003283801739286365453 0.054612227714689418057 0.031567987777827953566 0.016370841925801432604 -0.086820632557691373998 0.17921791077187085306 0.081067921708656690005 0.17473525440793979957 0.10778194429168233559 0.097152176413816945799 0.16154667709128389674 -0.13953462174470845913 0.062283431260972993426 -0.08415313398830637226 0.080506224025243156017 -0.021339096748879418652 0.072926444892493932914 -0.019306262663312416528 -0.19148856917388326626 0.035945772325597501184 0.055210643625955090064 0.10962159748148039839 0.12258448529748365574 -0.17106883528666719241 -0.060456544127959137291 -0.13656142443065297232 -0.056432306348510784255 0.068073117461960847008 -0.063059340343913916627 0.071297381424993658272 -0.26023674669247420788 0.13639729205346678986 -0.019712656505843362265 -0.059012173522734509556 -0.10154518830438628851 -0.14483946029191910321 -0.12232941259932693379 -0.053701175137181179908 -0.13033497686323036735 -0.17891231295207993268 0.16408787460864573959 -0.13263375564752885594 0.15604564020559322235 0.050153664859150043354 -0.22559215233951027124 0.0049585319121067568393 -0.04769515505362700164 -0.086788132127782538494 -0.051306526650544755086 0.12420390209315300412 0.097061017214382122598 -0.0015015262852192540199 -0.007925871174749988049 -0.044762849876087792977 -0.083376644039781358519 -0.12128186335560854625 -0.051535664144821101418 -0.0828828222485754329 0.1814940705070580973 0.26751558950174969542 0.049980482922167272786 0.10629080852375009936 0.051958137451969151066 0.30864718141687214059 0.05556968511996134702 0.048031475249541308314 -0.1402217470988037229 -0.079433542939203266586 -0.19806049462375310832 -0.15203285002637434431 0.27635899662334523219 -0.047577098521460380043 -0.24708706008416514432 -0.17861026485711697931 0.037148691351226087454 -0.11345803959882366785 -0.17033301916518495123 -0.015100775857523439719 0.18008903230623699021 0.059132682509046866071 -0.070617004841268218862 0.19034455369051936358 -0.15632150130426600287 0.20290552882925702582 0.085929621436014430591 -0.16079792718160582088 0.04820509480435417049 0.28739342415123619867 -0.0052984954640127104875 0.07914055202689451729 0.082496259649193895425 0.083272437081823413862 0.056094536590573305934 -0.14803196381885172506 0.16028362717380728597 0.056944873331666555349 0.46904485094743725293 -0.068071727570280307629 -0.085564955765103298257 -0.050275611600482418562 -0.1594074357079333093 -0.26230178156574851522 0.01024497812793123859 0.1581231815715088973 0.063242913618125867758 -0.070147130397163581783 -0.17015135956787347249 0.11641603699262516314;-0.0045409327518747032507 -0.059015536733843382278 -0.056691784731570007971 0.175535371764657111 -0.10919404211293921858 0.24374456676749403639 -0.026192281636974977521 -0.1050610583883243021 0.064993364745715126451 0.071460676754127608334 -0.18078772906322956859 -0.037365245661396567778 -0.050813523959543180353 0.04641556482531074973 -0.081135668103583760691 0.039485280425922614223 0.019564053964791650736 0.072651737201160429547 -0.24714645508190899448 0.12446111342273258327 -0.050635856804300369283 -0.039312059273994739983 -0.15687792440010286943 -0.0024884384386821322213 0.15597600943399808626 0.10306112443228922226 0.027838237212154736538 0.075921661284928720903 0.091195880016458216732 0.25217361632869084165 0.095931700099303060525 0.061201711864513785866 -0.15184144370077037878 0.15241962915473722395 -0.072650181869545013558 -0.054914892216530820923 -0.17983129816919460331 -0.095931507642553814907 -0.032300131883721112935 -0.090613899131950587096 0.023958048648906681011 -0.00040353055659206137464 -0.14474885717217203518 -0.049325996289502821446 -0.011614935656125556507 0.032207101392686711405 0.17003695826907794242 0.021813213969214474003 -0.17219727208739687985 0.12520379562866590373 -0.24646016379977744859 0.054204268124730829725 0.049622628206251934158 -0.020361273381144486677 0.036280109829491452578 0.17752751796263371853 -0.062625509568537671146 -0.22644664493524674365 -0.1649784750518090426 -0.097906844935978704081 0.044895803919144855465 0.032615497450890068576 0.16366178073477913313 -0.10437657602367092502 -0.053708123039746473448 0.049129160196344341671 0.070086157975934301745 -0.050492098484871149322 -0.045828416445681453839 -0.22014811599157688149 0.10480701690906579771 -0.015383176165572148147 0.32181098911847322297 0.096461695127082192069 0.13441723744428357712 -0.0232875263518649879 0.038799409389559801065 -0.11875450353300756601 -0.16402316371564504283 -0.11482125956298885883 0.081581791146407220405 0.0087957263125297852763 -0.058555921962194890096 -0.070167695196198393015 -0.042610002122842001449 -0.21767114873150877896 0.022826106199184938161 0.10871458925833754616 0.21167900036400802422 0.093658615713611170772 -0.14304407615709047175 0.0096683871350164291014 0.075920744017003230497 -0.00094540655371074823997 -0.0013912041729195086248 0.1395388000824671626 0.0041981624864618587167 -0.20403982379051441298 0.065980610938592740289 -0.039090447592243768304 -0.051217622440818143248 0.086310019662920192673 0.05519882513193194451 -0.078520777392432378194 0.0052160620131286939208 -0.13122400019798657889 -0.17459531241689041359 -0.052203741808415783654 -0.033868163783074174689 -0.14689000830343046378 -0.0076153215293061323268 0.015624332554594905914 -0.1397621098166564324 -0.1063177084938769501 -0.096862883840201891017 -0.28188760505352361552 -0.01800336213752514597 0.15295178616366003621 -0.069961961378980253023 0.047414145101227676837 -0.054474515454738942077 0.015648246384365519651 0.16242488450435532688 -0.031717702605749867328 -0.16432818558656625552 0.18768263243520325045 -0.4400624375752720252 -0.024778087631632014776 0.083543829449813103438 -0.059016631413324069366 -0.14672096736765791181 -0.15319875901014054498 -0.12397893073926341545 0.014803224846212012164 -0.13204722887954253863 -0.088827922435789657962 -0.11137059525368313284 -0.07419324424025044995 0.066068660130167322642 0.081155202209280741243 -0.15285885716218916563 0.1292021788810901739 0.3015439441423910516 0.10849368936237339944 0.014328833464379318874 0.20215129948453905429 -0.015171814013135481031 0.24442008071396756352 0.008007395324586221233 0.26995153954124873064 -0.18079036017314001339 0.034568412288166851243 -0.0731191828112404546 0.12312195417903179506 -0.0093537198111940771106 0.10711051336900655195 -0.098789089953540520916 -0.20403633474422003258 -0.0031198300344673201429 0.15446338860827954487 -0.055068685427764885176 0.012771052007386598029 0.11663150155453445855 0.13109625886863751631 0.171223645377119843 -0.037082871954896692857 0.014216648278370542027 -0.12315484089606970608 0.024207096944731252425 0.040121792523140478726 0.10469109545840518671 0.11535212425797189417 -0.029690638001211102498 -0.21034733114645132179 0.026327624522354226705 0.033461811632991056431 -0.20999706354256686414 0.15633951956456867971 -0.085813717945621953431 0.15695502508572228839 -0.089133457711273927915 0.21702425725115837007 -0.10149237361459091666 -0.05188089811185510325 -0.021123814978310437307 0.2125243359111579633 -0.056206999617763056531 0.0080119031682619502865 0.032913802079023092573 -0.041185504831499596123 -0.027770574190236037987 0.160016001990056278 -0.34120450029437232597 0.0082768895392777205172 0.11649133231093319885 -0.12540070825767482554 -0.027634339004495949571 -0.012220110344237231775 -0.08056885710479584628 0.057429936314997535873 -0.02392314983292597938 -0.098318960385029838256 0.088255010703640515701 -0.13395432767273857122 -0.015899061507347357625 -0.025400494965236771611 0.16540107241171073116 -0.25981202310994672144 -0.050656939795877695132 -0.10558685857647411022 0.10375901159954291353 -0.18224548408551521916 -0.068285715187532444737 0.07636610763868245666 0.012165416937817981335 0.057956534353604337306 -0.032425184651671171143 -0.1184390548365985979 0.3466359482537075265 -0.16170537375568225236 0.21354248062538755404 -0.06199410812528087511 0.20229471066226725751 -0.069808942820598934853 -0.055796772090427167179 0.14345386589315597958 0.15716197607416643178 -0.088202658589748031415 -0.023350291611088355714 -0.05311467981105653241 -0.1921344336449630763 -0.018969325262927702602 -0.059279297416949636168 0.070348131698239099729 -0.030479198491131894583 -0.21100652528089894333 -0.10532346383754376262 0.17819201089060873744 0.049718845919159010416 -0.10995160001492564061 0.23217816034740321185 0.033580413571464892697 0.00027306591464200852303 0.072218816043969985552 0.043622424898143712102 -0.11757187782151366784 -0.17349990172706994396 0.07706940805899241409 0.089420116799343085656 0.063588769771604297665 0.075755341551954541446 0.21035757412809713562 0.041652717055722328354 0.070817464291308876434 -0.00040681536306450948731 -0.056632462855954031344;0.028028609872399464636 0.014497237546503725578 -0.051750609075914423551 -0.12617990889894217799 -0.020813717048714121954 -0.18696558084172831826 0.054534991647691086203 0.2635923016619159398 0.03847052407345045999 0.026553274954121523083 0.043543614964593739536 -0.062894260331715134971 0.030548832731616085145 0.056761093944524006194 0.29801933609333303155 0.13879138040762270534 0.16762649666928264303 -0.11940788682486581929 0.27149749030676723072 -0.051029223553487330911 0.012743483291787162034 -0.28368765999990314119 0.015890988715011027804 -0.010046656858471598658 0.020789438282025729521 -0.033040308121737728408 0.021790517755147943008 -0.1087697724273914146 -0.018013250859358113931 -0.28932101995742126599 -0.20814749298101770103 -0.022292664089013040224 0.071471427900262812782 0.20000078672907969923 0.012444927412766529015 -0.19366710814498006021 0.054160585665015394119 0.065677916690048784853 -0.03907915265435057961 0.042256028864337234763 -0.033695923935879841526 0.030281999120179495244 0.19294167436090767231 -0.069718779794811003292 0.099225743925635379039 0.081509986916316556904 0.012261600503519546473 -0.17484786416439723755 0.04191427041591993391 -0.14457698945045430183 -0.081180004707728459223 0.065596571167647485523 -0.26509008269288042436 0.010159087591543684501 0.14053711080484024287 -0.004219650236723085715 -0.016556488729922273079 -0.17998778713826668607 -0.082801180360649137557 0.14663814769002403438 -0.02805979768893877499 -0.016690959932360714679 -0.11169032248956764497 0.20493318608978602913 -0.16184072332066046229 -0.072363306441366362365 -0.022524354622638916024 0.099519296931045442278 0.16368557832095648186 -0.15974779164576066726 0.003531252345122913236 -0.13409327704776566326 -0.073978272039720488484 -0.081805312828416201776 0.081846141245101158845 -0.021396739104367144824 -0.20629020151439558806 0.19745708016669749618 -0.26880337912836499425 0.23629945278191274993 0.059416821817027148933 -0.092955769733675142064 -0.061456133353127995189 -0.17748892419278161636 -0.049441776509371072879 -0.18121560093476238307 0.0831337830444834891 0.0013445860023151897517 -0.18834698985530298754 -0.030895555151939299576 0.12885473512811554397 -0.066112444843499401648 0.066830665921408058394 -0.046183217546304715373 0.28981917274898000292 0.11680314374038525127 -0.088098929427199546005 -0.14848556840918242239 0.021253792167398838364 -0.13536440824089074342 0.20635401355566523884 0.064557579905390544139 -0.21476729561925322898 -0.18426120721653749257 0.088393851173404189292 0.30437960786442341821 0.0027483191332003924917 0.068497406365221794045 0.15373200423893559896 -0.055569268294219160975 -0.13233269026795346779 0.029946164581378647424 -0.28852927944234174618 0.092566817376807664086 -0.045213138384890598498 -0.032860832585336098577 0.034898800544138748603 0.08650745339643528542 0.037420206051119210555 0.12413281135094979268 0.21786334363292908511 -0.075158228014259170768 0.15256642161612754549 -0.017166596708739351174 0.09592179440163581261 -0.031518123015181691293 -0.10418266865728331716 0.12965851973480208015 0.21352608450621377023 0.056959760220907602879 -0.041548293458148241597 0.054220210926578499278 0.11898468282956142783 0.072068580924550137978 -0.063062661010465342892 0.077238644643228063225 0.23598220236408287698 -0.10134893858442318992 -0.0014897416666969198317 0.012909985237931048685 0.15173906416559762578 0.29712126728614363103 -0.035226916184108399144 0.032131698346718813586 0.10673161573886819076 -0.01308984596739133123 0.20506077159636301732 0.040786097993697291442 0.035513671440830806014 -0.16061902195100849489 -0.052100198773243219796 -0.0097219897800773103641 -0.051749246029051239326 0.031318976972504089518 0.029218030699252550697 0.09649619810948176224 -0.057824088941129350716 0.12854768953021114553 0.15233552469574102028 0.10312182211823681111 -0.033659798080294144051 -0.042331664987151379487 0.079313279472994185904 -0.21069345483750670511 0.13713835628718687443 0.051111172580625190143 0.02816332335808867729 -0.086720489642553244547 0.13341100046704709725 0.23072840326684249113 -0.017405306830102145604 -0.0053628464632663949696 0.020743847168374275614 -0.11503890632493471435 -0.17692419109399298849 -0.16443801994284990009 0.127618573593004353 -0.14253747570734534578 0.17653604527401753344 -0.11406587344430077491 -0.013851797513631233794 -0.21858005852970652239 0.27803303676878071693 0.045866283499217203046 -0.16188434719595509725 0.080572069151764735828 -0.011035783353804898971 0.10580058041848205974 0.022427471517213477814 -0.044780339265324625719 0.038525845108341678913 0.17206939253564695891 -0.06153067369967775424 -0.011303942610548827624 0.0077002799461357226973 0.035694244090424508131 -0.061383654577861455903 -0.27670328601333710195 0.045431520080533367711 -0.19062093652151640422 0.088171454130096527102 -0.26840878630608494548 0.13245135688116826955 0.15390997988265156526 0.035172193671163996809 0.015641095684080813522 0.12175101144792246921 0.075663015759246929348 0.16911294867596080027 -0.098642075307871474044 0.1405165529398161306 0.036920791436429900578 0.014055835201994880054 0.02999000256111681445 -0.23939677474294768222 0.05141288725122827169 -0.25374838977911789994 0.0019885546725245542912 -0.0057903446002652726038 0.10726697509455218604 0.056033323640800165866 -0.28006315636441847516 -0.055739832092826728516 -0.050922069732306354806 -0.098260210964989297411 -0.21506782738963847734 0.0026003491258661257449 -0.053348028278018155834 -0.24298021657002139007 -0.15193535351351034057 0.038462373618702166977 0.032496026728778854009 -0.0047054069030634491921 0.16026454771407999678 -0.082095356044355319303 0.0097084470472311515388 0.099517986499956009872 0.0073340958300869537115 -0.065966858342760739675 -0.1133013999477043704 0.088185011873077284728 -0.17621910808199248155 0.14813388649361527993 -0.19792926807047320215 0.42193657376575172124 0.1661580565782191099 -0.032145003851749884283 0.019974111755540358698 0.038487391045994356897 -0.14593135567256171337 0.24455586166112364133 0.0085971089140622018038 0.15677847714295034542 -0.092354960607350849999 -0.23759824968000115009 0.092886348002323218531];

% Layer 2
b2 = -0.17414402522923005945;
LW2_1 = [1.5930526084755958216 1.48020173434470248 1.5371229141846689537 -1.6721247003142674092 1.7021485266980818096 -1.5798903352667406086 -1.549932903438026921 1.5308542098307309498 -1.4686734605955142907 -1.5629171920837594545];

% Output 1
y1_step1.ymin = -1;
y1_step1.gain = 0.4;
y1_step1.xoffset = 0;

% ===== SIMULATION ========

% Dimensions
Q = size(x1,1); % samples

% Input 1
x1 = x1';
xp1 = mapminmax_apply(x1,x1_step1);

% Layer 1
a1 = tansig_apply(repmat(b1,1,Q) + IW1_1*xp1);

% Layer 2
a2 = repmat(b2,1,Q) + LW2_1*a1;

% Output 1
y1 = mapminmax_reverse(a2,y1_step1);
y1 = y1';
end

% ===== MODULE FUNCTIONS ========

% Map Minimum and Maximum Input Processing Function
function y = mapminmax_apply(x,settings)
y = bsxfun(@minus,x,settings.xoffset);
y = bsxfun(@times,y,settings.gain);
y = bsxfun(@plus,y,settings.ymin);
end

% Sigmoid Symmetric Transfer Function
function a = tansig_apply(n,~)
a = 2 ./ (1 + exp(-2*n)) - 1;
end

% Map Minimum and Maximum Output Reverse-Processing Function
function x = mapminmax_reverse(y,settings)
x = bsxfun(@minus,y,settings.ymin);
x = bsxfun(@rdivide,x,settings.gain);
x = bsxfun(@plus,x,settings.xoffset);
end
