function [y1] = LevenbergMarquardtNeuralNetworkFunction(x1)
%MYNEURALNETWORKFUNCTION neural network simulation function.
%
% Generated by Neural Network Toolbox function genFunction, 20-Nov-2016 01:26:22.
%
% [y1] = myNeuralNetworkFunction(x1) takes these arguments:
%   x = Qx256 matrix, input #1
% and returns:
%   y = Qx1 matrix, output #1
% where Q is the number of samples.

%#ok<*RPMT0>

% ===== NEURAL NETWORK CONSTANTS =====

% Input 1
x1_step1.xoffset = [0;0;0;0;0;0;0;0;0;0;0;0;0;0;0;0;0;0;0;0;0;0;0;0;0;0;0;0;0;0;0;0;0;0;0;0;0;0;0;0;0;0;0;0;0;0;0;0;0;0;0;0;0;0;0;0;0;0;0;0;0;0;0;0;0;0;0;0;0;0;0;0;0;0;0;0;0;0;0;0;0;0;0;0;0;0;0;0;0;0;0;0;0;0;0;0;0;0;0;0;0;0;0;0;0;0;0;0;0;0;0;0;0;0;0;0;0;0;0;0;0;0;0;0;0;0;0;0;0;0;0;0;0;0;0;0;0;0;0;0;0;0;0;0;0;0;0;0;0;0;0;0;0;0;0;0;0;0;0;0;0;0;0;0;0;0;0;0;0;0;0;0;0;0;0;0;0;0;0;0;0;0;0;0;0;0;0;0;0;0;0;0;0;0;0;0;0;0;0;0;0;0;0;0;0;0;0;0;0;0;0;0;0;0;0;0;0;0;0;0;0;0;0;0;0;0;0;0;0;0;0;0;0;0;0;0;0;0;0;0;0;0;0;0;0;0;0;0;0;0;0;0;0;0;0;0];
x1_step1.gain = [0.0606999022156956;0.0535571254518826;0.0792630289601656;0.0964590459148576;0.0412537492553422;0.0890885823818071;0.0577075839274922;0.0568436779341084;0.1166011942166;0.0725659186079094;0.0651520629649515;0.081181684292951;0.0880010366333051;0.0700207643095608;0.049304812562661;0.0447550575524971;0.0580437427125371;0.0368432891782325;0.0618586720575281;0.0827106035196273;0.0911917264269079;0.0607579563397216;0.071335922602222;0.0457686671340538;0.0586358241658939;0.107314050817426;0.0623743902951174;0.0431747748795291;0.0728967137818055;0.07195040564462;0.089181483880839;0.070619329395999;0.0428410185952907;0.0425774024217782;0.0567422247682071;0.0673812827528178;0.0568411635282789;0.071172265123095;0.0667560502636307;0.0742108651694451;0.0880581112857963;0.064948291032979;0.0806537983762725;0.0799813825074745;0.077310973440131;0.0578206572361953;0.0820161511221671;0.0641230917577437;0.0704892297104047;0.123571357610802;0.0784146272426846;0.0823073137836822;0.0667949129470882;0.0454606781712649;0.0736869097612654;0.0600176542713961;0.096875423539419;0.0620325049246749;0.0956609914358372;0.0844252126539914;0.058516826232746;0.119042123780077;0.0699514118087037;0.0888271581825442;0.0783439769317059;0.0829120950371793;0.0628068725923905;0.0517321439108107;0.0616510077989193;0.0686035610682171;0.0528998199972556;0.0831407267106679;0.0597196359194437;0.0808033170960106;0.0728046678816794;0.0695855160598168;0.0538066870219262;0.0896154234357302;0.0427518363406265;0.0611414862467574;0.0870158739142164;0.125233317482743;0.354203924420016;0.0735845905316093;0.105370003791437;0.114302009258609;0.078393059506075;0.0666342702061802;0.0935246645954484;0.104302595459302;0.0903195253387555;0.0749693566644036;0.0571485875484515;0.0512389846610834;0.0888649785832703;0.0521185953324408;0.0612181821345072;0.0555865201246787;0.0751824107849866;0.0608250962921713;0.0653944781749197;0.0630915039082008;0.0589057591893627;0.116746269567361;0.0641639540977969;0.0923700064570632;0.0452989492355897;0.0747555027041208;0.0737512950379561;0.0860406550169144;0.0374899828377327;0.0668819277335903;0.0733311313442654;0.0557116892876391;0.0513543187247539;0.0703993357093933;0.049674855799395;0.0722647317708283;0.101308176846813;0.0789772044698536;0.0521715161680174;0.126347298065773;0.0539400435954172;0.0524684399063492;0.0536602106111683;0.0582523840358815;0.0659267105295339;0.0778249889245663;0.102271252079048;0.0564399050349681;0.0644879538652729;0.0648391533566408;0.0416022675064016;0.106501471513099;0.0468650639633824;0.0644384481052444;0.0397509048030094;0.0587561828205227;0.0706325156542239;0.0822109496891342;0.0587985135287901;0.0759684698277064;0.0801969620059153;0.198616340157304;0.0879844447056796;0.0528541756913818;0.0737538939550035;0.0892913269023827;0.0564602662685317;0.268805659455092;0.0793704656237253;0.0666113824852649;0.072426588695212;0.0907483151332034;0.0536755268292149;0.0679010882683842;0.0577427815740913;0.0736777920383724;0.0682458197014297;0.0601448971112122;0.0880444030698862;0.0618843294857074;0.073220899507846;0.0562467265544052;0.0691421931922988;0.0516985782614878;0.0969778401580684;0.0470300595608119;0.121770315675227;0.0829378351432403;0.0661710936137312;0.11214092906063;0.198768765558192;0.0691365858601962;0.072421451385073;0.0450277391134597;0.0913070335889745;0.150020895530503;0.0681752115732769;0.0891232926498204;0.0597564121077947;0.104429522501362;0.0689091774522907;0.0679167450928931;0.0662946385528648;0.0853621694633335;0.0493119401960296;0.0869153583682814;0.0568417366453284;0.0411240270372155;0.0585406093878598;0.0552491823608285;0.0585807775119751;0.0474410045887532;0.0607320985928202;0.103539899469403;0.0607319016122992;0.0478667537289995;0.0558751454460235;0.156492365561758;0.0899889120412486;0.104670167131717;0.0548047732569164;0.0856844877211221;0.0649161561970718;0.0693621643819052;0.0959618237812862;0.0909665920450558;0.0490286897809079;0.0922856463667922;0.0944429678323636;0.101835014565673;0.0569745423485503;0.0473428734612424;0.0591981565613112;0.0487708361027052;0.0716352098052442;0.0644879102388432;0.0658625423686549;0.0642895147078966;0.0598305238514485;0.076598392507299;0.0435288337177098;0.0889744882767956;0.0663244904137222;0.0618013447375121;0.0500734548456608;0.0656162527781635;0.06817023862145;0.0412014048248161;0.0679080229991074;0.0495287341250303;0.0794256258111469;0.0791936891924725;0.0811339640148784;0.0479765388165894;0.0837575891576251;0.0612128858467385;0.038079350670838;0.0500356164780991;0.062196484175182;0.0744325770296491;0.0738937685465378;0.0779410196116908;0.0624731149738961;0.0567446690123398;0.0480666328979306;0.0604849962511826;0.0478855309593026;0.0811475827860106;0.0596508881165839;0.148173311632027;0.0501221007290863;0.0621369312186619;0.0325803048636803;0.104178263958553];
x1_step1.ymin = -1;

% Layer 1
b1 = [-1.598682562702333998;-1.1295580378787948295;2.128782319528164102;-0.51789718473581514147;-0.22721777556892081007;-0.06368414786348737533;-0.52365556836926441253;0.83668891028859793124;1.3104790573872766579;1.4366575604299791635];
IW1_1 = [0.521507674052509973 -0.13894445770230787196 0.42167697801387793444 0.46505519112180399022 -0.67371088181708049802 0.3680667305402613998 0.064584723843806368659 0.18386528697564835655 0.08196751539804641995 -0.45997481139286688911 0.69520274160920747519 -0.50375679386422511641 -0.46866527573690031083 -0.42036735399628377685 -0.67752828316553515009 0.16827077909599691408 0.162192226278155327 0.55548221195909242009 -0.46358897946986188376 -0.5932347068309120619 -0.11733461006691653372 -0.21901779511492239227 -0.61537780565357635965 0.18563740152302418696 -0.60094602460418045098 1.1539573336884583199 1.115484708095934252 0.05341852679460407094 -0.60841952966425361105 -0.41331543065879244869 -0.29901220284666241156 0.40383414469681083725 -0.14407532886937643446 1.3400011585837738881 0.51940019568481943235 0.0024576330214488573134 -0.063626691770730575692 -0.29351094358357532332 0.40166039326698949052 0.96452452700288271448 -0.023793962238744470472 -0.50197974485433027869 0.095434736228858174645 -0.50493838640634325365 -0.14632908654694443129 0.62915004461519608014 -0.32169644203797365112 0.13719202455158013843 0.39187780079749479079 0.89838850065668218736 0.48937247439399145232 0.37253183345290941109 -0.047770684670691343499 -0.15268424251846082762 -0.79613816587988261997 -0.40812477121529111557 -0.44199401790046316529 0.66531966058934655095 0.15358169302744828499 -0.15704131642598964658 -0.25136742352230756481 0.19587132071551222046 -0.11485063028069197877 0.27557753913384885891 -0.33560339008750794676 -0.094591642713003964982 0.028381920438940222429 0.71595988158242618304 0.64360581149003248669 0.65513163237311988762 0.1326305657635362123 0.096402164645887439276 -1.7724778950321808946 -0.032319798362893337185 0.21124645457882940125 0.95654801732549665783 -0.43004944410408668665 -0.67316194394692130398 -0.047491684692242464028 -0.90850220743553800062 0.54854220510528239885 0.22418219252159318766 0.55523719006763683215 0.23743981745095865676 0.15916156258066965767 -1.0213466709590657278 0.38692076074205639102 -0.13387261483320289646 -0.43023644465598698261 -0.44415917094536189191 -0.10812904941996590025 -0.8409507508727001035 -0.1224897503710926927 -1.0581269022380597189 0.11942824061664951418 -0.9226784859866210553 -0.058230307264278025059 0.12572537032149022629 0.62684332258095787349 0.60185520350927190769 0.082014637746954166531 -0.7324945469741941384 0.54613358920520382878 0.088427446808617707341 -0.18225548004068983787 -0.30753111881012051843 -0.67681519679674351231 0.2447109151009129735 -0.87110787668639877435 -0.32668418938614385283 -0.3413451584485071022 0.48411643894686878786 -0.28422204829492553335 0.4106211384119710095 -0.56819134536779380973 -0.00075674812702736238279 -0.064825715354803553625 0.39593390976335696152 0.3907129157738043479 0.36482376437365027222 0.10350426466703349648 -0.36234196573391930229 -0.47594448320589738399 0.10304923533499646404 0.46076975767852601518 0.38931195495537285201 -0.21417006471479443919 -0.37836356812546328987 -0.034608343090381465945 0.33494245309351539097 0.17285817841005052253 0.02378399114743877385 -1.0963698222081807998 -0.33231685137778071981 0.16327748615565151891 -0.19386851130077925598 0.2147072710980450494 -0.1517072793413330456 0.079290882420372077455 0.15877554013828215629 -0.14600941143345461115 0.23192521718103870088 -0.62698410128981685308 -0.37381586583973364091 0.24526705434147683116 -1.0260759855241348149 0.28356362340165736091 0.28046533499105397169 0.0030522883480452733806 0.18619226764854945877 0.5847706837878690056 -0.42983994567202332693 0.42431985877220396164 -1.089955818591702652 -0.067038348180311721491 0.43912344361550037508 -0.29908391172884157827 -0.64418931835180237577 -0.39426568645773518718 0.104763343083862287 -0.015014663247673698532 0.44645279693546224831 0.14121825888337469213 0.069469146767456829705 -0.60148843863766798812 -0.20748141091934810265 0.16249712469082308597 0.21593916862215686847 0.49776445282718329022 -0.222774258616118076 1.074815402293779476 0.3446703551459825432 0.38905882514957645935 0.074711198873612050253 -0.056250743337769137931 0.6231883150392090176 0.11362020201974820655 -0.49071237501562803285 -0.11305844110170373829 0.55108271011904252923 0.45690592025929066544 0.74975132313177850207 0.57742001628263284196 0.1317194243949544874 1.41170172770566138 -0.14118877999088225161 0.39599380148677809643 -0.27790482278354033951 0.52310900520118996937 0.0083523927894945115824 0.03591050978584081621 0.60802480098974776013 -0.38597818954109075484 -0.030969893147195115546 -0.036564516473788818973 0.021839628200555349924 0.38519930165166516023 0.57951135945612031186 -0.055657771447001125331 0.59356692832802615545 -0.17685624446943878918 -0.47597178111775106935 -0.120229735358058476 0.9705654581374327794 -0.48645110728130730449 -0.33114333927633837762 0.50389756559739928843 -0.019960825284371014332 -0.35337546444340683927 0.19161464629841279406 0.67723478552949645248 0.42768373183705959972 -0.054498178511487423148 -0.22955373337413786938 -0.47735193212646481742 -0.20406973664459837625 -1.3991899509326855 0.54085093796875027827 0.11430249211768883644 -0.32963020148766741801 -0.770630786030724102 -0.32522490407301385407 -0.31969592917606770577 -0.1811450824784489877 -0.12630419895053773827 -0.54042686171979237297 0.81828941794527321196 -0.30971650043377502159 0.11772293407762764172 -0.67549391796158919643 0.42980464661539707905 -0.51301041453128815029 -0.063101667990787382867 -0.084476435764048840582 -0.012066357753075934722 0.46346511034467580137 0.39947139295649147783 -0.30514079149493128496 0.099291564207576704648 -0.039304323072923419424 -0.1697583237801992273 -0.58648536947002405384 -0.2237631411125689529 0.075114152233203834719 -1.157990446601084189 -0.2268214626268875711 -0.017839974132247471417 0.5229032834612745706 -0.0732516120445265706 0.30744160807573706062 0.356829027106553065 -0.25356106400517053334 0.42409613929749512273 0.74265320037717141854 -0.63977821544521007446 0.54761126992275865888;0.15089080873613269773 0.16832770241232647424 -0.14077368471371259906 -0.12645524033831873068 -0.013888182605839115638 0.096704953159985576616 -0.10293542909834668686 -0.043139645520791372602 0.17373487992857075679 -0.1947650599513504055 0.14321318850535610934 -0.19106706549678970086 0.13812548693180903836 0.097370237418434604781 0.047330535383659520787 -0.13371954327470633728 -0.053390547076623856571 -0.031490255018422674826 -0.087305909880423651637 0.10595105082878805702 0.016395533188299737243 -0.066878093343820596561 0.17563238589153415403 -0.072320395449151045342 -0.05626509032305186675 0.022481275877895029458 0.17106537742862384932 0.08533935133516080962 0.069642625868973379033 -0.043041695943567055693 0.11989913087664733071 0.044732156623723109967 -0.021941790445375294882 0.012872231463477325566 0.14436744347383406728 0.13200636835947932024 0.069510848611875480918 -0.0027796866545547224518 -0.020328260625717589627 0.08665577446396549588 -0.10818487657440599425 0.026516152646475610322 -0.13271952738749140388 0.12004002430639547361 -0.05962279515639815064 -0.11445194816701727281 0.098470320079006343206 0.11788818500387104882 0.10728693578566492195 0.098980085428383393631 0.013217030297695411128 0.074445248586855666817 0.023748444641310782754 -0.061359444357481862653 -0.066041822820330109423 -0.025627130440637548719 -0.057467294222460524322 0.15915671588426189009 0.15117377418385036236 -0.083650542254583265533 0.027044528877963054658 0.17327813123683277752 0.071997727970162808675 0.025696810246969521707 0.030340311717606208847 -0.066637155338392803361 0.020846438439764761186 -0.13227710817893037487 -0.13996661092741621846 -0.11192257843439028242 0.13502930695085713086 -0.01823635626683749178 -0.032453912793322839403 -0.051396877081859464187 -0.099350072683817958197 -0.12051483445761444757 -0.10462022847537560954 -0.13241666137330282416 -0.003187413139246199692 -0.024270782518630188568 -0.069427661149878028279 -0.063101118296758476611 -0.01354110555060020378 -0.09119225502537942063 0.12514512227878427097 0.18830483119423205296 -0.022743763365759412515 -0.16457322894700240901 -0.00073820804039891074234 -0.091136047960353086528 -0.076905472898094809353 -0.043249543630506738501 -0.017914677018713878048 -0.053305754950623930599 0.092490729668822935228 0.091269388455207989264 0.12123410374855546345 0.14787788876767965496 -0.046337049020478304762 0.099616330004805173082 -0.093954026517575062183 0.095176489237231154394 -0.0040075924198846616872 -0.12091192245164271435 0.0017903768604896623702 -0.084262918576707326879 -0.11899496486039819187 0.097149734652319755246 -0.040980370970221967342 0.13107720988728180367 0.065505015095981070083 -0.071828996030618333379 -0.10408243272975593874 -0.096390291462817911938 0.032564770051670383078 0.030665714480203946218 -0.017896372184778998327 0.018806178433300235753 -0.044215366573366936265 0.13639066644907460457 -0.027119792138352340205 0.15828442287405813937 -0.049771835795330725272 0.013385295279766137519 -0.12103410335198620806 0.086271161842729773839 0.048715052862775359843 0.019670622244261755374 0.034898559474504584066 0.12439178855037662241 0.096127149099042810687 0.01564954757423733453 -0.018715071913821639676 0.023392399784397222007 -0.054978325025726179631 0.13932684061894021199 0.03741373974045431039 -0.036883140219032668761 0.082890554678038422254 -0.0085980087809707922419 0.10152795746612515437 0.00038667257112851922051 -0.022600601026549854006 0.014247506419427142382 0.061558364237526690121 0.016641530247413792443 0.071046483345613004046 0.056543032909405155362 0.10192993159853537544 0.020835327476169857724 -0.049900230635342407437 0.17979772966884213781 -0.062248658373625351259 -0.029479438326055169145 0.071419001251268182662 0.092013477652477387858 0.083105207524617044634 -0.037768737778611165268 -0.12513006939430748599 0.053064770412724074355 0.038572303036589587755 0.10893080523402261239 -0.0035962478375818193385 0.014744857127630949314 0.033669502816336932538 -0.047721269889140660592 0.041508014409906257569 0.15642564169608552671 0.18201617317354507053 0.097200003044756830284 0.064487713576728791787 0.072091562062573916192 0.015319787657043922383 0.14675884148926399142 0.20446705240784449065 -0.046830634612171823106 0.032043188843865914872 -0.012100164813698136707 -0.13389736493568552 -0.12775668358906183686 -0.12549427262423329399 0.02153530614058989795 0.1644632113405661844 0.014490122788648938934 0.083554889459528491891 0.13438444325185602835 0.057293473303149829168 0.029839046133730479093 -0.029084892837835839979 -0.093163371805741496123 0.083561858877641365106 0.068947816305311077079 0.10219525930449123441 0.075282220500927102269 -0.049121330777163636772 -0.070127805115143132531 0.20687642940828601668 0.1875469458133512124 -0.02046739093955916855 0.12135479766285757475 0.126354115842575776 0.1392865164440809933 0.12344787912867385971 0.10233813107650556462 -0.018594466074836731029 0.056420054675469510919 0.1099178501727427204 -0.085398207135380710397 -0.061579620214182784199 -0.07280104215417075586 0.0088752839908007568476 0.073623403086605337942 0.010776244677213452777 -0.058227367338488336679 0.035062040875834601938 0.025503188578794345337 0.019248750870776348831 0.13006945997960153716 0.0018503967693544976728 -0.13018509634832078903 0.08618546741301635894 0.051788243694685626162 0.15468388503212793239 0.16353148080873039505 0.081050658302937408917 0.060684211339380601802 0.17544137097041956341 0.10126406839294800621 0.14120773242939677061 0.16591447377178111799 0.1599980844439883032 0.13011160137467542297 0.091947139635020810888 0.12167976051213795496 -0.047946505063875703712 0.043239588437369184948 -0.0022017273502112468322 0.15143455966763447185 -0.10219139566207870173 -0.011210841653677241711 -0.023646250514464159376 0.19663820303397669398 0.12520728870796493659 -0.036980419068108866254 0.055541390123830927661 -0.0050545372056458835741 -0.091470780682181299093 0.15786587980742394777 0.10792456065883213046 0.13444282481563898934 0.015754009844905225018 0.16057773139275718921 -0.022412880259434251468 -0.059034138771032418358 0.12123944345276854717 -0.039801134721060428545;-0.050098494532874585095 -0.01766762194765003624 0.54012500192259627063 0.22007996060773360458 -0.055167174050995276824 -0.055518092382233041882 -0.68954969531888332668 -0.29133766321039267222 0.30073157133421868359 -0.20584183987216769784 -0.1234174100085660003 -0.28748116220578212587 0.0091486668124723391493 -0.073494341710214461383 0.40147418854000060939 -0.18470096481147235679 -0.069307206755468753201 0.012376770280840360128 -0.054459896608246016747 -0.13945363781872632813 0.11682467638764455764 0.1650363526344300058 -0.08027872163249474835 0.11574075418632079337 0.15722771045038880233 0.19088793821833205389 0.2800551463078470027 0.018448273256858660485 0.084828449943433026359 -0.021155140280586168244 0.050611166106830002276 0.258422164665678189 0.20619531033413723842 0.28199043790143729638 -0.042013056409941504366 -0.21463714278889167719 0.45192852152611751038 -0.032058755293023655231 0.13180037143367231978 0.012514668724873376227 0.25965045519754770265 -0.25201650516495294196 -0.11303415916769804506 0.020538681090440130683 0.17224070757675097321 -0.86088220136364901336 0.015277554484487705644 0.0045022955242875473125 0.11218734036144478727 0.10690181252762706587 0.18630605839963790271 -0.10405352706200796109 0.06652007969708408075 -0.16514276621649714993 0.067816173785712627331 0.021750501975800112797 0.031944027765505852989 -0.018792423941176354674 -0.016715205987208832383 -0.031646984043442086265 -0.18167217337592247994 -0.08901301479214697443 0.29508443653901678116 0.25604489259662877032 0.099769015005886696468 -0.17198217499396245556 0.24665088436608204048 -0.090827917800408525251 0.034714010994410314515 0.27962918669502634383 -0.27996189568425167149 0.014597310453148083786 -0.40411476135385854258 0.30379958393667694239 0.15196586377490162167 -0.24222424701948244707 -0.205902838472094174 -0.21050359860291809055 0.44782886887144451871 0.35063406660394669245 0.63282242769480501199 0.24475863526366276046 -0.14242216081241856895 -0.16401641245317238882 -0.023980284736473650442 -0.19914680440501492109 0.6210201398910784043 -0.15420062663123759727 0.033704077857605971302 -0.13684256813697923127 -0.049482369587234370512 -0.057909992090259598818 -0.17798103441338081199 -0.49680947084211335429 -0.035004633208928631616 0.01617105114139501254 -0.13392445692748675135 0.017045313329290948112 0.52923946342288863409 0.042674411617492385984 -0.30589130129224939569 0.071055311131836884631 0.11174051536289392184 0.049593280205708516195 -0.33260526898866821233 -0.38799629770546134599 0.022444328497398718936 0.23412219615922374993 -0.047861960231326106108 -0.042560410811607926607 -0.00099079934962839621981 0.013912882142795721108 -0.3972459585619955158 0.046882161397025126637 0.29874813773342612233 0.42603615901670682797 -0.29326090245143010549 0.089548229294080461393 0.021468265849861722927 -0.16783560714791345703 0.14828949214632064502 -0.29305604699098164456 -0.25403143477867445865 -0.27376436890191946372 0.11057279577411160965 0.15453072842826265365 0.46331901129577429677 0.078132142125729636684 0.055614654119848852543 0.41244480933611410434 0.18929305293505194197 0.15383712660223941571 -0.40884095154320676535 -0.0402513275402002213 -0.15224379129852069759 0.49885458802378784826 -0.31652201100079468965 -0.28434048003903639179 -0.0106700751482812356 -0.089158936836981880769 0.53871462879455678241 0.082332420763013669518 -0.073163584115208096792 -0.55852086809383372223 -0.15061715563746208568 0.076637086776542379107 -0.22789110087345446076 0.10547858489844308405 -0.1180946450342911791 -0.22137015487047240203 -0.29751180456220588377 -0.025879442916464989732 0.15200301610087518789 -0.1788783614090434515 -0.32379074202696650486 0.2061269340626440405 -0.30160373294504172481 -0.11646683710859037642 -0.26092686545912591178 0.37454621141589916622 0.11987649197846408922 0.13460243964731824495 -0.033712928598032924909 -0.14203004078342898464 -0.27198476216003736328 -0.32642768155329388025 0.060139522170208077612 -0.42956623824495376862 -0.12772035770509870822 -0.026049389923910232225 0.25434088774620022821 0.048576909564697470789 -0.16453140121214032687 -0.69209058944770052157 -0.048802936879821789962 0.0022225448460743285617 -0.47771613663178019715 -0.065218369913374152347 0.099076885175157891616 0.18244070863468339616 0.23677836951916980679 0.41721546004698217835 -0.15231750228561438676 -0.5330057167323434264 0.31894336808062051514 0.186119698155554264 0.11616154607377746077 -0.14554015374305145913 0.25747209256421182966 0.53597223983992603458 0.44218492298795830653 0.18149162003014934763 -0.32371877260317305502 0.1478178191601076108 0.1679678882912416793 -0.038717485982862100136 -0.026994834441825321658 0.51095398986517570616 0.33325411496466705863 -0.069942373643682748119 -0.07940251409760329393 -0.49445827906359918202 0.19168072651968312559 0.31711877013224887278 0.32907025251378413389 -0.48283156098594937067 0.28460418647442431439 0.27344137582321026425 0.11212298940155510096 0.16839968712741115731 0.048854115066389883215 0.10514884647693953368 0.038868541034025178016 0.45310606297201144743 0.38654027243491839716 -0.17964950768725113095 0.30504785769530706752 0.079351746356076099942 0.14605054299504174886 -0.17730901248057551189 0.21783306535834479067 -0.28089085759646392759 -0.0021311992060729090248 -0.07987148857763663734 0.082216573049032751208 -0.19168787854439539586 -0.25355077486019733657 0.27052132104079767982 -0.12625389759144406421 0.25568613439101028906 -0.17881458381529249935 0.47092769909438519926 -0.18694280802428864252 0.3622734941950251919 -0.0092185890229769251736 -0.025283999351406100109 -0.037309473828550029917 -0.7112411719258354692 0.51592071161824848424 0.47407267837282401901 0.14797479045037331691 -0.16880514354520259612 -0.42961529520204660981 0.032897610563533907779 -0.021245366480035901557 0.096059732942465836381 -0.054407579094175484435 0.095828245324025132512 -0.2999326963617999775 -0.083863861026672675836 0.28315154217466909081 -0.28598367355559656255 -0.059335444700538274299 -0.22281017932134417059 0.053203193008924329344 -0.012165702105792472465;0.26137947402824834864 0.15842359087350454949 0.10628817669337944918 -0.18885919510244733588 0.19920403696477084754 -0.19809287424186677873 -0.049407634057140908945 0.13660366331004736296 0.053342451782875853483 -0.19893642808011161027 0.10071535281779241122 -0.087082040997555773543 0.099881131863984548569 0.096972511709323208628 -0.075640113480915149857 0.20185884569255371779 0.04177442260366762139 -0.1799037751507536198 -0.26508985271044271936 -0.35627552137478857297 0.13836059515888732285 -0.12763265432506232244 -0.0090794813461710487806 0.1338281536671838412 -0.17620393654551785856 0.10045142534849944849 0.17915143038463399172 0.1471178002454672229 -0.0058354138219373370006 -0.24421914302304245648 -0.15727429946648838199 0.099401647759596228893 0.06196022273764044408 0.068356938818119841739 0.26378500250600550592 0.045334220112580411732 0.29616344353952717139 0.0065317928355289652659 -0.13133332006675160764 -0.28920772821769658023 0.2152841278098396316 0.050965639898014170051 -0.090847067625913185962 0.32135832683280529665 0.12215185599143685291 0.079361615709849162026 0.02997545308927501706 0.033546608760020982243 0.29286018252175044507 0.015865422456068738882 -0.11492270486762747039 0.0013544514162868856108 -0.099859876963088956003 0.19000207431215918041 -0.19290486744878970748 0.28893308316748228526 -0.089865629090488369224 -0.072122628871285371366 -0.10312026987291171565 0.078026743976668658243 0.024783965289344973143 0.042020602848903701454 0.1781847950690075566 -0.013863023464910457713 -0.076642129237709646916 0.052226226007496878712 0.23319543303063305917 -0.16842571365443245734 0.091294673155201289116 0.047388083473240423527 0.1029329178837743719 -0.052153722065439597766 0.019752594324293985817 0.05694613317439717326 -0.16358122911607270167 -0.036930874791194230611 0.26024115087386784362 -0.028829184792102828527 -0.066181094394157688465 0.21520558673696882357 -0.0081142943261369743918 0.27637519722255576848 -0.07208130067645293626 0.092395654330570772816 0.28832834408639934631 0.067910952568942278829 0.20465185415446748851 0.065771985454547696182 -0.10884884761761137728 -0.018593022735705351522 -0.023699234420284744085 0.24585319500301203166 0.062936967011420139051 0.060226056652322106089 -0.085583125323864500666 -0.086332370435260874508 0.16948882721616934099 0.36845655309116798204 -0.093671602099427944688 0.12656447375463839022 -0.059145418757540542398 0.035982168270514459929 0.030396023696840312328 0.1096625290356405269 0.0083656211661761008258 -0.08642477654594184211 -0.35384434676857112745 0.2656723944970621476 0.081438707980800814634 0.035919766317847851012 0.26254361596274400359 -0.068985102036025203187 -0.039825629325011796533 -0.012826151269086210824 -0.12663266552548682609 0.4475382402731550302 0.17351149845862298693 -0.15246288064272944807 -0.022052468511328027212 0.32710572951128386032 -0.15533059946486474368 0.27418761255254975318 -0.14457804153147377213 -0.040538609502144128116 0.21419211449552968962 0.23615721591966304382 0.049882351259084606321 0.14627549034997730515 0.020826332472190848405 -0.030272101854113855207 0.16557088078897430616 0.04955258317219546349 0.29501301065734208962 -0.058768954900886696824 -0.038557711150935009004 0.18137465103298483493 0.21958905667950548435 0.19415500051602155307 0.13718175379688141158 0.083144343187942684748 0.23759722793901044691 0.065450617015806705767 -0.16764519584503378979 0.071020320095803751714 0.0284507558935827784 0.17966296781554400019 0.12887364734107453756 -0.14199890736597017837 0.25220773139380842087 0.062633178030776573419 -0.057247419669797204589 0.3124927500202047681 0.14312620939011269638 -0.18697426057857560733 0.043093286733794526622 0.21065441534483828057 0.0010793427365890556537 0.16091514034105700026 0.12871121467699769836 0.025292961552090403865 -0.0068776536872741187573 0.34412674229779927071 -0.2410375248338838261 -0.25393549919323038511 -0.044778355634650879313 0.14162879859722762865 -0.11817703111859013954 0.21634120946755452941 0.11422354963976180664 -0.0030177134687793573387 -0.054246940641756759283 -0.031517641760673148488 -0.078100335666772172094 -0.037546636368407548812 0.029146436692282812198 0.055400053295230088091 -0.067186401099501913414 -0.080708696807414270769 0.0088581637801969977802 -0.039348195801719346165 -0.21904899452327702969 0.1217405430751439116 0.28302275851328095868 0.10895158463158574613 0.04993093150545358655 0.32588396276434594689 -0.12276676553522568314 0.07563491173658143385 0.25749158753444761905 0.079764653832288326396 -0.11201546941363384191 0.047693407582189269178 0.034514071617987279739 -0.03275820332184058159 -0.13373267164468616297 0.24237858101735793026 0.26293726434840747341 -0.19588538140887420957 0.229797462391693047 -0.060088614390874074689 -0.12190232304019880949 0.082165328383697625036 0.26209022960840894223 -0.077250268612662709167 0.15036672127970129864 -0.073557337477566694939 0.063542184743838256433 0.21656791452982221413 0.20097608746386896872 -0.051878610192358232123 0.069512516494887960361 0.076507962958112823992 -0.1737566398100783005 -0.12037748309531885738 0.036590136342069937148 0.12718467313622133785 -0.0067372955018544771616 -0.058893563527714395955 0.026799176775776183818 0.22771400147149356563 0.09709016074069280744 -0.067149086136740407382 0.087812100504912796173 0.067514097221452989972 0.10744666650409281927 0.053787379140846726389 -0.12967483055033116046 0.23254172805960685033 0.23368240065856060728 -0.10227396135812670541 -0.0025522684484983512027 0.040005938105001956351 0.09932933555088091504 0.21797286493195125456 0.042440812581347436838 0.078378756266691801402 0.075729630354413809967 -0.065149770992960417959 0.14388395561232170117 0.19803281353063412196 0.23113370270503494353 0.032032214245439290246 0.22271848174408137577 0.088394431750895896549 -0.014558006056099921655 -0.092108937659859835279 -0.066651048006849539229 -0.048917033929127211322 -0.22086506876979783431 -0.0098711155433935954956 0.1715129830654591736 -0.35277375023570844981 0.065117370890186473953 0.37600458806291964242 0.18539732643651515853 -0.084345083920711813597;-0.37438536929572169276 0.10482194751586942916 0.063277625303748891161 0.70424118421002268597 -0.49545190487513712796 0.6056320035478378605 0.56482232190971393138 1.0543536841052050246 -0.46364805214825488555 0.44584620909875194439 -0.17714747041282327689 0.13989647594501586347 0.020080408441495136568 0.62892076296076149244 0.16878285103368445563 -0.76272397773438715962 0.58888414821085022233 -0.38417644565135827817 -0.48580425602080645753 -0.5924255828835631732 0.080625003290151764368 -0.0449596597786772606 -0.2368639983639639901 -0.21037254975089730857 0.19379714389770383298 0.31928913914478496139 -0.33018886033251215739 0.41354083669084124031 0.52873532566371805874 -0.18735521267899460374 0.23777853335475085395 0.040619523333700557899 -0.49202275602880868322 -0.38093013946576237405 -0.2669321801118977322 0.07013572753687859207 -0.62389286781533004334 -0.23313879538164736238 -0.88024254643037502799 1.1434866081344021715 -0.76058723656077587005 -1.3787846702874229088 -0.55591884455652840202 -0.99771288155966142419 0.62612967822696696807 0.12251590691902466967 -0.17575342244144662174 -0.47037037654064584036 0.53292591876386208316 0.7524221196259783806 0.09867987762903736304 0.96581080001637875654 0.63818484335231495663 -0.1881427098493460015 0.077381952166469175625 -0.30001805334414111126 0.46497166345034868229 -1.0863736933637917481 0.3050232446349158133 1.2690319745990881195 0.10847485271572848697 -0.14880565065627016086 -0.795084447668686356 0.20185702310165243301 0.22535790429948890368 -0.6121410622433476334 0.29931802083986336349 -0.21698564224103439324 -0.098047288829910095309 0.02564468760163474137 -0.017890620159922522581 -0.26333386786433427007 0.43443301011687018853 -0.1984091916721809068 0.36088293455997083603 0.32862590640203603876 0.89743668027649015073 -0.30037551039168447486 0.39646452009073568368 1.2123857348174833515 0.53645346989591702336 -0.17400473036891642153 -0.16211701396936742392 -0.61854031685036603427 0.019823770062872642095 -0.71850253670998998068 0.015478193938559606235 -0.10770636456933967151 0.57981797639275778344 -0.30626688881715607993 0.10978447802442375947 0.0042166695139165266681 -0.88814913131058803586 -0.61224296292132984743 0.57858716647258412458 -0.13494420841613238848 -0.27951990982505442451 -0.25370586796883859426 0.25806148527186700825 -0.37495634563844970621 -0.016222005954976415065 -0.21212287613806080078 0.20919628272722173845 -0.062272408019902275589 0.077612442050871754962 0.33301172648570342982 0.033963191511972523617 -0.095901527304773581672 0.41125517189281091124 0.39847948603858729388 0.21177133289631325241 -0.27750661299281276229 0.86583080930361067118 -0.11616669845700254571 0.12518221466337822734 -1.0764883088049321813 0.24636813940213406204 0.27701322067066902477 -0.59133603645613008748 -0.16831914216991383793 -0.138883242076646235 0.26731754217760284043 -0.71004819879543146222 -0.08275449171042842389 0.32730316805320747164 0.91363585955264348115 0.88591755255760651355 0.23094804980178385012 -0.16571297013292873856 0.80338751321380075243 -0.11737726279288954179 -0.17233983117260021078 -0.22882801281426154438 -0.80670088997845135204 0.40446594173178940235 -0.19497412179825698852 0.072800530011527975205 -1.3560096476066039184 0.92109869095823049268 0.4046302563039875233 0.0039572238989778324436 -0.080693473872142457148 -0.7899179862671952268 -0.058422192692516819457 0.077095484769791028379 -0.30837189710201184933 0.67664037100378759959 -0.34417002399056662032 -0.68782622811628901793 -0.41059186472244174615 -0.74108977349838023319 -0.16967645868247061003 -0.45454211736743832528 0.0085555160961574422407 0.31147604512523990872 -0.78199472343662690399 -0.038887736935298455876 -0.49406879908275486146 0.10603218900075495057 -0.046129711709837262212 0.18237457636224743696 0.11843153217985474823 -0.4003080658234042799 0.32749325944720597548 -0.69072137479300943497 -0.028216437700345018552 0.39502354672791673007 0.044027644932404297329 -0.011495212231919765822 0.72060955353302835746 -0.56381304268679577341 -0.26681810996778548839 0.6682985601214805893 0.70232608463502121943 0.35615769115814038814 0.38143876364925433098 0.27630133258505396032 0.45282995611500792554 0.29912467311388241109 0.028604207416319447216 -0.71697243103260177577 -0.99734592686618905866 -0.80195228542456797882 0.91375330861260495308 0.082993957021320771683 0.22527115383051748987 0.80793733433964176616 0.06101443117583220388 -0.28338772143426843586 -0.43511383702245565175 0.29142882759526034242 0.1099497652913595247 0.88382995171024336667 -0.54740591671622196301 -0.11555024724484153076 0.86298388634083456061 -1.0128031779442392413 -0.084077548596263873559 -0.17561783203088826566 0.099429502755036883177 -0.15820110710858245606 -1.2458800975446868708 -0.034350629848067380789 0.48335703598134255321 0.63381394518298439511 -0.20782618176823208778 0.70602031130882469956 0.40057444034369737995 0.31341920396653444314 0.99957620950476666621 0.14272124519856982383 0.31743693613350765226 -0.065433316148906711662 0.48675177737706942782 -0.23189542741458590847 0.17727232006514365148 0.25809424134303976528 0.24685945038883450042 -0.032944881405592013612 0.36642431764867378075 -0.55572603983344737166 -0.27168615646838117916 0.72608299659020014705 -0.13195661269214889466 0.058487665776590147537 -0.34603525719419919726 0.64931318884000321923 -0.81206854856562948886 0.10940682774728038851 -0.12153082293809264192 0.089441795601280793537 0.049426920799692575237 0.93308698075298801555 0.18670678470236096169 0.08494181194253855316 -0.35947375975013501348 -0.14335913206740868997 0.26027422007932421444 0.057122639960526758185 0.51636174381686206214 -0.4721888692303918833 -0.53321737732226359707 -0.26280196107491893276 -1.0600594834364269747 -0.67185628262947694189 0.01475753891937450768 -0.025721299299652750081 -0.01990315417088986405 -0.14774702964373936931 0.20623711198738711725 -0.47518282836451664064 -0.37853959639698508965 -0.72413076738203319138 -0.93078572330962361381 -0.13503996872732962342 0.72246172092258187369;-0.37090005029347822285 -0.41184633709539392177 0.069320058615935639668 -0.44868716602631697477 -0.0060495391830045373502 0.086206126736582150416 -0.018681232031181181641 -0.30844665325623304986 0.20648110204746419893 0.26145213406428935432 -0.30982655193177016661 0.027429913990713549604 -0.11618712067768650897 -0.24490757850270261642 -0.069958167664241052708 -0.25635564583107123271 -0.080176118846768562598 -0.35578415027283438743 -0.37685104011186054684 -0.020913044574066647074 -0.2592553484076085546 -0.23737041610410750114 0.13309381645295814689 -0.31867453735187983854 0.03222252980486839391 0.33660632031433446176 -0.51947500236879184943 0.33653077674457881896 0.052018504970268442111 -0.58379006202254968283 -0.23794879231652127372 0.056628028322017159857 -0.06342082334409286648 -0.097007028807729461795 -0.18861351300333650816 -0.20431661908829334973 -0.28135821348094131045 -0.29404452565146366183 0.27143455456757420441 -0.35693257949325329914 0.22758711206635037771 0.29886469348593375228 -0.14607966057749621758 -0.041715698224181078924 -0.24876906248488322992 -0.18479968756255307771 0.063042952227420900879 -0.042463252823622170407 0.061892879307073267459 -0.10881954140597140113 -0.24523961586389184109 0.12686774210089918347 0.12506904384931533114 -0.36313253023603775382 -0.29038953697401753695 0.2249756505963524944 -0.13540393100910577684 0.54215445588561261836 -0.47725931432679741251 0.12759767278277622804 0.19466507593620344108 -0.58657205029366576987 0.15145374789842661056 -0.29260329337444784814 0.1247376287701301989 -0.42094357138343502234 0.08644643622481222589 -0.30385926531175788678 0.14706831413969978506 -0.24083973075804232522 0.33412684243944668072 -0.089999369651057092856 -0.31247945581721287001 -0.11600470901499967957 0.040393573450161916749 -0.0028729344702519963618 0.35669946060299123625 0.12203035483477696344 -0.012337595964700610873 -0.27229192823050829553 -0.025566583856671147579 -0.23092423236736375758 -0.2237244192269874643 -0.43944393190278052685 0.090538753725129941796 -0.13594478939689380592 -0.11958095836351269325 0.41958344944537045995 0.20606106223573411595 0.21722433944608421363 0.13368024521496271739 -0.033667273000817510287 0.063170079540752363534 0.39662185051664006208 -0.089292609788981652796 -0.25035137067100354802 -0.24781649601585101217 0.42642095364399013047 -0.0037492329568301150516 0.14257364395985888672 -0.061993013874703115085 0.3249263189879323388 0.015710202737988870902 0.066898039417363580617 0.17624256803915433478 -0.33197977722540511492 0.26908049002352307788 -0.018160193880350335854 0.048850509533398631112 0.2202146815483517206 0.031644819964176576499 -0.033977732102938848491 -0.16467531899742399171 -0.054765297296734682941 0.0038400458629206583698 -0.23703148263280290897 -0.052620216765863585262 0.10682241227793273786 -0.1991981253935950491 -0.27588321112281699587 0.017463997539606000708 -0.50564161675839414123 -0.45481114925660309778 -0.23185053927152979303 0.17926287938250906606 -0.028243553030122027503 -0.02708064882244496166 -0.62129829875859676758 -0.20160039158570006168 0.1251752201135395981 -0.26342120023877013679 0.056778820615357272761 -0.016417593574935464978 -0.22371482672623457799 -0.078691731315245649903 0.20600804796688421128 -0.022541955060284255691 -0.4583924129276793491 -0.28970696555617098111 -0.0019949909778564176716 0.40310020641519272999 -0.32845940920906052662 0.040681608380790740265 -0.021959930259985514789 -0.22731995777987118457 0.04650361451910564603 0.37714771935702590122 0.17076821556730070739 0.10184398836094835095 -0.28077584590858517544 -0.083132296560818469411 -0.18360894410311501268 0.17788602498181202427 -0.34667705960735833992 0.075054603169808706276 0.48973700666736741383 -0.32714388883444750489 0.127934706272190446 -0.08545600762322776156 -0.076975070405799900231 0.1890673550167014938 -0.35412464736875615134 -0.13353937899779047549 0.012699645747937847798 0.23985330393623055523 0.15984690409331767103 -0.21252690243637770151 -0.42346086887899270224 0.078119931211748330768 -0.068793016059597839051 -0.046632810543524715052 -0.078067706690252605672 0.12662267709826222073 -0.034217306655606412324 0.69078426422768302029 0.10456633440416490677 -0.17605689648012834425 0.27379189136963988371 -0.011412792769199783458 -0.3169107808710702745 0.40178978962491923577 -0.094974384608168441191 0.14642554603078608566 -0.28742050098070109909 0.071149589570035184916 0.16300478525351400072 -0.33241463624578515557 0.05238989738781968386 0.24577937286368889414 -0.056021044045081472285 0.2087709949261775666 0.1954242091776657031 -0.060827338100411389166 -0.28778400498566170107 -0.050359716141742782991 0.24014926971503014475 -0.35501647167085870205 -0.43158559180352840112 0.24875391277918981747 -0.41576599148478793344 0.11939409400587364107 -0.51769724612376932793 -0.0044922461478882581495 -0.020325320929810708481 -0.15087339094340418422 0.18562158600738346004 0.077153855779065722009 0.061633563900307178351 0.07313738167967874515 -0.23816129502451030553 0.3227006344926475756 -0.21978120017526811547 0.41199891666109778043 0.18401426301993525914 -0.070868049047926387485 0.15998067710322433355 0.12928913867241809132 0.097665135260716337551 0.10834794946246295577 -0.29799230750316596517 0.34482734039822265926 -0.40452513465422679229 -0.034864193482702428295 -0.25015029172164338078 0.0111332901797844986 0.16840402923466926688 0.19725076958443182873 0.11995820776572620192 -0.432942048743098995 0.095780971737443570957 0.29920762796749639234 0.19634873424144461129 0.025656984772119507954 -0.51698649440025334911 -0.15035059801235420296 -0.27028449967827200551 0.25999009098356617997 -0.16782092605499077109 0.3430485925246447021 -0.3143265341281400449 0.15741291466358520168 -0.1537737760878927773 0.21681227815160353245 0.14776291420569598323 0.37126626058094286398 0.1053654628842093377 0.13909314238302719624 -0.56046066103261860114 -0.21711109045799281692 0.22557322911642696539 0.14567875481199468735 -0.29097668912447138823 0.14202557722759764913 0.095884041551551821292 -0.10664433226551429945 0.43805665598304810437;-1.3021282327987453442 -0.30618042579995813357 0.51870570709836183454 -0.1044197498652285061 0.53216037884751266063 0.69693732513374384574 0.18358592268665185898 0.11175127994621947281 -0.66824501015273540805 -0.26792385005056501557 -0.39748695014115464907 0.03710271753107377557 0.27617024284929436728 0.58896619645728143233 -0.16175975341062154289 -0.22622665532766486618 -0.65254408995619295197 0.5005106224008621929 -0.58095835785772453885 -0.13982917561690630381 0.57993134704221005471 0.15490498665004040491 0.45804175717697637182 -0.21067025409870338004 0.74716307453517227799 1.0440359353052048874 -0.0088165027666528839045 0.1114816339460462935 0.18627926804320851795 0.67541814514211928611 -0.35981967819013949139 0.73761829599327588536 -0.03845975043793320447 -0.076238208334315660242 0.1343694753955333443 -0.094246137362131832127 1.406589419011497144 -0.32213307276811847801 0.59765086747988016569 0.86788896338988841261 0.74040306967450197906 0.14634044232637352656 -0.564566110673338728 -0.82938995843360296956 -0.091997447374284474497 -0.271199763916086245 0.21656100072759540409 0.4207430069307800391 -0.42115369071943786761 0.3790446404014812809 1.3591707359212858997 -0.60068247863241797102 -0.39650239105171475318 -1.105614766997108589 -0.52165312001652008878 0.64048698059139841376 -0.18378469959156390479 -0.45110650204028102106 0.27456959296479954702 -1.124400708433509477 0.38771549602700589032 -0.80959943548588653162 0.30482394922360828149 0.72582094208866154705 -0.20898297947537075592 -0.50002460687136396356 0.20777853633358228658 -0.11237523043734198858 -0.34761541771835591241 0.21030386029851383389 -0.31090792880184969782 -0.9855037422981620665 -0.89759484039518810938 -0.181236150156281417 -0.18080980662629583811 0.023343213381103806309 -0.29839082167206731899 -0.21946442853845138377 0.18812939137734036033 -0.44011756874078877821 -0.090037199107558307798 -0.28182032868642586942 -0.25802272711015733497 -1.4814449791774002563 -0.65421397016734705865 -0.59856203900450555278 0.077889960984643485942 -0.024774524981717338523 0.16628803060964064686 0.39813564402418999411 1.1653001040261055099 -0.23720677917070204233 0.15709291286597151793 0.23909805818813212319 0.51474999843659374754 0.053651352244174846384 -0.22530995072735737761 0.24782748191647774316 0.31992025554999559134 0.74939735506095384032 -0.15573215997324313387 -0.17224761843370678394 0.4072938124091968759 0.31390174755846883548 0.33656984426931901844 -0.25857231504048577841 -0.6232059214557299498 -0.30623248755715171132 -0.73873100185930462569 0.44313503875813187172 -0.2185240289709337036 0.29604814263241352457 -0.35074746709764892394 0.34122678057389543849 0.66405107947324681916 -0.18423776286100443378 -0.57964855064951215091 -0.6128837802844881999 0.21256576452088102314 -1.0231386450347195183 0.28421504382905943276 -0.8108496088138854585 -0.73825947452569196106 -0.25757950910871368899 -0.68272224442915552256 1.2812452585586586729 -0.23467384184077266784 0.36483003708627853579 0.56830053205875752376 0.45533771980303627824 0.5594986480942394369 -0.026010108956702776561 -0.26326908361010969983 -0.6263251083350668269 -0.60431156144251452211 0.13126921933136989629 -1.6070539746665160052 0.35412741780629619637 -0.25989598643011047052 -0.34367886808975334212 -0.53970320160096330042 0.89076431747330597766 0.57587356777832643395 0.38990280614594297059 0.53828195282432078628 -0.3207536888199781222 -0.3324273479969271361 0.064020682318864624571 1.1336916581500975365 -0.21613726180519887698 0.44498818345784529882 0.13236649588770985075 0.18385430994355411727 -0.68645093817403801673 0.69919080961958512965 0.29916808961761082175 -0.46774313642762421761 0.4813586721821329073 -0.1559727021791433299 0.037931610040749956514 0.5424036836125090133 0.71319621135583344262 -0.71231798035922821999 -0.58911475193728002342 -0.84065619585635076305 -0.0020756514445759120802 0.5206504435450891588 -0.024794690102938027332 0.28734219803853944253 1.2345991429868981015 0.64758478856991474881 0.17682984340063201412 -0.20075695900596710053 -0.18281482254603548254 -0.088731368702433047191 -0.037755984501192982328 -0.95617731137082617732 -0.10641658405599546677 0.86042048989193087305 -0.16746739479788910754 0.066679030021060181621 0.72650027738537326094 -0.55298955062263477345 -0.24628489291634980685 -0.4756099995846958528 0.862051204775087343 -0.93345064481389217192 -0.55423031508186126892 1.9206615171966721078 0.54983387365978486638 0.53694182827322278762 -0.33489986955079587005 -0.56101125245249228168 -0.19740725483519860894 0.18354811085350658528 0.0034726830117639273521 -1.299590740502126085 0.27222954451545428034 0.61993665209122683635 -0.43101025087872002484 -0.25825294611832078084 -0.46829950940975251239 0.4120643365700787375 0.92509589005568071407 0.86980032437037424486 -0.6679973693361229703 0.14619380086496541749 -0.34966228810536092997 0.027744612675300185656 0.53853711480806198963 0.38796162986828108821 0.1027176910706379398 0.41226348931609085868 -0.82753452033234209395 -0.27820014481423982478 -0.57743931612943122378 0.041555510017421318225 -0.62261225618711557583 0.62819108555700120533 -0.49044947168802394133 0.29205340490057080105 -0.16285699035345874153 -0.13205862673476248537 -0.49918450444510586994 0.24509813061233604037 0.42415886552909526364 -0.083070496736565746509 -0.17742785635409641376 -0.63186963627729086923 -0.38783126225402847487 0.2474562321817869448 -0.26791013370158467399 0.87597946304351415048 -0.034099308356941582243 0.56379456717642117969 -0.2947485081152401154 0.43651567800676127629 0.56685502584830149697 -0.36452464750766594426 -0.070261581734324757287 0.40105765849938135315 0.33920731011599086768 -0.36536295709672372833 0.18622172956515153919 0.69395825017530510248 0.27408209597420363224 -0.24904466736779934388 0.1715681169261272232 -0.1316410622829233823 0.11737129246135480365 -0.09116951195288983123 0.31230956736644510663 -0.56298128190225038558 -0.064946586439676434743 0.4271180604937692693 -0.54151612287441763804;0.33469130860169654662 0.26512090071817417947 -0.29111697007599579567 -0.079089974548007216382 -0.50346479357297713175 -0.35635943588110124969 -0.49912661142940045744 -0.03945126018175933863 1.004634839016097958 -0.1036681768626385447 1.0223869239595091418 0.48366421978330342846 0.67575397193197883627 0.011391770098141577178 -0.63351116960825160085 -0.080538191282700760665 0.31234188613793695266 -0.27075834637124235327 0.82540582251687710791 0.11139563984833816823 -0.2850846642409985976 -0.48357301363951404882 -0.16271576828374689772 0.069901158122751008706 0.48069955024615607098 0.31833006649030415325 0.37632587542294215766 -0.10793615033012653182 0.67442797236121343474 0.41012008644264363877 -0.027581312538971197723 -0.13182962780103391065 0.31392558605431519769 0.36693242696822708782 1.0083303977045248168 0.06923657429599393287 0.5444970292748695373 -0.2642592794841592263 0.35361845320925000546 0.5919264206684115015 -0.048574319262087384264 -0.56026557983147451392 0.041709128819962207335 -0.0038341582777921545677 0.049089359986216940523 0.36005188352508510352 0.044229430059490495997 0.037447653006940813392 0.73683938337489351955 0.098126689151670498656 0.47168282222275942361 0.090100341053587204576 0.29038181031964283019 0.34963656986178076602 0.22055849287966022843 -1.0388420798673516643 -0.10497917094420355921 -0.25921502310869326546 0.58503311471893626461 -0.92443451827108003016 -0.24947212728997017472 -1.0473532776709746361 -0.031735136315183959388 0.36245250627189840031 -0.17995680041990091969 -0.27399325149498876542 -0.13700341886071121245 -0.28199109001358041438 -1.0215505558696553745 0.37336171525676054017 -0.18147732344266498394 -0.012402605491871415699 -0.29571556985923191929 0.075243425505933089759 0.10741394908667828423 -0.38706331853785602704 -0.28825428821958387626 -0.68847699167932296938 -0.27771537903303933348 -1.0704879303471135366 -0.35800509509234151873 0.25592698892406429145 0.36840304609736540531 -0.81708303954298033833 -0.19810763260117691953 -0.091039097369960658712 0.70895669889282131315 0.091839646097465171826 0.6575193770030487439 -0.0062146146114291159201 0.52461065300358378227 -0.43942067889494801358 0.49206743220134024908 0.14125623119833866093 -0.089432200740646394799 0.19213320552223528415 -0.26666248337930625878 -0.13717493005597983236 0.34556490234802000883 -0.34088698863934963068 0.69994079571883760504 -0.21017042502152449845 0.3791989426628469273 -0.2539675274262829241 0.20950793976359544102 -0.28453894678109026284 0.45192077125132523729 0.27327683812190073365 0.48690824435041274443 0.26975953327160601125 -0.14039292398882419199 0.71320977452740552671 -0.5986130145462329466 0.41284043420834581894 0.14240412042596434228 0.20225711760962131192 -0.31995065342761586091 -0.28490716404152510721 -0.41278801299088618837 -0.078306575188760468853 1.3529689590957252321 0.66504077111585557791 -0.60039751925978379621 0.1272555871151204443 -0.46531219077420021835 0.061668156764832754435 0.13209654695208267183 0.7254814536471853037 -0.33801472404711574438 0.25908609190498282926 0.01436139514979006479 -0.11583557025301685628 0.11683986198437866511 0.48626053303736616051 0.023231325568735250453 0.51446311161280189328 -0.095509022022053857714 -0.98163080215040010579 0.16105477237735094098 -0.38861558242957683351 0.016892305772461584101 -0.24676486125583890763 0.91285602823414713214 -0.17695963219152319179 0.78345136399005754768 -0.011878876470221733097 0.18678514524096029303 0.12892828501886971493 0.30809981370191019678 -0.082052868650532240213 0.084473912725585770245 -0.010078724091925700401 -0.2826458566386421678 -0.46998382399273985754 0.12886195112029918963 0.59454011722925459438 -0.074992444270994662592 -0.2268442876640515693 -0.60096103345191731471 -0.32851955383509717779 -0.32954230602366219038 0.1704534692191786438 0.52300501759279727221 -0.033429166327379508661 -1.3154725399098665672 0.12991444682286615309 -0.24954582330601249307 0.081282950887633098613 0.031479385608517984618 -0.5650277670585133194 0.32531147774372615178 -0.56222634135482896234 -0.081776373129130414119 -0.089501221668550567934 0.89453327622426470622 -0.53921405705054681334 0.11404480573955960709 0.43668890577126318053 0.18324435576241457357 0.70302599994041137244 0.53017590337138487122 0.9927357908792278085 0.12347669877969680297 -0.33070160206268106595 -0.28400951765115084457 0.39887212649998426972 -0.013097466437691669683 -0.084532223815564133673 0.10417540723374099643 0.38863030854209401621 1.1194018234138900514 0.48473889920591367586 -0.45494732704892271169 -0.42824612866229366803 0.50621235771359718303 -0.077651012564988353137 0.27155227664151526668 -0.22164687372524716213 0.77089019524867186117 0.1981418271718276003 0.08709863565567257937 -0.40693705834939031263 0.55600998837556048215 -0.40029686418208132448 -0.25396494810514502749 -1.0876610141252764929 0.16591945970805424548 0.075659358728663458904 -0.30422130665204949462 0.0037482915294011973084 -0.053418449675194032422 0.66695611185085601491 0.6122947895651393857 -0.48898656707272708521 -0.33409090399851859576 0.38518304886871451709 -0.71316748110089489554 0.14306404348940338078 -0.061833914872224213233 -0.084488382236137249404 -0.14723043656652645694 0.48194018804926069821 -0.89621180321819571279 -0.56143475091427097468 0.88282982059435455291 0.36020033974631959772 -0.16873473561555230038 0.5297517887426674843 -1.4685250146224164691 -0.029325945967415834037 -0.96715979433318266523 -0.45723448264208849112 -0.41002392804493875689 -0.35636057687751432344 0.18981580847968088088 -0.010122494575851091747 -0.061790312405531330753 -0.31493904164947006397 -0.062349279951554391344 -0.13258464609390155364 0.61624714679676895202 0.17402763360156203731 -0.44793631297715308381 0.46363757161029633957 -0.47680941908120044737 -0.039275362785385625752 0.11295545396671644034 0.14785351171969660089 0.5655415194505403198 0.35382528874613261571 0.7670995593634946097 -0.096755308441423812371 0.12624188759681814753 0.27727890693829815305 -0.29396748571408681805 -0.39158354420648389116;1.045033316220698616 -0.25007815041214603857 0.051664178854557013532 0.11166775028552047844 0.69245063823022634519 -0.34124315388067744115 -0.43077325122182397177 0.030433407117679115578 0.19319438510038383638 0.28126413903169744657 -0.74061751013949495004 -0.36254096676984709502 -0.30949105778771940356 0.047753847477857866433 -0.32652216582198079209 -0.27284715442659912554 1.2289451750900473037 -0.55165756521504472065 0.085612053639823881834 0.49103867708542436876 -0.17446333345211476051 -0.41857769499358710164 -0.061852974246761081856 0.4031838746658016337 -0.17696972698047450101 -0.25796357231609678973 -0.26570660047347816057 -0.34181813391779058975 -0.27863732906856253368 -0.12816256184818586306 -0.11843542147828360622 0.57821985391247232577 0.46863754753632791417 0.53452833946093547546 0.63590224102782244575 0.19353190224052252422 0.13247382738958418669 0.13566083653716182189 0.066111070927060644475 0.20003753947613273079 0.58339144829550404481 0.034388845144623952921 0.0023730863249530886883 -0.051923290708622490963 0.065333911575830794227 -0.59618379456710124398 -0.22867730331545296774 0.75153810936996767733 0.30572057530543300663 -0.23886499055632046118 -0.38647589062546744421 0.20642484067466654318 0.086560921404108231991 0.33346756300063457035 0.97794137530885105747 -0.67503875142819658173 0.044683716231250170114 -0.40081584587997365343 0.21237958941935147772 0.12587188880828387161 -0.55921724375914272365 -0.20556992870659904216 0.29884284129811278241 -0.1699157068410268312 -0.20341212231780986253 0.49483848910526778697 0.39509342518970475 -0.089573837929387264967 0.23075602327806568614 -1.2437066062663528765 0.004088919048702663317 0.020472861338831277456 -0.17338415774774909583 -0.3698522167585485132 -0.12001378459088338224 0.49277974498180310281 -0.46926371197295418947 0.20248631097992456085 -1.0948544413923591012 1.2978950138177105522 0.57589678215284911822 0.80403779463650604242 -0.2392179546814885982 0.11656916357629826253 -0.067302666538162886356 -0.131935093302157469 0.58359300329869800983 -0.15940700816938002671 -0.07861069456904859476 -0.34831009712475752282 0.59961453244343987379 0.32453226353218134204 0.25052737261940216662 -0.51545377000603576079 0.015472385806860208812 -0.4304429842745897683 -0.4765765541084698298 -0.88286056051194805594 0.29419982852898285408 -0.73478752070261654783 -0.3838094103310777383 0.40694123855309805027 0.42826960032074185003 0.61056625668991160172 -0.30886791863481039 0.51499468132817827204 -0.021332847582548775112 0.39481910162653183205 0.45235783950482411075 0.73125510885978883824 -0.0040430919164446965652 -0.42863018118776108345 -1.3671771727334280921 1.5129339972440183359 0.18444223317512803417 -0.247846555388312767 0.82507899081805713415 0.07963010285322735804 0.32232385599903295992 0.6955861305024977348 0.34949806088739088228 -0.27979278256013562221 0.81633026400721286908 0.32519884872554427613 0.5471044074644660915 -1.0544604380009070521 0.13176661831857491847 0.68008728174226873442 -0.30147297905264930362 -1.0504353648575142088 -0.050708082902461801278 -0.2739739630754836619 0.3069587910215876847 -0.33050863193517965311 0.33439078755785517361 0.24629123605015842968 -0.76275396616223767321 -0.44718799667174141677 -0.0032733687455644435403 0.11151956175888227962 -0.65778517796425017838 1.0049562622410712631 0.18473205749641047335 -0.54884983425997768691 0.1937535967769426215 0.40828745422920198482 0.38823353961400630663 -0.36413121656255664771 -0.11484370108121055853 -0.5931162125520345052 -0.671140616827170855 -0.58951815852221756131 0.35477030818443067162 0.28108403846138091398 0.20236154499148306662 0.31430588738451592512 -0.26986691844481591751 -0.58153639094495213069 -0.56578179661819438806 -0.36074941617422928708 0.74124149569143615857 0.56460974774271710519 -0.011014323008536122672 -0.0011599902824668828494 0.089343291286666126627 0.35643400586711376787 -0.17610666064235908079 0.48620538710159488804 0.0065459014635032009011 0.074613402992349975307 -0.58688219140242992022 -0.56379699053503506967 -0.4310505693163441121 -0.47147871166829097289 0.53026911034486923224 -0.55239812766042528658 -0.68521506009062094211 0.092874169846891868607 -0.57662138532768270061 -0.29561019060990145757 0.30316037270000839587 0.64673736232217948761 0.32859508151806493537 -0.45585588628874418315 -0.27820233846462721905 0.54873811694133256545 -0.41029395378373334502 -0.10397396619193242928 -0.27559275735930999218 0.94701703239039414228 -0.4579957995120165215 0.48604139339729296454 0.035231874087614627189 -0.19238603382624561156 0.54979241543785639657 0.50248975782562566028 -0.56601920241790448785 -0.27539152803210192877 0.77038530757648793212 0.041450055967465926354 -0.14420435505756079575 -0.13662466017998434187 -0.010774332781076286294 0.97336181979593805469 -0.6471300052512642953 -0.23224321576537154677 0.77972981366827165406 -0.52250471437366086125 0.00021542614035049978405 -0.93500891257760232467 0.059637903287007881792 -0.31856889997761955735 0.32702678653946759546 -0.22733621807722836916 -0.14971949550514487837 -0.37467943244130585967 0.68369544242073720941 0.28055181877189305784 0.27803956874324786686 0.10234841522195903263 0.17325717647326083215 -0.19344750123914494777 -0.54295372734317914887 0.42220468395582166909 -0.89470551996632696756 0.42064300315155966903 0.22018640636085778928 -0.30182043620772858183 -0.12305215288623472247 0.16163525417876117851 -0.68446879699754115123 -0.26147563498595016718 -0.63605240442833177461 -0.49538170208550580398 -0.5884058138574781438 0.34402257880609143914 -0.45662674671353253864 -0.5063754597726083384 0.71078344159448936246 0.21188493798018981362 0.45510340806850241302 0.26851988927716918809 -0.10522295004279036412 -0.52061851202158260232 -0.70125710486612757855 1.0376388830351344073 -0.81987636078986214638 0.088834716161524607259 0.1337576077814764397 -0.80873497976396868658 -0.23409238932967013636 0.31552538116158335146 -0.3193783358932207328 -0.10139954119504207553 0.44481693305341080125 0.52294661477694559526;0.11196133692950202554 0.11487370247507673604 -0.1243774956112563973 -0.17726403569849577546 0.057955930962128754391 -0.10367055889773621469 -0.094582747643564099582 0.003658585263201798686 -0.0052098052716008707783 -0.070504496103383912375 0.056847006993516961681 -0.036552344849449594499 0.084921726468376451669 -0.12787735211440562355 -0.12795116627873820425 -0.1201754227654959345 -0.15929173914760863529 -0.02271860875911231592 -0.17323762985809365578 0.062519487337510018521 -0.0066653873358346431288 -0.045034275213540385374 -0.057343242877997815943 -0.036680452301418899064 -0.031235713659699432254 0.13073801432898235486 0.053759445930321010654 -0.14776886017865259459 -0.044998352409037385702 -0.03445457531506950638 -0.091800131520204011903 -0.14897000039563568219 0.009179230319886612019 -0.081226802813003790016 0.14328572727704425027 -0.11065856436089167858 0.085398353249062627923 0.0086510404312645089453 -0.15817556260866263984 -0.13174519323036920637 -0.080136308957378568629 0.013261551909496275062 0.073741960547701934647 -0.17452071968266441582 -0.059233753563338521764 -0.16437751266410724482 0.13386266863434453933 0.013996431627542799125 -0.02526868194049275429 0.025215321228347568894 0.058577565676868934008 -0.14155421301668966172 -0.11542761435477132126 -0.013372101985220397405 -0.069538682951519950604 -0.1145862075637323757 -0.096807002760553206855 0.10748354441337948373 -0.080259793980440405359 -0.17535065518538139884 0.08713439792714063048 0.059529338709056855983 0.11376518166190334458 -0.12328020615521191605 -0.11649844635986014718 -0.005059185480153132429 -0.092460824239761818522 0.056865306155315938075 -0.049453062117697864364 0.084339649789658674428 -0.1457525461853442228 -0.16546553742004635468 -0.045823841165856797619 -0.084349355584385096729 -0.089639809481198734487 0.052484176135556379061 -0.09088538238354137988 -0.054539448259619510706 -0.14831551845549403867 0.1073056543601616647 -0.0058485817253917347924 0.0064644607391177782638 0.019593232792451661939 -0.1524073986986806406 0.0084576669139764214245 -0.18457809783999901132 -0.13888464808479297763 -0.14755541082252254803 0.044784246363898529142 0.017579981085997505724 -0.0045104906576369724683 0.090197200326197851661 -0.035206109494380112557 0.066876932083777332338 -0.11489414591507332575 -0.16370115842123034167 -0.10077736860976932443 -0.13129505846707020811 0.077361616544666209072 0.13309918574810367109 -0.028926169312365308806 0.10597762820811454376 -0.086631895629591448849 -0.026303895478533099311 0.081488172675465209149 0.018980391047501189716 0.12099684982028628688 0.018489853572604287441 0.13570143676771553864 0.046047449316904021099 0.050080892399601797949 0.11337122278993912172 0.057828232046994026971 -0.16090855346274510196 0.10870870934029422394 0.07162764683098868379 -0.053565951261509578418 0.075665309348968506908 -0.097436114661153705452 0.06704942729378204902 0.02750219747742400217 -0.11850155211798177324 -0.15033627134596866393 -0.16368722588871462142 0.044106834728104574173 0.066555982206772709708 -0.12641097652267999085 0.080151873276528812218 0.12109052827375359207 -0.18264988690968814167 0.091020139312435535683 0.075181214079436314845 -0.040502832116820083885 0.0092243783643056256882 -0.03218023964594204922 -0.048117140479642370177 -0.1360003177075481684 -0.025650032808215126462 -0.028831823517884096197 8.8537849406481887492e-05 0.0232631966744206789 0.061248431422165384996 0.047528289080575783498 -0.15067205999765573288 -0.13552434139373806254 -0.025270599399077848385 -0.15496149927737060126 -0.029430648780607537168 -0.0034735771698777371391 -0.058179780984045789682 0.035431745726833024923 -0.088708876733402372561 -0.10418305942479318127 0.026145850964324295757 -0.1022504781113164618 -0.1887428277727038195 0.0066385980651395342864 -0.072337258230644435608 0.058073828634525308245 -0.13255179097298072644 -0.056713052671109556724 0.037156097472341879928 -0.093090889605201579404 -0.036787396934930938208 -0.057892533121412959041 0.11038376226911501832 -0.11473050078954812048 -0.0029122963942226211091 -0.092640336502593581547 -0.17805749689590755214 -0.056195516078267372662 -0.033752511540791084454 -0.042618197805802081335 -0.087484836670189206065 -0.020009421768110002143 0.11431105538735901461 -0.04038456238972367579 -0.015526272433840793835 -0.019437511278342565341 -0.086308312189685293392 0.10673327235006652147 0.047402407276149284565 -0.10555650376084262099 -0.125525781056876784 -0.0014139763884968843503 -0.076636562593066670512 -0.1350631818230975667 0.0099242033162471789826 -0.037947380056630022893 0.10156916826816415889 -0.16539576702512592821 0.10802147123073436996 -0.11663247138696093697 -0.12404832062272498627 -0.087641384232209976202 -0.054833848819692193599 0.096157208056741549917 0.034978205548647445244 -0.081036184218014006841 -0.060151236801992004344 -0.0046296383692578275959 -0.060094461905082975639 -0.12195716404927139931 0.078483685405594222351 -0.027208493015239702123 0.036506169420075854082 0.016143236895548442739 -0.1301367370177826388 0.1457794617891381983 0.0021421577911970744387 0.1273342868960773977 0.13026777309371137537 -0.17097004346803831853 -0.10134243022998877526 -0.047127460886055461131 -0.057824695449422737481 -0.035617395258137736491 -0.11410766335888969381 -0.14907136371012438825 0.07985038248087525381 -0.13701829765252529492 -0.098513447546560869994 -0.13313359619804332468 -0.023376240990240149814 -0.098623177952970500493 -0.017479745875594716181 -0.12400352459876745614 0.097086902256541096623 0.013619783583302595351 -0.11361387796865667077 -0.1328426611427252213 -0.025252491301479204622 -0.08774688959982865355 0.030970109947575635151 0.014631056552370610979 0.029904252029079411712 -0.10622962366142416069 -0.018246483979739644421 -0.077051942904761139275 0.034721365785519466007 0.0095213399054712606617 -0.12497614502969281447 -0.045986082696808261439 0.11205394558748914269 -0.0085756843053407614402 0.052551317490897385409 0.041349429858965766615 -0.18380210082410730621 0.10955828527214456214 0.036098533198855614623 0.094129399779805014714 0.0070915975251646104147 0.027844394478572322138 -0.024097515581558152237 -0.15939472633007326086 0.024497608576527902385];

% Layer 2
b2 = -0.11081955376066685015;
LW2_1 = [0.15642657666045545195 0.17144677987217449289 -0.67118456783580449088 -0.11095183899976598929 0.041266584887906604395 0.039788196710701870251 0.18100046582583967369 0.07868947617430659125 0.43033394055679774493 0.35758012156193946796];

% Output 1
y1_step1.ymin = -1;
y1_step1.gain = 0.4;
y1_step1.xoffset = 0;

% ===== SIMULATION ========

% Dimensions
Q = size(x1,1); % samples

% Input 1
x1 = x1';
xp1 = mapminmax_apply(x1,x1_step1);

% Layer 1
a1 = tansig_apply(repmat(b1,1,Q) + IW1_1*xp1);

% Layer 2
a2 = repmat(b2,1,Q) + LW2_1*a1;

% Output 1
y1 = mapminmax_reverse(a2,y1_step1);
y1 = y1';
end

% ===== MODULE FUNCTIONS ========

% Map Minimum and Maximum Input Processing Function
function y = mapminmax_apply(x,settings)
y = bsxfun(@minus,x,settings.xoffset);
y = bsxfun(@times,y,settings.gain);
y = bsxfun(@plus,y,settings.ymin);
end

% Sigmoid Symmetric Transfer Function
function a = tansig_apply(n,~)
a = 2 ./ (1 + exp(-2*n)) - 1;
end

% Map Minimum and Maximum Output Reverse-Processing Function
function x = mapminmax_reverse(y,settings)
x = bsxfun(@minus,y,settings.ymin);
x = bsxfun(@rdivide,x,settings.gain);
x = bsxfun(@plus,x,settings.xoffset);
end
