function [y1] = lmNeuralNetworkFunction(x1)
%MYNEURALNETWORKFUNCTION neural network simulation function.
%
% Generated by Neural Network Toolbox function genFunction, 20-Nov-2016 01:32:55.
%
% [y1] = myNeuralNetworkFunction(x1) takes these arguments:
%   x = Qx256 matrix, input #1
% and returns:
%   y = Qx1 matrix, output #1
% where Q is the number of samples.

%#ok<*RPMT0>

% ===== NEURAL NETWORK CONSTANTS =====

% Input 1
x1_step1.xoffset = [0;0;0;0;0;0;0;0;0;0;0;0;0;0;0;0;0;0;0;0;0;0;0;0;0;0;0;0;0;0;0;0;0;0;0;0;0;0;0;0;0;0;0;0;0;0;0;0;0;0;0;0;0;0;0;0;0;0;0;0;0;0;0;0;0;0;0;0;0;0;0;0;0;0;0;0;0;0;0;0;0;0;0;0;0;0;0;0;0;0;0;0;0;0;0;0;0;0;0;0;0;0;0;0;0;0;0;0;0;0;0;0;0;0;0;0;0;0;0;0;0;0;0;0;0;0;0;0;0;0;0;0;0;0;0;0;0;0;0;0;0;0;0;0;0;0;0;0;0;0;0;0;0;0;0;0;0;0;0;0;0;0;0;0;0;0;0;0;0;0;0;0;0;0;0;0;0;0;0;0;0;0;0;0;0;0;0;0;0;0;0;0;0;0;0;0;0;0;0;0;0;0;0;0;0;0;0;0;0;0;0;0;0;0;0;0;0;0;0;0;0;0;0;0;0;0;0;0;0;0;0;0;0;0;0;0;0;0;0;0;0;0;0;0;0;0;0;0;0;0;0;0;0;0;0;0];
x1_step1.gain = [0.0606999022156956;0.0535571254518826;0.0792630289601656;0.0964590459148576;0.0412537492553422;0.0890885823818071;0.0577075839274922;0.0568436779341084;0.1166011942166;0.0725659186079094;0.0651520629649515;0.081181684292951;0.0880010366333051;0.0700207643095608;0.049304812562661;0.0447550575524971;0.0580437427125371;0.0368432891782325;0.0618586720575281;0.0827106035196273;0.0911917264269079;0.0607579563397216;0.071335922602222;0.0457686671340538;0.0586358241658939;0.107314050817426;0.0623743902951174;0.0431747748795291;0.0728967137818055;0.07195040564462;0.089181483880839;0.070619329395999;0.0428410185952907;0.0425774024217782;0.0567422247682071;0.0673812827528178;0.0568411635282789;0.071172265123095;0.0667560502636307;0.0742108651694451;0.0880581112857963;0.064948291032979;0.0806537983762725;0.0799813825074745;0.077310973440131;0.0578206572361953;0.0820161511221671;0.0641230917577437;0.0704892297104047;0.123571357610802;0.0784146272426846;0.0823073137836822;0.0667949129470882;0.0454606781712649;0.0736869097612654;0.0600176542713961;0.096875423539419;0.0620325049246749;0.0956609914358372;0.0844252126539914;0.058516826232746;0.119042123780077;0.0699514118087037;0.0888271581825442;0.0783439769317059;0.0829120950371793;0.0628068725923905;0.0517321439108107;0.0616510077989193;0.0686035610682171;0.0528998199972556;0.0831407267106679;0.0597196359194437;0.0808033170960106;0.0728046678816794;0.0695855160598168;0.0538066870219262;0.0896154234357302;0.0427518363406265;0.0611414862467574;0.0870158739142164;0.125233317482743;0.354203924420016;0.0735845905316093;0.105370003791437;0.114302009258609;0.078393059506075;0.0666342702061802;0.0935246645954484;0.104302595459302;0.0903195253387555;0.0749693566644036;0.0571485875484515;0.0512389846610834;0.0888649785832703;0.0521185953324408;0.0612181821345072;0.0555865201246787;0.0751824107849866;0.0608250962921713;0.0653944781749197;0.0630915039082008;0.0589057591893627;0.116746269567361;0.0641639540977969;0.0923700064570632;0.0452989492355897;0.0747555027041208;0.0737512950379561;0.0860406550169144;0.0374899828377327;0.0668819277335903;0.0733311313442654;0.0557116892876391;0.0513543187247539;0.0703993357093933;0.049674855799395;0.0722647317708283;0.101308176846813;0.0789772044698536;0.0521715161680174;0.126347298065773;0.0539400435954172;0.0524684399063492;0.0536602106111683;0.0582523840358815;0.0659267105295339;0.0778249889245663;0.102271252079048;0.0564399050349681;0.0644879538652729;0.0648391533566408;0.0416022675064016;0.106501471513099;0.0468650639633824;0.0644384481052444;0.0397509048030094;0.0587561828205227;0.0706325156542239;0.0822109496891342;0.0587985135287901;0.0759684698277064;0.0801969620059153;0.198616340157304;0.0879844447056796;0.0528541756913818;0.0737538939550035;0.0892913269023827;0.0564602662685317;0.268805659455092;0.0793704656237253;0.0666113824852649;0.072426588695212;0.0907483151332034;0.0536755268292149;0.0679010882683842;0.0577427815740913;0.0736777920383724;0.0682458197014297;0.0601448971112122;0.0880444030698862;0.0618843294857074;0.073220899507846;0.0562467265544052;0.0691421931922988;0.0516985782614878;0.0969778401580684;0.0470300595608119;0.121770315675227;0.0829378351432403;0.0661710936137312;0.11214092906063;0.198768765558192;0.0691365858601962;0.072421451385073;0.0450277391134597;0.0913070335889745;0.150020895530503;0.0681752115732769;0.0891232926498204;0.0597564121077947;0.104429522501362;0.0689091774522907;0.0679167450928931;0.0662946385528648;0.0853621694633335;0.0493119401960296;0.0869153583682814;0.0568417366453284;0.0411240270372155;0.0585406093878598;0.0552491823608285;0.0585807775119751;0.0474410045887532;0.0607320985928202;0.103539899469403;0.0607319016122992;0.0478667537289995;0.0558751454460235;0.156492365561758;0.0899889120412486;0.104670167131717;0.0548047732569164;0.0856844877211221;0.0649161561970718;0.0693621643819052;0.0959618237812862;0.0909665920450558;0.0490286897809079;0.0922856463667922;0.0944429678323636;0.101835014565673;0.0569745423485503;0.0473428734612424;0.0591981565613112;0.0487708361027052;0.0716352098052442;0.0644879102388432;0.0658625423686549;0.0642895147078966;0.0598305238514485;0.076598392507299;0.0435288337177098;0.0889744882767956;0.0663244904137222;0.0618013447375121;0.0500734548456608;0.0656162527781635;0.06817023862145;0.0412014048248161;0.0679080229991074;0.0495287341250303;0.0794256258111469;0.0791936891924725;0.0811339640148784;0.0479765388165894;0.0837575891576251;0.0612128858467385;0.038079350670838;0.0500356164780991;0.062196484175182;0.0744325770296491;0.0738937685465378;0.0779410196116908;0.0624731149738961;0.0567446690123398;0.0480666328979306;0.0604849962511826;0.0478855309593026;0.0811475827860106;0.0596508881165839;0.148173311632027;0.0501221007290863;0.0621369312186619;0.0325803048636803;0.104178263958553];
x1_step1.ymin = -1;

% Layer 1
b1 = [-1.550195146067684826;0.77267644246121280904;1.1853528516668390136;0.92600767791608196156;0.1780330495593145379;-0.13470506576456975356;0.14352156766232626595;-0.66965388682473736548;1.0024082292743190514;1.4553629329744581788];
IW1_1 = [-0.25252164681406868985 0.35954001452522948989 -0.35369672655626294144 0.053436773071610876862 -0.081274233726692554636 0.14093356132804527037 0.16761752217221592698 0.19180845802577783932 -0.086808892846239438246 0.23551739032911417349 0.040556792178843129038 0.481330553888113577 0.13400803677610390041 -0.32071099774639100222 -0.86456051449169757372 0.26907703161701124195 0.47924309868169984172 0.073102527575782283442 -0.13496629053636280404 0.086142987533098791531 -0.34697484059596372941 -0.33843500476643983976 -0.036748976325553545097 0.11766792709471196599 0.22865243503819859816 -0.10605774867077195911 -0.43208382606500300716 -0.18715673529353021864 0.20145418427543465567 0.20177960338803321849 0.14259297488944858157 0.73897685260149392761 -0.047880462669441237189 0.75176866424774824171 0.51666947545989772017 -0.01235747812812997698 -0.40178367415826810038 -0.43368855763887809163 0.44695707127044204121 0.52571219504061628136 -0.19920295320247416448 0.60698908660373718238 0.064379985026273733872 -0.50981607891638480723 -0.16197466686474909503 0.76022543835436229287 -0.23573193384576174303 0.070661038815062429674 0.15517628353175028089 0.11215969310608746301 -0.059364653820514493021 0.38529726875048253554 -0.10468162536742942059 -0.88772851091686266756 0.027623043532345133155 -0.50606444688836471624 -0.41392002471736832891 0.01191940888962054329 0.021818595419545713798 -0.11708086248116321426 0.39857390567369183065 -0.33705434232073233636 0.34039530892738711909 0.15276341949481145321 -0.33169205616948388426 -0.071721236355574452537 0.12331742888418893711 0.2093532589952952494 0.063589956519134682722 -0.32675308716777745621 0.26428814976452374985 -0.24110858262072448754 -0.30020455462715162076 -0.50141869460952948057 0.044236038158566776124 0.74691869131000077076 -0.25397229554181999234 0.25003111395841809417 -0.65204359403806666506 -0.80992942944691526108 -0.42741284337308155239 0.1344869378461332754 0.66460819622290223663 -0.74917929113949699449 -0.25865592374126028519 -0.068423502609225750337 0.033752123749099693928 0.63694636750826649774 0.030317202814354390905 0.36630520455314929951 0.31026872166975422163 -0.083238093495576620517 -0.091168690559552303943 0.18917346796945577747 -0.31755616852529156002 -0.28678657688199360454 0.21947883990340627536 -0.28346473860173798665 -0.18249251581083009155 0.61534158878202327436 0.47784403029976013633 0.080971345468007827062 0.15069031577508115727 0.46151547184833768833 0.42466086377222439507 0.035260093120932152477 -0.42561506528983283904 0.18648726097791978873 -0.21879513943791628616 0.089422883930536739561 0.070011849931141081904 0.27209267776890511126 -0.69500360281780027005 0.27207293968855350563 -0.0080815306706897849232 -0.22523126620942210407 0.28370686280608631291 -0.22187321946370647252 0.26317010942991292399 0.05852257876487156063 0.1237744824543549893 0.35207245446715607073 0.46967104884525950892 0.98279284258737598101 -0.75540942746817019149 0.077612878059529877284 -0.12385306584780857164 -0.28200915972054801939 -0.34462509646828465293 -0.35561070949893647253 -0.50610676326169035111 -0.20248854506465585601 0.052699176814922955858 -0.34603939220585322456 0.046490582656203038869 -0.48221439611426397676 -0.27897255858466807332 0.50177263265874483267 -0.48834360207015797828 0.1590639742955121394 -0.37501360856760779239 -0.0093402687870995926289 0.11842184685911001651 0.2887181077088399328 0.67850722307391309052 -0.14293599893057828965 0.39881895446516812953 0.10552197164407600694 0.25210849991907602341 -0.35714654006120777341 0.36470243580687405904 -0.26039044055980498094 -0.35303435253522874593 0.43803169164875532804 -0.42203958919852058163 -0.30927639619373431534 0.25957363000218358629 0.22877535801178144892 -0.3855646517982140864 -0.33635616333218609775 0.36152794471593252545 0.096723589074401941645 -0.3743372848105696038 -0.021679986915411481041 -0.17754356207343957585 0.2197214109521145875 0.086574635370082628216 0.07600585613649726846 0.070569629341006495649 0.43282506456053559951 -0.036710548860851101305 -0.11651042591100932433 0.074379654159280023107 -0.085976765449203462754 0.23220477758133351021 0.12474880498428764231 0.23191441500907022943 -0.36976189070999637698 0.18439188772996842336 -0.23423437523743750877 0.071685392637754238865 0.23050663530766568599 0.11299099119598857155 -0.0064893046420445299471 -0.35201338538720805538 -0.066003163555613447722 -0.75687356914475023562 0.25401642313144046081 0.091553835008989059574 -0.085902225148544827937 -0.23701444588550635295 0.51781040971848812937 0.44904290788997353046 -0.24250542604711544659 0.53139259262925209182 0.26429453896838789317 -0.21575831612940785109 0.09936553268366513092 -0.13573999275326464886 0.33524673987792791285 0.26955717282389946021 -0.13734104761224702473 -0.092819742142866284995 0.18064338008587538242 -0.015878616370635312283 0.085495320163424065596 -0.36192634180612287542 -0.51220645330688718833 -0.0089563064943157660869 -0.51468364866913773881 0.28548861945252468342 -0.34417901385370963663 0.45427660948935844054 -1.0629609284322698581 -0.23300414913070247036 -0.025374608065765393017 -0.063355610409321139187 0.40807682912705495193 0.017682480017953333684 -0.12535079329037041029 -0.47320727324154632232 0.054597260034125669192 -1.12321525138605538 -0.096151370789091514246 0.059085511657881228942 0.42237112054068420841 0.5380395138765140528 -0.30474225425945061785 0.18203146339818085386 -0.28333777800443388228 -0.37843710127167906609 -0.57518312019984296768 -0.028957977689297295654 -0.61006908912515689369 0.00057954994899211964565 -0.42707007284669185054 0.071894708768493575946 0.86205352914169197653 -0.81264273514859786118 0.2112480967165035195 -0.58005649867124720043 0.13756094184384104473 -0.1032354937943977119 -0.0593323069463981001 -0.094089483454395952955 0.34277097439679116153 -0.15623665030789143926 0.1618503815201839946 0.38840320421998963951 -0.15608061690995589377 -0.68773246284244904381 0.70141257292374714627 0.36222918338983361997 0.01093292029124248721 -0.52688778009054626494 0.43438667366662198077;-0.12278169595395985181 0.095711010828540138418 0.072840539486041772088 0.24127875988555819164 -0.062653369745179487982 0.16543639845193713889 0.13624853111756041191 0.20993216964203498254 0.067113973722945169387 -0.072885326829328994647 -0.38602907596847430005 0.4593096347761181919 -0.50409651986480707997 0.068190672129886692465 -0.037918392611872318854 -0.017332559636142413906 0.35913508358035617363 -0.14679649501447966653 -0.12925275766273958133 0.18895793402640101433 -0.12601252637460166883 -0.13003386191618696022 0.24116492239274189835 -0.078475255585469583242 -0.46175667381006524348 0.36021304071372206579 0.071939789469672096867 0.21280453633241888656 0.41605779944630211231 0.14998925755820011196 -0.50103057620744229084 -0.12537099984336841363 0.27271349702893676881 -0.063702981892043347711 0.06679482923188018173 0.19287725159936155994 0.19405344512116409761 -0.016465893405855726306 0.135749770975378381 -0.12617831828022185725 -0.097542567694615112117 -0.14795955183845976855 -0.19932692054939510351 -0.14701986327333704807 -0.35190547997654114676 0.16338338594049212071 -0.21492110618770837727 0.018685477031323713404 0.37731147132869696792 0.0764201188174667978 0.39460223271127325972 -0.17093300416161985589 -0.004082538658101445006 -0.4693348330561913917 0.057969198177359390622 0.042354148728993845641 -0.0023992945432116385973 0.2676376009739317996 0.19778656001918951124 0.73975689367559693821 0.059654882579124157704 0.034750962852449177043 0.36765706863630559509 -0.071260178277893049259 0.15901525269296962195 -0.21213507009638715717 -0.13783374260096165065 0.11421526530408149247 -0.15620624998069471134 -0.31292755183708070854 -0.24943892604913353583 0.38860622319965815175 -0.20510994314445352149 -0.36205233585059232171 0.25504831861963406237 0.08576195687729012973 0.53301121465463929816 0.29243933965740198655 0.060622442631217673958 0.033990403315525441474 0.30051561035856810822 -0.006523148180558158149 -0.22794566479893613176 -0.1584185984341886233 0.37659435729408258231 -0.03524315836524446327 0.60078815250170314322 -0.0011796786802186903786 -0.084422019513885560027 -0.048655058201843501275 0.14585357421550382284 0.4331336014746425267 0.51236513939782724059 0.16500100888199220606 -0.37412911014304500723 -0.075184154747240980465 0.18635099269981891812 0.29622791490876493326 0.40820116690704366658 -0.36878072184760374297 -0.073205619121866682963 -0.24022610383579101612 0.11188017122645169121 -0.31786726026517941879 0.21988013539657605411 -0.31815710668463648148 0.18376412964638499936 -0.1761390782129925725 0.093202978712869283262 0.0013668205225652596546 0.094223090146981200443 -0.13540321960939863399 -0.32345176419432203341 -0.32827104222624309271 -0.10906737073168651375 -0.4480326132282407281 -0.25230598565747103246 0.084582011441170668054 -0.31405656390124314647 0.21651981628386463008 -0.0040944325079911095266 -0.78579470450342758792 0.30036126867738982549 -0.14753239113887506306 -0.13027945449821445867 0.32388654515272424783 -0.29523896441090202725 -0.20571022912583752928 0.18563059588493985297 0.11019481641976035247 -0.11592184978150256447 0.13880096781287945551 -0.29248934075262483789 0.46438538477328306087 0.39982454907148645695 -0.70440079377393749471 -0.029135865199665961223 -0.43447261429797640053 -0.13099717243718050907 0.11646662380463557174 -0.017520682817603678433 -0.2476203933122513301 0.49118814536975963225 0.15308164125188569726 -0.40476268967263340226 -0.47340509179986589583 -0.20287901461180860019 0.1246150547965877986 0.23656542459486432084 0.44787010777822555685 0.30209606989590914727 0.13502521208389728358 0.29917096085968258867 0.16487606580187183503 0.046349217489327521058 -0.081406407937366864758 0.26134448214482453032 0.86661766190031808144 0.25994784472534093744 -0.049273239556426366714 0.10448805155853482796 -0.20514266831409022629 -0.35967780965314777308 -0.21648293084200842529 0.1864148470661508572 0.4470854711725361641 -0.41770108813729617259 -0.48780739768773423437 -0.20024352661375871554 0.082060087148647237187 -0.16082697671756823743 -0.21797993570379781136 0.076499159896565666061 0.36918172612774069474 0.47207099122861684304 -0.18374786827916209098 0.3208430589841548275 0.31801511840300222822 0.64329858308094334252 0.26765740688179329165 -0.29167967804184480318 -0.29052503802192936044 0.19305816502498321374 0.27362770289419141578 -0.42613281905542749195 -0.39274757118767883446 -0.48582122944433042688 -0.36871746681854578043 -0.16272043482576736828 -0.19460665386737199811 -0.12547147799213184682 -0.30715090237635095383 0.27495594978056980828 -0.45492692067349105312 -0.090155238242666371762 -0.16974382432597512338 -0.17032287639773630028 0.32534733486318739848 0.38297218896600582205 0.087213680766382722931 -0.26089302744621001295 -0.062347907254846540726 -0.11891166659866286848 0.040697418062375964598 0.16690052577484446039 -0.0088357426925190080125 0.19801963911399628193 -0.088250947016591030359 -0.40706847141505109189 0.053783931318355869544 0.10783632392649528109 -0.36486240554718857299 -0.38399773533966008454 -0.13496100574364544578 0.39209808372238430518 -0.29663206611827241943 0.01153771819206915461 -0.51822622325931777532 0.21534759121280672156 -0.14854895234904050283 -0.36108085332361622433 -0.21094212757194286123 -0.10721306712801320637 -0.23927454934151978772 0.09839121218524651824 -0.15322943640984368341 -0.14201391585825071107 -0.22839227528024974578 -0.31165406604014556091 0.49394010488162004568 0.011256496339918042882 0.064539682170508413939 -0.21535804684066248149 -0.19836648554678357192 -0.12778367348637242884 0.48628846442045137177 -0.4833150867244283555 0.30048776333621557422 0.017448534647167640577 0.049533767148053048368 0.44579361217758511904 0.27747659289202913913 0.49427571213538812334 -0.1101379674134845138 0.19273603617850448844 0.52851938414261179222 -0.13063772569762271969 -0.19729170047692956569 -0.33328598478905174796 -0.44154738736282295175 0.01457164399128712054 0.17305758324061681908 -0.054459208202505771101 0.031634709246986518483 0.25259038430046154566 -0.22337646245799519518;-0.00020850871136102178127 -0.13698341381776224512 0.6777476867582034048 -0.14138618226720064963 -0.39019660478480461263 0.056243460378518399245 -0.28723414152227910723 -0.16684942560300836112 0.40811005350756174304 -0.13836606491457920098 -0.17940821757219008181 0.69004430242341630031 0.45162495980420613861 -0.30620452835454470275 0.26802217518418774977 0.3830599372347628373 0.2547926632229937649 -0.39689935837000522856 0.22778846324298243631 -0.43588346660119298148 -0.034979535225662439224 0.4563242561174064571 -0.038337327127759973644 0.30727271638998521208 0.0024541351813172074259 -0.3056963635047906247 0.0052408397253263724891 -0.4901577309877450106 0.22992718791629840336 0.79159425006514105849 -0.1524441826114117382 0.0042706469315765549499 1.1291599120636208742 0.49371693329651211712 0.039129958143495929823 -0.14316995160945050758 0.75179948233128013335 -0.44218942326526383679 -0.054283236922892608156 -0.39308219696567237023 0.27235226437403298183 -0.12484056526211598226 -0.01591889394880316444 -0.089997936778329568064 -0.30455106740403392607 0.33493525211050867441 -0.071894934331507800995 -0.16318565918988464647 -0.35072233393120022527 -0.16210879242502945763 -0.48390751223888689436 0.10983187624066637067 0.012482696537738121115 -0.34123900015221242388 0.47801874265720678547 -0.19190704293432225835 0.127854495765062387 -0.049527450862050528824 0.049561263630475707598 -0.55742246971141296008 0.34204695775899474075 -0.073218230700631325991 0.47692111227158728859 -0.42404540026833514865 0.58330721759475023802 -0.50870298554022486126 0.072943870855242856632 -0.42118193055730218655 -0.32746146095714184776 -0.31944198513139782092 -0.37836794082908487002 0.1267363200827903158 -0.0042062843901095256505 0.49713909836127401221 0.74007430802960216809 -0.1897647137378597193 0.57318413765545295213 0.27580048946439705837 0.041695877361288852248 -0.12930414197389505926 -0.029952733901703165742 -0.0014588595675357474146 0.23251366290813776927 0.59898645104752579194 -0.21803868607584953043 0.31016129209935305866 0.44119241287445870592 -0.2890182226207417826 0.56765913542102619527 -0.31404975394011025447 -0.17830342134437748847 -0.48563474397275319117 0.14782456864606749458 -0.68519925023651573337 0.0081849710781626006106 0.16348827973341217845 0.0086557576642002365119 0.12461752364539233073 -0.081286963010704912924 0.52107106970419792003 -0.21261615292312741055 -0.22627210757274560105 0.49817619303119564655 -0.21514585882507630821 0.099739337347131667988 -0.53316748818878312299 0.024954756407316397437 0.14366993916122788866 -0.061826354191649592063 -0.053800281834648425172 0.67459861397171694275 0.13296660041151117659 -0.095880120518666636653 -0.34132589352438896801 0.20721362908013024606 -0.69176656272307135431 -0.047127561343187462928 0.44519259940527583508 0.6733059863857158156 0.79786965161160960935 -0.42655163190462896949 -0.54066171500745796585 -0.24520350674563012872 -0.29562271755447538935 0.58440816652574889556 -0.69540984348606771359 -0.042520897575561517057 -0.50968381799524076214 0.28746156169108116885 0.090114721241156187093 -0.31259172736954621286 0.14240749555115170266 1.0978775034384304909 -0.04487266758615610085 -0.26716651267496782651 -0.14632154303449732002 -0.45511758957982079155 -0.4640058513358104042 0.50214690694550756511 -0.12366843889995508821 0.21720125146691135476 -0.28755710843253984299 0.32931516210109718079 0.50326650431265262942 0.53964329132689847768 -0.12548119427634157885 -0.25543303208530743209 0.26729739801814400568 -0.24279646889493894379 -0.43420114869604364838 -0.11766977421032931428 -0.05966536780986840538 -0.10562036810996691671 -0.40508449881050867525 -0.2432445555174485019 -0.56376245461574381324 -0.09112514553803759132 0.25240912547480776063 0.48510488704860893483 -0.045506870589437253827 0.31544587929566197948 -0.43008281381036800317 -0.25479719307053005917 0.357104522824146009 -0.096873738927102104324 -0.076910967503243748977 0.67799303533628485496 0.23772193249237408286 -0.39460779333260492807 0.075132788232223579605 -0.041268174529116664895 -0.53506417992745458623 0.64114458271331142836 -0.57656720380670667403 0.59204663493036624455 -0.34984972339350195458 -0.19794592963208632042 0.26686610441896291279 0.094783691183090684751 0.43926208197168198355 0.058444432690980860357 -0.61028392898741556927 -0.50504604966570165736 0.10007411906429922177 0.13522181964004995058 -0.012859652407889748948 0.51955272899659832309 0.1170158584616413644 -0.17091396596629460092 -0.11259292166754418518 0.34692414598786958102 0.33849607832310579791 -0.24650844550638384423 0.63991922449854377053 -0.10789852794031426497 -0.48137808721330771489 -0.28493691437502399744 0.4638234702903277773 -0.036922673370021197314 0.41707099167263506079 -0.52915746655638040696 0.20228123160979025186 0.35346887493203615893 0.22580934083836518012 0.26452596663293009849 -0.78322605397897027135 -0.11858266949428009074 -0.80926693078268363557 0.24109262052304450408 -0.036767735917953618674 0.25408535656106490119 -0.53559572220462658976 0.23241004481579149998 -0.60741027811078940335 -0.55486053561160542102 0.29454419083667060519 -0.5237627454327866694 -0.087556841483624442413 0.087953152158738834299 -0.12485227065433832094 0.15652372552594367994 0.24010084798436848175 -0.35638875664091473894 -0.25450820921270955743 0.17737406994468998822 0.029985351410548422013 -0.30221835372855254676 -0.31272482317797745122 0.097674043434707341627 -0.29971441613920379865 0.094037368323335368547 0.46501390626913169379 -0.45729186783322162135 0.61025200499956788747 0.13339720323938164537 -0.053652008575002595181 -0.38233214692926359435 -0.27376058523537816214 -0.61804421719880864305 -0.11770672274788662737 0.13494683731910661617 0.069312407304895351512 0.31525437039588627419 -0.55080021147818125637 -0.43435433362329861628 -0.35654747018600907449 0.54224422873045086124 0.50677505776892928235 -0.22912717645177277381 -0.49339648318373763303 0.62898971258445735 0.18402746560815852472 0.26069421416272314795 0.3278810572537546042 0.073097476647353165635 -0.56642637208964141671;0.14904037814355791669 0.86221023183613032526 0.35342849294399764082 0.15395341734993117644 -0.25776648755922315637 -0.065366646587965482329 -0.33873811093234595937 -0.43140776625698074032 0.59897725627675413307 -0.10920289263690982628 -0.20388667191921050481 0.14133634057760488534 0.3722778152226009496 -0.016756743056803344305 0.064122616965770207198 -0.36783710136142738767 -0.23614689261449009483 -0.17372287061806568342 -0.4962037459232682135 0.42587802470303992575 0.36164229977788381332 0.097371307499757947523 0.098389526144591232804 -0.47173647685602920765 0.3258174669743738594 -0.1598269150180008924 0.11030248007746930317 0.047529041567043101013 -0.037898954290032538239 0.056050191438995006221 0.41154250688619320453 0.26491146311289115456 -0.63550725698147392251 0.22844435890019376689 0.068597460254778558353 0.41195915589339082707 0.15291404354127632881 0.2030817681047449863 0.21160533913882101364 -0.46195771372767480134 0.75616436478442294877 0.023038720630076864326 0.45803094069362826346 -0.39285686579873774216 0.059158146312662640565 0.33899388836509847245 -0.018375134822244260091 -0.0086900492507918786211 0.11882729414948127455 -0.51765488726722419521 -0.22484703294910443616 0.30664876719845612918 0.21602186026464645363 0.23686794537539909711 -0.13059873833773966156 -0.39145195917480862802 0.34241663850410997139 -0.23562346348572232868 -0.54138779353470933842 0.22959768574480177161 -0.64124510107371168743 -0.51370295760869721935 0.4298032974108518256 0.12071897982121672366 -0.33986760967969670277 0.43562258775053075421 0.23338876434767827361 0.66646982114853425827 0.50541893660167502844 0.10679745501698983956 -0.12901164154213759505 -0.13504096636048931734 -0.031868171190424510186 -0.41516931068078610778 -0.12072757680116971701 0.010830274264999606437 -0.76944885021447817497 -0.20993912655336446904 0.23043135749435691983 -0.158758938615851386 0.35547738884761115319 0.032056961667960348628 -0.22650184406344858745 -0.54215894390853724971 -0.056086927426092461624 0.21685952527272178703 -0.051903217542780127891 -0.053152547882172482274 0.077483628842951651761 0.1715767174786916871 0.14454414010767727139 0.27780154164487103063 -0.35283193670127377395 -0.32487882008363766495 -0.25047967691317124528 -0.53016153251949049707 0.31635622271075525269 -0.01436005566919573706 0.020538133376002659647 0.00039061956814709364316 -0.34342128173473079888 0.4995172868842751579 0.15479576993925728279 0.70338680351132465418 -0.054042357564019399829 -0.66458874033309878193 0.61132109304310411346 0.027674517899082443084 -0.38823378825662957503 0.13141706731918256779 0.36267167732593225127 0.10194470116898105005 -0.52969930358950956251 0.01615545010878295662 -0.6747594336918889546 -0.79037126951080571846 -0.016756435639704192475 0.016392175210030557331 -0.30937949819825105724 0.22878294929011913639 0.34724396637756821393 -0.13397950199625122125 -0.38207216553185480157 -0.39316107423393070741 0.0272040419602238015 0.36214081892786903483 0.57812484173568379209 0.46829018225409935194 0.11398863192549071877 0.01833822252096135863 -0.035555635901817449207 -0.43925307634368254694 0.2224789420193580558 -0.60748509725547239491 0.15423473699386411329 0.11057582087229053669 -0.46367694292179462145 -0.32222043034188602162 -0.29351474361992840878 -0.23281201034894472013 0.29183502009526363086 -0.19289238516065437823 -0.089888097976348446672 -0.22071481958920927124 0.30436493649021822971 -0.24599873634788738119 -0.24957131983975130995 0.34412710497293114154 0.25598424645537332101 0.21826928751539159679 0.47905280094672098024 0.44571596858091699911 -0.079827752118228928468 0.85145580357511341241 -0.41402994009727955849 0.55406282444895782469 -0.27655321414688383008 -0.24546127447257917731 0.2990388212716544869 0.36838192058196156387 -0.10873905143784215466 -0.11249431843317501956 0.26340490655540582665 -0.19243960109860291929 -0.067770407835293450249 -0.25153477694394676956 -0.25070065901711197087 -0.4001454389886637264 -0.84807419110182769018 0.10506578198908057831 0.91864261889076492817 0.27156027947661709465 -0.35997947631352011921 0.19390565339135260037 0.20426914674516449821 0.33344010821494973751 0.21199474149518876542 0.14140119024684116855 -0.01345688420930019058 0.35158073398144729094 0.44379964273650557294 0.61723658352159815887 0.76579234713800437007 0.059623944417924124028 -0.45751474918669254865 -0.10178142806935536191 -0.67188931853325462029 -0.29677780886643723157 -0.11984807883210353563 0.14711828892623701748 0.43811249081911485259 -0.40344243816192693064 -0.51599465284214673932 -0.21058102908330600389 0.089159474697653007258 0.068125157112458700759 0.10287210481558362041 0.033543203514970990065 0.22261693944578936355 -0.73510310314156512845 -0.38520358869488463549 -0.54925746598323332837 0.34677093073748355145 -0.28930317257134485764 -0.019531275047979163029 -0.050342751392422890877 0.13087558145651989605 0.35371561342988572241 0.001784325314321690871 -0.41677048833262830829 0.49910758728040460763 -0.32639746787945222994 -0.0048165962387954897039 0.30057220946741342038 0.80367142243997324869 -0.20616200949790544628 0.29777580155934124662 0.87958122896026025295 0.2095035077455271455 -0.27767570565809929217 -0.17753925671888076687 -0.38723170671994361358 0.051328959454285574826 0.25895328357209523862 -0.013658494858573455577 -0.12558222109785646681 0.022070983324751186627 -0.19537578087473100874 -0.47161129008974495003 -0.12169553015180235855 -0.41477222011152337089 0.21188571675012077278 -0.12889570221909760206 0.24186994547584764192 0.29425980334602425126 -0.077521924366907107862 -0.12941681966112911217 -0.28915721348672662749 0.13231068220534450419 -0.24943902920862934258 -0.11176628198942237247 -0.10991360953116541266 -0.18052427447684613049 0.8653902701817259846 0.27566277563933733186 -0.27776157622899666499 -0.28102061488834967351 -0.61453882921824865004 0.32462326573344574276 -0.10899498048615058332 -0.087332046076917316246 0.18868594909376928959 0.37095946507935767533 -0.1986685180684862051 0.041134100095834659483 0.14679548607379064307;-0.12838195193418000528 0.12125647370426329008 -0.35751852244354037635 -0.58316693889919624105 0.19062975501326562267 0.16251507530158831871 -0.033718355521853059231 -0.07034091221524124693 -0.25162636407157001894 0.13354810323738350308 0.22594228071899410959 0.7856410800885628154 -0.091693216824516782237 -0.0618832233284310404 0.86946122904552125554 -0.55199394375038279836 0.16293517248639899364 0.54058664036706027822 0.5334565311680699029 0.74232753264461193154 -0.74830490770320257088 0.22080136607553454975 -0.11458672127948639485 -0.32455126861019789608 -0.063555520077576366234 -0.63744101660468155401 -0.042577558696155592965 0.35539448389682271046 -0.022064837450950509912 0.19137748435710760786 0.33987710921825853294 -0.52751505098644080327 0.49218205021297345425 0.28758718810747641026 0.01726218409270103421 -0.16667923328693029505 -0.54502219087567305156 -0.36820592068921587092 -0.14129763553268664955 0.45683438010751192815 -0.66289645383922901622 -0.061708582818335300235 0.018858681959783921145 -0.24973046913599039609 0.24938579385589820792 -0.64215733170556266174 -0.60081959970169773744 -0.13717599888162773647 0.32327407447522554795 0.14725888517329641103 0.13998366860265909484 -0.14858145894498719919 0.21674445286573978953 -0.47549270097133722324 0.68026742347570023917 -0.52993877599201566486 -0.32038015815775938711 -0.17630685202584717164 0.48681688483078072727 0.46491654483345029591 -0.12973317049078786356 -0.3849589278849845364 0.4758758307575964297 -0.19675386770837230421 -0.007698076572504250481 -0.33943708904089764378 0.29544357783848240739 0.036344198890560737436 -0.49046560733559407819 0.080166602747976656307 0.03107144090716777371 0.20101602036543711471 0.32648640231573572423 0.49503756425314615619 0.27944316406804137198 0.33364624630492301094 0.35737701585166026241 -0.34928962447733019614 -0.56901333108260232496 -0.020862640204248938947 -0.56816826099655304283 0.36743710260590844996 -0.015171667033571395455 -0.13562910092717003763 0.038196073586201362282 -0.037760159094816801717 0.7081648220595386789 0.09286847637206846473 0.47242978303572324972 0.42717651010246970866 -0.28041465130517395643 -0.11247310715078306931 0.14779431042229027038 0.067343851131032889112 -0.3819712164895985862 0.33546842578802332779 0.04822706759573273938 -0.044276820632228111596 0.010014040539378737948 0.20195590819708081343 -0.059284300656497854187 0.16251702345877150346 0.21699825492096169732 -0.51152334558875311998 -0.27737885263843253814 0.039255376211258442842 0.055137287837722981365 0.45513923988749194205 -0.18321669019704558967 -0.7798325898121890587 -0.20521552425396144548 0.18481034306438193227 0.59602835583919688833 0.11268945046588967063 0.41600183531083784194 0.16662003836744859742 -0.2546871269667634885 -0.045111124288117192271 0.089206630801762165639 0.17181545075572979275 -0.24489981650462316898 -0.15603755728794144186 -0.080737239344877032021 0.14381338549458169696 -0.89966997222676492463 0.025540892031358397585 -0.3253724808418117509 -0.18343821594365788963 -0.47352204760648997084 -0.57716158678461715326 -0.13364148892776026023 -0.20281038379066962385 0.32081172696486792706 -0.2500218568806308328 0.17841610242038782874 -0.46992557347273772317 -0.11710280480087727206 0.068302146261455989884 -0.62664471349076900086 0.28584274931594211289 -0.4309408721518948604 -0.33486557128887040058 -0.081395462314673094895 0.12352511780437566702 -0.075685898017544689376 1.1033101738197725883 -0.30523690537896941422 -0.12335526791607814845 0.30804912511564619404 -0.23172718089723357004 0.30056610072877065765 0.37508543867775334668 -0.11832778296108653615 -0.27064947230618863205 0.000951267381421691538 0.0015292586556768239525 -0.038614991097231543549 -0.011565221711480271061 -0.73220458888586792412 0.3998370424543906676 -0.13836419472470867786 -0.46926186673635761348 0.16982725065739359693 -0.35441253495397484485 -0.078023043743613518242 -0.22497088116423441528 0.36082329337579710504 0.11879648422064113811 0.58981857858849273679 0.21247588392838770432 -0.36684063234379638008 -0.17970932751932353066 -0.15108692899552284006 -0.35842121332765020103 -0.21979688575270012185 -0.57408205551634960973 -0.18916156266766787075 -0.11494300291851855533 0.37401210002031082258 -0.11858898899475402156 -0.23930447276869840079 0.011044866414420199952 0.057564659329655751274 -0.19948306752865652136 -0.20745141623970614342 0.36491628276531024033 0.3288401986480862238 -0.0084643268318120579163 0.35812696162474971784 -0.26200829279400816851 0.11028080173172660761 -0.23740928370667391256 -0.054770975779859953914 0.12188501494848452689 0.27064210394626175837 0.086201593703065154672 -0.33168307251544976166 -0.065183223698864395379 -0.31701357269103058734 -0.15279959843296508915 0.66985984107465634807 0.14057999378657587419 0.18487922474580362198 -0.29640218072226465207 0.51017545551668286308 0.44319020548447096708 0.38420836076785480628 -0.42538092150113360201 -0.69782497109169638883 -0.49798967130335358711 -0.049986489393678668058 0.38867271370052830504 -0.31955628732641044865 -0.017150389104020585807 -0.25112013931223298169 0.51725618685092644711 0.40582033293581643019 -0.72429988487168439626 0.058407175797692528763 -0.48953022181011690561 -0.32860904480159580654 0.074671929492374042314 -0.0072653390844155812944 -0.23737394324280808311 0.28577530052327382304 0.51161967410263564648 0.23074102903072130077 -0.29069688146852201704 0.40792225913269114512 0.089389481188222985608 -0.093301340353473621869 0.082342835419983995138 -0.064130522640402268242 -0.33690120354242714118 0.027049692130632269071 -0.082591226537473166891 -0.1483698015559566652 0.1336703714884547034 0.078283446184919336375 0.36876024938218887606 -0.053824370898594264823 0.41752299209555371329 -0.40080591949989607947 0.5323286462739273972 0.32606592366131209593 0.1761813242250188094 -0.28235938580644126539 0.026362834367947729497 0.61450802227140388645 0.45633591926065203426 -0.34895837030453247252 0.61894440662930372277 -0.0447817878637860739 -0.25213812694925530344 -0.12019057180528558426 0.36566981708091955694;0.099993518921373564234 0.70553069371737542337 -0.41923497092033884526 -0.23037279948834149534 0.037996241357403162664 0.12067750629557477682 0.1407221742860053082 0.38099724437553084133 -0.20253388748848649703 0.036547229083316659648 0.15652872165336995103 0.37449823720665087468 0.23736625215773490827 -0.08480120122242795766 -0.040452387347586951649 0.0074011763489118670423 0.41474150936960668679 -0.46468358800412257192 -0.28147690108993594915 -0.29089711383941452283 -0.76901557509951379288 -0.14788481764751998382 -0.077040970140669393085 0.18763869908236022188 -0.18951338687092891822 -0.14881859501384392397 -0.45131443737888476964 -0.25268724940784836885 -0.041005317128072232835 -0.27298715148694735477 -0.2942956034235634788 0.32809649500673598865 -0.0750844182858508985 -0.17819284611051069978 0.26617341116498111075 -0.23097438754088500668 -0.37184969852626303943 0.11300220069139088608 -0.14561665578169338819 0.1368881259150994123 -0.13063954637811558968 -0.1817439636135718406 -0.12690133955219307094 -0.18987176602290203875 -0.14300019091687191097 0.047870930413638920764 -0.29435765817759707019 0.024412039330217016886 -0.42209027477641947179 0.15256843779003453898 -0.29686594668442739531 0.15796766230099670847 -0.082643278545605269869 -0.48996543782202539585 0.41371537431408961227 0.022219519448039418141 0.0051430025662649037077 -0.34040313039409642037 -0.13155951862583117884 -0.17753727527609383663 0.087387684976682408755 -0.3161354326356390354 -0.31573947473806168729 -0.0098975798774759843335 -0.12616993853135927139 0.28535060369750719911 -0.065787202320782223186 -0.037614796334370904918 -0.071020203736756937207 -0.58823289808779843924 0.2228969047894371891 -0.28374596974487681367 -0.073099564747194673009 0.011238721715980531934 0.35798922765282065184 -0.29906829594263334426 -0.21026928905667185976 -0.20933848506110439014 -0.25621969756802781548 0.045041702900481872529 -0.0016710514093870587615 -0.1697672215321647804 0.081451194469159923783 0.0074196102049196022143 0.088849904885858671522 -0.76841453539709658749 -0.33110538655386917428 0.26534787614908594833 -0.098021630549301519419 -0.13626774824705351064 0.14729127026089439134 -0.40037034645747282546 -0.023628448166990036194 0.24458226503638821892 0.20144671060406091345 -0.3369271643002537675 -0.13011368557828051351 -0.40870330314291825058 -0.41155302290892303851 -0.013711465391414434656 0.24709741020708114734 0.29415257817176304611 0.31124632389201234428 0.17611369952140948358 0.55488957363669244582 0.012290213541051045465 -0.50912885435023991221 0.26411980009442348472 0.19143072531982849305 -0.29459352240149261348 -0.11545290120261589295 -0.031090875706533301071 -0.36026820948474325146 0.15568912341518520437 -0.24679124119117729075 -0.25590497007790785622 0.7345722139952289842 -0.18778256969851281344 -0.13039783942948299233 -0.1104687776409414568 0.24592393016413449658 0.20333544577750656268 -0.44575922275459106681 -0.037332040177049885532 0.77881635740741894658 0.25108723230050206121 0.068500680691714180282 0.087850451331129619792 -0.45317154933768677427 -0.24064066066226233453 0.11422756799407875195 -0.47051453678424504101 -0.34478759027721589403 0.13468822341281455612 0.3797151317888665667 0.10491183599190963271 0.23448980111615669308 -0.27892826655674596292 -0.32918944713437092719 -0.094081517331058406306 -0.15190187980418884406 -0.95433812180182353568 0.11076850121203549171 0.014432839186539314635 0.3104388498948201236 0.18669151663947758379 -0.0061352787934252570046 0.047047755537975868845 0.15710406613978022961 -0.037218412288207838867 -0.079720769928231974277 0.27182593412824995749 0.15802268843319916547 0.56755258080516191033 -0.01289864953333127312 0.49531548917025580714 -0.0030858338110262284459 0.00093659079085898697126 -0.57178758332353563087 0.017200397395288294367 0.087207706920823732655 0.094348817470021190124 -0.018241916981373867968 -0.024114653462697144271 0.13018304787015050339 0.27104524252253037186 0.15529071025044907661 -0.29194561366301946537 0.016067135539275974321 0.35012712593223654922 0.43561354676053704038 0.17005686453136231728 -0.0015161511060932664208 0.31722770050767923333 -0.051720757547095541629 -0.094616491051759649134 -0.13706292711147660679 0.17411960456724506763 0.11155144520103420225 -0.15712477308069233706 0.055766617732518772299 0.30604657895496462094 0.58150233279438712231 0.25710714190938310786 -0.074601594868619669487 -0.025339168654136989822 -0.0017407295712076886751 0.49260699920265732521 0.17627386750308199348 0.25724630668395359612 -0.072971732802857389166 0.035907521166529191015 -0.010809226635968505192 -0.087126155053108722548 -0.095223348298741863904 0.3414040449803779631 0.094623409472650882313 0.0063195164302237427645 -0.1178906210581228825 -0.19117907779192222506 0.31874074406430280559 -0.31254430928770826625 0.33372105255048789552 0.61903134774611723312 -0.091323133995696526011 0.10580209080949115608 0.64029523482223982267 0.42885425425251255671 -0.025599511026859783636 -0.28822713842348285374 0.40737574919377456117 0.51102974895522279564 0.026839711762627782576 -0.087747075963560960954 -0.31432890656614215219 0.16510927321520157962 -0.34133794889579188725 -0.10804542126398596069 -0.07775120282634856439 -0.2321132309057512555 0.041010506532564272586 -0.33015538560410118141 -0.13687415534963620622 0.19830786800549068949 0.12184349311560550844 0.36980749389489459 0.52862555750473749772 -0.53189382691062492281 0.1969428548684000746 -0.10853020987917866291 -0.31091563943500577505 -0.41546697221693662527 0.023647005306435098237 -0.89029324573067980531 -0.26309398542556827749 -0.39069017830585950346 0.11653219956946385405 0.42150012033631312214 0.16943612472903912813 -0.042856093911478189418 0.41908324315106049163 -0.081775497616764558639 0.26256269091326434051 -0.12995148591220873069 0.24726084246427412761 0.081881753859032818665 0.20106634922350535843 0.12781835460557713913 0.074451820045801614389 -0.15274356394401358838 0.0014146720357041259186 -0.20438726547547467205 -0.076170126673024238229 0.28673616729221207411 0.087557561615556542267 0.5017703453605432129;-0.30253705943566888692 -0.25018941013723527966 0.37770549814886078543 -0.21085695134410240015 0.016528179228227850295 -0.20390211092708165896 0.46297137326406434532 -0.059444961726724948603 0.1187767523744017728 -0.0090116276583959709079 -0.55143768091129141684 0.011449955602145026057 0.73705772950781600628 0.23299836593478315261 -0.12503737028331815551 -0.6428394947088803546 -0.55823889136535465028 0.15845959784866670006 0.6238391949395099001 0.50018769006833052604 0.057392248927952027593 1.1569070686574010054 0.61011695230724116712 -0.4310114825178567588 0.027205917957987851841 0.035992399807805441903 -0.033819685238470897914 0.13611511268687351284 0.43386354018880690653 0.45450213656690369168 0.41663647519319779722 -0.45252051027729417454 -0.46006963414037366222 0.0075925287984315095735 -0.25867151149387751508 0.44482917376342789861 -0.28313963040106948643 0.55140283163089987006 -0.45182012400143306552 -0.43272683735076000744 1.1726941279485523228 -0.68625164425498552667 0.29783792104674666756 -0.43539189649283205341 0.23617708280365481976 -0.10668418263108367383 0.69018049125244684827 -0.18298067293047745596 -0.13440314937255465333 -0.11011857547167648586 -0.26321399466076478291 -0.080248964802595648682 0.2394437089807028296 0.2076581304369647385 0.34304654907758502791 0.38881252123299991919 0.035739313486027046718 -0.55795252737891354311 0.23896144868663116156 -0.68742022615466280566 0.23624777839341010166 0.53919187085700204243 0.59205203264592221046 -0.18651675859988497974 -0.11513363503787661657 -0.052827291412039123486 0.20441232317957860887 -0.24681795578436607763 -0.23286798394365737508 0.12968053199424695032 0.10447445056370097127 -0.35049215533143834866 0.40924252286459522621 -0.36182926152888794658 -0.57509532479404634753 -0.107374931260105555 -0.0025659483727626455907 -0.050546428293990447456 -0.1509854503014573246 -0.23472898629250810165 0.020178268533711268828 0.13203133161497815351 -0.24790854401944772967 -0.67307325706862097814 0.32452872081606026766 1.2085974388378490918 0.010719192185460219013 -0.50348951657478624444 0.55470661102485085969 0.23856990899305452469 0.26739298510536929632 -0.17584707796785026268 0.17597856742361617233 -0.61815380435688505045 0.29899107529640150949 -0.27434520003880713546 -0.2388968426717389959 -0.2711229238078257664 0.10397393879590732801 -0.11211500207719791999 -0.33079931349896890547 -0.13719820213587402558 0.77855170187116828906 -0.024945164044294976247 -0.3018680766673595417 -0.48203266501116404097 0.37806421822948366174 0.4375605058449691942 -0.19145389183297634172 -0.060938209602916806884 -0.0089891159434674350326 -0.31050839251129308538 0.1704490129661052622 0.38191467675367818391 0.019451922939116017552 -0.14935690776366825072 -0.42631568158970500892 0.72762039913255927015 0.23426355205212368027 0.44650378524266859381 0.12885915404902348325 -0.31858397701086205167 -0.22532275629849862764 -0.45591664964873079846 0.33605724392021157909 0.42328970237670149324 -0.071268908833770072686 0.020348676028194057769 -0.0030144536837031915555 -0.3305548584433763426 -0.34399022049233574094 0.2437503063210003651 0.59472037975745450922 0.25483649930975266207 -0.35784801809740401923 0.55930386630631989675 -0.16751243316041769527 -0.14910349055068100599 0.19670009404494656624 0.20667208417896157369 -0.46995583358562342813 0.14815355312512962227 0.15013268659541301187 0.67487120045004189706 0.25410545151781072093 -0.47603436388530384615 -0.39334513022090245027 0.072939169266712913786 0.020291845265779307611 -0.0016836614724615658889 0.052142833363056792506 0.66665170863794809275 -0.17933146988047246606 0.19899469279498768759 0.47330288721501367899 0.22133925751136865334 -0.1016430687470238764 -0.36237229632788614531 0.34231745178099121096 0.095184132116776259958 -0.095190886361064486199 -0.97815496394390843982 0.80700852921237653526 -0.091158476259968673761 -0.19930754764464025941 -0.52879192717621348319 -0.01420862969911518281 0.11579441336019823117 -0.50464558464668396454 -0.12723257092907741539 0.67976081752568329186 0.14452000565954264966 -0.15309694355035488589 0.052249191850064151399 -0.23434059889665004306 -0.30479231047170718405 -0.60484408248355081561 0.58145483496508920673 0.32797551135805064204 -0.017219823365746213251 -0.74330902912695562268 0.55006778037318537766 0.008524626001062345082 -0.012658000750561018699 -0.56665855381437335581 0.4252223211667585101 -0.60101179853312136636 0.24646828249379013065 0.26345394002317423787 -0.75934302869837599914 0.037466769068404376375 0.15793160350888416077 -1.2400179686583163718 0.15273761323500295584 -0.17445727475866135148 0.19565602072426485636 -0.22534881227183739538 -0.47041736304169234906 0.16695279306822555232 -0.79750233011523363746 -0.56707015812973349256 0.084493253618439290165 0.96996503701941139131 -0.33537055419659012045 0.10449701980560824333 0.16393816697898383472 0.41457173251185197582 -0.23446277919997288164 -0.073414185631308193081 -0.057142701434281295558 0.13183782662192758406 -0.42536309463425570065 0.32504491096752485824 -0.14254330451341468144 -0.32120242337656185194 0.13378345297062815833 0.052875357948762399807 -0.19239168474953000088 0.018382623811106911516 -0.026078836927425186332 0.26162442768237642587 0.39252584274247204199 -0.20710424284717302013 -0.52035445198888141682 -0.081631078837501647172 -0.06548667159181584263 -0.13272398608789420793 0.14553250299686787406 -0.29406883500909780649 -0.19916363794831234979 -0.59676619197629965363 0.2479250555167152037 -0.23443795423430252578 0.47991929174399317048 0.30861639541983415524 -0.57187525080347678674 -0.77000346349416426417 -0.12430469457288828572 0.43426641670473364876 -0.18262526777730686556 0.74637778250863606733 0.33623866472734753597 -0.044014647242921117742 0.2584068282226277824 0.32923105041854927588 -0.29763152931064140727 -0.32924978727926090816 0.19319105966841898514 -0.007364009830661509548 0.44741299727561067989 -0.24168999429889140296 0.64559365811983426831 0.44795960572857435045 -0.43174585659115566338 0.39537999108144128435 0.3508331033835775381;0.62359463066664788666 -0.11310707494916528992 -0.081557899834820563045 -0.1592749895207463684 0.16081170055132548713 -0.39050478199836313742 -0.52801677566645499606 -0.047662256397872596048 0.10207050203835361935 -0.47718947300384378929 -0.46956802241240691576 -0.21009629970791932063 0.77043671720085193932 0.054600808120342098073 -0.10764076662305303855 -0.41675697082711138375 -0.79125640251337159281 0.0276032315256981714 0.1735899112336127259 0.31723534489271698611 -0.40150286793319883705 0.08536945934024409155 0.12780739795393275537 0.2610782436039845722 0.37212932430676781692 -0.92149737007415766232 0.34903088518075198188 -0.10077887473662339168 -0.10994870246868726493 -0.21294771724443506411 -0.52514405577663103575 -0.049396086322192001017 -0.28191201571022056482 0.5810418377290126335 0.43412376019164483631 0.57456011114068394896 -0.29201739928313197314 0.29004045298030917133 0.068790314565881027775 0.048248267961636032153 -0.045772393667313948651 -0.29313668936598524795 0.37199677758421212381 -0.20570751474606358 0.16243316555483261476 0.10507092223346295445 0.19206071746416122914 0.44990854068726543469 0.16948873573007874893 -0.38931605203457009257 0.028402258278986992901 0.19836953250764233214 0.26087677448911616995 0.088388411375277503579 0.50241475992850426202 -0.095243011389647636022 0.1026280656192888191 0.98023906253984594006 -0.44757218304567969458 0.24100082418383994565 0.5535321279918482551 0.10772050787638967617 0.077041568201219282064 0.1771055332848359698 0.81924663958575050238 -0.11292217181736002862 0.39547116365763818058 -0.31829638519127156915 -0.67650351216191328962 0.031132337251478375828 0.34915968771977118346 0.48824165367398486559 -0.40991452519187648873 -0.10819873610074126624 0.1205334899936718468 0.18843055051777651832 -0.060245877883913952211 0.29468275963685219843 -0.76816360482950030164 0.25057319851716508552 0.10425109572986367146 0.23620764967094812214 -0.11455139434109880281 -0.36272391540070625382 0.36593311566022823644 0.071513720030045968556 -0.042487254772528286473 -0.1396899850432700152 0.31408443570859639893 -0.011434311271149660838 0.21030189510454194712 -0.28388482770376877173 0.38982058234479671777 0.45739488493022362192 -0.25566579248351117837 0.48512676770907792179 -0.10881099143612706082 -0.13166230371352277695 -0.28065481951006271411 -0.087182282055068671678 -0.18011494024901966715 0.014219819997871571693 -0.36278012541147391934 -0.032402046699863268353 -0.45966908384105248375 -0.025268423524835270655 0.84954476017841173974 -0.08352147910055682245 0.42056274749358002474 -0.19298824342870690707 0.32299311732812957532 0.37760890142256819946 -0.16004805059558235847 0.36387231247446599758 0.43450221513138698182 -0.20090142570113700415 -0.087599172441066963657 -0.18996445517600460406 -0.048487746841182739754 0.47391362080318966132 -0.55302760324420341398 -0.35908074061148198552 -0.49390787936366242761 0.29286057165146744952 -0.53985179039970998538 0.067852407686943116971 0.074235150113312248221 -0.57707763401518852309 -0.18169609509272827141 -0.039820504762646341534 0.0039022949003491777531 0.37577895983735687402 -0.045368364188199124254 0.086368064579174161355 0.3836797258655961218 -0.71623472716053748766 -0.37216715603864919393 -0.25069773932907235547 0.3976219089227439607 0.18614661839841473157 0.055273596453338742773 -0.059872272805459210432 0.0038099017175156138504 -0.30399995349015168644 -0.45216751592767345791 -0.020805730160297124243 0.59982583095263897199 -0.55509804576511845298 -0.29005188203276494052 0.079706497990056079939 -0.23559074761628184813 0.63670455600297204413 -0.20471109424560790524 0.087980503256839093229 0.19359706545839772129 -0.20856373465123287381 -0.10163796589579909835 -0.07444678369949644936 -0.05472161499260857348 0.56046064503337855722 0.019951801389346345006 0.39124161700848392176 -0.31389653730050826042 0.2422416528952255621 -0.075122714930195552685 0.35616326834607858753 0.086879237027014721839 0.0059631489166552115178 0.25937981602047954777 -0.068858323963389256317 -0.00086992231603701813958 0.2515203902884494136 -0.19200355137985242182 -0.52957193249559419979 0.4050909654553888628 0.3117006435329290337 -0.42444428338475903573 0.13957686579520414694 -0.021912077947366631614 0.005498416387875529332 -0.56626820694373281029 0.58239754975592306074 -0.22670001406022186052 -0.28733428944451389064 -0.56095628718902423859 -0.3607472611444054178 0.1958734446381897587 0.36738809279393247476 -0.17277483852900765715 -0.060117551339889718776 0.13397767565240450982 0.78482748274222979834 -0.43769802302432159191 0.043575160960213271677 0.27373211689369686406 -0.62478966685461900799 0.063637395102621438503 -0.57444034392258580546 0.27587890163946249267 -0.19712610056083648691 -0.71134599090965300316 -0.15938385067179564047 -0.17983129900514477351 0.85730117217087198345 -0.574282441606232541 0.86295525635177694479 0.39356672154134453301 0.55275966706277113172 0.2084404612342941332 0.26533067030629736704 0.20752660825234423014 -0.83577676374913911772 0.10444667043843657017 0.029383825216192892282 0.11378153307080804413 -0.62521943719325945299 0.54096784581634438371 0.086075921617481301884 0.25613666205710583501 -0.33388013715060960163 0.0053197616477518097633 -0.25500659843472672783 0.28194180939446622514 0.66220865558255292971 0.069352413597417075786 0.25486859146164464462 0.35347013447714054069 -0.86941413549584978249 -0.4934910525910353174 -0.26350649574527956753 -0.35159157584533184959 0.03883887982114488796 0.032928660648030919078 -0.24679454282209961624 -0.093236946874494394666 -0.16607223630056533459 -0.084529522930707631789 -0.7628277703262171805 -0.27701261616230304918 0.046222973852272530859 0.021606649180394926768 0.072671245578005527754 -0.35333184486931179524 -0.32264680903534420642 0.17377259553218893373 1.1159958857348102335 0.46415769726962707864 -0.083166051269369128951 0.28690389601981525214 0.21807829963998962008 -0.18968381945063192417 0.0012333895777699166452 0.38409534251082061429 -0.5015133602717788408 -0.054498265150542041235 -0.093286944424068179993;0.17229693547290797495 -0.066274403506424967025 -0.063111933821170598802 -0.38745712871215853834 -0.44338285239829838824 0.044106407541375944326 0.46412063505558509569 -0.51447186011456569332 0.010131250858324974962 0.13259796131389731122 0.32683845278903167486 0.27612658687667152035 0.040355265761820420523 0.21743929844500947679 0.56714402890268611479 0.25288401264162668758 -0.37862099315097991203 -0.0908375514820861929 -0.32850103635163041549 -0.030876421564010214649 0.41070580047536159318 -0.15175346408614170945 -0.41452573931279113051 0.083936758706479694392 0.078765970766780032952 -0.29118171096720074642 -0.13728091882835030679 0.28953237408257703756 -0.41869662476532626405 -0.156566232011533496 0.09594948945899861581 -0.33813594663860679912 0.34447472101227849528 -0.015762294197417217601 0.17011621754334935175 0.43831760148657594733 0.13061335725541645125 -0.46228531513698090105 0.30445675935168625692 0.052017672988638019582 0.00050696834695860421016 -0.39352586733430211519 0.50795537688285086197 0.21327859011761376995 0.24413111213991955939 -0.28905744366534480427 -0.18265950097954392062 -0.18331377325976089265 0.36332350059383294871 0.054299630892080064104 0.36597589121568074866 0.71970147750646962237 0.52324959864803743947 0.51730014215716468851 0.12559847931788201136 -0.35642200494986220338 -0.27583373745823985823 0.34621753075307221126 -0.25852492024594297959 -0.28532657655118270901 -0.55859935693126638867 -0.65243814110715669941 -0.11617631539401952756 0.24905371850802715539 -0.050885636742202339233 -0.12626224291509971498 0.60008186266245266971 0.43053884216875476509 0.43629730631265895013 -0.56486976215042283833 0.031561321346021381506 0.45194963517653341523 0.42488569299755507558 0.531646311790834325 0.21686297918436286958 -0.10102999047229672958 -0.26852481334365335686 0.30525051196343838678 -0.3078782878560147318 -0.6921998317624296071 -0.27881890667075737156 -0.064245335936938013921 -0.10512940243570860488 0.59481803102727126564 -0.20994065468323769297 -0.37582531156447762655 -0.15957339235077480644 -0.38465302929950873079 0.12609126234817005785 -0.05732372865905933923 -0.14497486256658526083 0.17634642349746246226 -0.012241005451534538173 -0.019057889686563439513 -0.14254137231675612085 -0.13249067755908278121 0.11100355704263664691 0.51488804854900438457 -0.34225241393089167463 0.34638043412532665277 -0.024727602888994643093 -0.053647522809442987901 0.56188763761359850069 -0.040256871196973589844 -0.065322258241948219504 0.31880968154135502779 -0.29883709884252351863 -0.39653045447414131397 0.13322053912693640476 -0.0088366615378811796955 -0.15627156444588496953 0.13271641699149017146 0.19713413103894233958 -0.36254413019514075689 -0.21228981407471403386 -0.22911511641655241123 0.20510872441195215909 0.29310919793263551236 -0.040772211364275973144 0.21935101886642793811 -0.56591667406316270572 -0.84891779037241121841 -0.43936274053750723478 -0.093188403876049999419 -0.28135298343294512513 -0.40559160685871298302 -0.21836999920559108102 0.56316698293281808319 0.38109352756567616005 0.14404700095636896462 -0.14366426878709853687 -0.25600201417710299889 0.40765695886273234372 -0.37153968615790083918 0.032731379862778742229 0.19681796977632354251 -0.81039144888697711711 -0.089754738131274394708 -0.23796165240195660262 0.11388304003204197112 -0.31564102865230647676 0.62499817809031255056 -0.32708919606945163761 0.1732102267699217879 0.55190844965033702962 -0.0867993410671676624 0.095418979180027757581 0.017128793116219412362 -0.030541640346393856414 0.35162844844178425818 -0.43565769961529732246 0.28832928651887534954 -0.29257153547562514406 -0.35173245840543204688 -0.31495865712847653795 0.052713031555338775436 -0.51748934198412155361 -0.086521692093959490233 0.095607811528550454283 -0.039053712915866345412 -0.35096307964675022006 0.070968602449078654892 -0.11641207710329254388 0.29814170580131937882 -0.0045721460254363327502 0.51081671530986194618 0.21917385437192093978 0.37942925812052430423 0.16202254043162317432 -0.44860323505506954911 -0.3651303924836891146 0.25679573545277378788 0.10048399353647352594 -0.38857016977935354696 0.10830459650010605677 -0.03032176681832128573 -0.57507892004589400425 -0.24000629282183816304 -0.26141042512875084514 0.49863338931598644166 0.58570430823725083691 0.047555072164120776312 -0.20073112517323848936 0.40923773972754545758 0.0024015900578229498752 -0.10989783882902509626 -0.088938298038933966128 -0.31170727440348655612 0.0070891292886646403715 0.3306502471984076319 -0.31650109061021924894 -0.20979553361419805979 -0.43979965500651774235 0.37520006586743515076 -0.292058850874393372 -0.35896302488959441757 -0.26883871357693295279 0.1359049069439781654 0.16293187289042412869 0.007082796393511198163 0.028446887216218810779 0.25597130306306165037 -0.15787534769444014349 -0.2483163487540917258 0.31744746061691681005 -0.055273217158253756809 -0.032436546087735607102 0.18462722482325819029 0.28540179606700849524 0.47841178498984843204 -0.0023502795030695688983 0.17663286256521124051 0.16730370135593633507 0.30302872957767140738 -0.29292169438485049504 -0.17497012129425520977 -0.19518739516713429216 0.046362348297800261288 0.25520352089466213918 0.013780052140115343906 -0.23430712848413720595 -0.15064146964503233317 0.16025102440940336423 0.10088196145927824654 0.23357253359489316136 -0.15606351642155830151 0.34472960848904610209 -0.19588017536794741225 -0.023163854536513234228 -0.065461561393343054016 0.099015813352669068692 0.27864677792796982425 0.44475990246252938842 0.031342672308522681601 0.052246590663500291907 0.17286195539791426867 -0.13998914145556096145 -0.32655168355801150737 -0.083384428700738200124 -0.37625005386762483406 -0.37116613233991507803 0.30291321818299665747 -0.036292151114786772026 0.49682756638732417098 0.12756351047630326567 -0.53262428534664463253 0.033920894230138796954 0.28197284810694833723 0.2039917309266810197 0.043515171871222613209 0.18328880201891231683 -0.17806317590247461302 0.047622630324471892926 0.22982271243099591795 0.30932607220659491531 -0.14099417186811302738;-0.31972891197464459179 -0.40933219608664000999 -0.2724857426969561347 0.11813443655684907618 -0.82582163494748472843 0.47897761355410595208 0.11056959288924010643 -0.061964161489914779124 -0.49137477263777717962 -0.18426675291658836664 -0.71227139550481577412 0.31832171297929251486 0.071211877120555391874 -0.49862757436819349355 -0.40836529098414725558 0.44775576124193444683 0.029782091561510473654 0.070822609955533688542 -0.42759294968948896587 0.023133435217616488133 0.76264752579018624257 0.17262693071667420397 -0.039861906747952272068 0.29822882162977154552 -0.34354434289401963865 -0.41630859775238060472 -0.53391435720315127966 0.22171893439799800207 -0.12043000597078307168 -0.11956445949173133414 -0.25717621910431315291 0.29378209310256425679 -0.021409261913154745138 -0.00084369071235830539468 0.73646967451430134233 -0.47283633835016569691 -0.69132911814449027332 -0.54805517008221338315 -0.058559068225950874909 0.38786012806525738128 -0.10005491891191853338 0.00092185184833847022556 0.62583280624669912484 -0.23890084975042824578 0.3516451230147559226 -0.10519096311342025774 0.15408818979383720471 -0.204760240650424169 0.39863858098822468889 0.12395964419458121997 -0.11607914023964403805 -0.074326013362093282244 0.22374154310065066942 -0.20639942132646016404 -0.25669393872088247521 0.059506884290024195105 -0.17486009305975105943 0.28904180018656411288 0.1501262556378460955 -0.11326112143616712258 -0.048052069806276742625 0.47744071207198057749 0.14129086551479935752 0.33478542618911244499 -0.17733271440096845528 0.47245285302315764842 0.61012585139756314589 -0.76073927683355091478 -0.29496809793295325486 0.013937363208786267277 -0.19191924639713392464 0.591974485621510782 -0.23446364284990081628 -0.57448452252626081016 -0.22417141078476257587 -0.091813965930354957123 -0.31799426681755943447 0.73046365918632405467 0.1528529093837255326 -0.7196865463990872458 -0.65706050509667246473 -0.14487137058006149815 0.17625230526371082895 -0.086098867514263030531 0.42580516896660658421 0.10503315203868643368 -0.32303666138186182266 0.32110760051443165697 0.1585983970657863229 0.19016909537455070622 0.48961303390402066693 0.12117927332645751781 0.27226520821604704992 0.22757487674932710964 -0.33451099369924247595 -0.049380418730216688039 0.29114905411511354805 -0.29137860803471909987 -0.49969455237920951118 0.25270686562062755209 0.27307215683971336473 -0.36054182684475954979 0.51265103918088616997 0.018645887283608691964 0.57415134024495373399 -0.26664497359262639975 -0.29427444466194097039 -0.006757563836032987048 0.60581118459262683906 -0.47377601701121740962 0.030121739935831084306 -0.33177539139834383297 -0.31520295205354897927 -0.0027542344044036853878 -0.64282368295557035243 0.26357977665141762991 -0.40161037989806025461 -0.50213662514513612845 0.23410761110288505482 -0.56111771481210759305 -0.40410010842109522766 0.34316767104784617892 0.68247973688254914837 0.37500959759190843901 0.2683196496000988529 1.0025229499063907923 -0.84341133105195575936 -0.2723200171443866946 -0.16633525952667582715 0.26144597189190721398 -0.40917295629293959358 0.084760694952686649328 -0.21720985565263628558 0.41923815487051091511 0.49099658689636271891 -0.14279963372980578051 0.47484831921400638688 0.10099588208045276461 -0.93570851250553832568 0.48503486211329543965 0.034035321688641068105 0.51616617908374595736 0.17959474220481613793 -0.011671031973126133607 0.93352491265296411171 -0.50857896937462565568 0.2892328964439904726 0.097000924671755459072 -0.57354341634926475635 0.44009317752177395944 -0.18209816222154251442 0.3301102358276569726 -0.028889609835140321603 0.63793552992670665702 -0.64764059305118182319 0.45585579758696498365 0.19951895039155231881 0.4777941751800446335 0.042091195370723977209 -0.094797675639957723615 0.11748970919062545759 -0.028675977220032483617 -0.0047803266173753397594 0.071639462176162432838 -0.134194013159708192 -0.35726290952664313538 0.021272905264840533124 0.50261607757662773999 0.43633949612812034102 -0.17769431929914203394 -0.23956736833000127906 0.528405444692633397 0.36287929476511782134 -0.1444086271006698452 -0.065550441994719821359 0.77832891441453933012 -0.61485655496976043821 0.024764978534229459273 -0.090405290514574049299 -0.37571709902330246988 -0.16516650450782865978 0.39632964952817728577 -0.61826226071096568315 0.51451387747138754847 -0.72216113480485721876 -0.61333673457043325072 0.26526489555776505691 -0.17510984025514539364 0.44426377658405286075 0.27124722014582425267 -0.63289262374930344013 0.93809217914852116582 0.71288699442891234614 0.58577893125344271397 -0.49554996027790920721 0.030548806477727147302 0.096033183195370491747 -0.32535643825146376429 0.37390604127450283167 0.67036656439315489564 0.5726362947353795807 0.40641002795882141818 0.1365441028315231009 -0.5014899409440373157 -0.054152997134766824028 0.15014639386797104526 0.48254236664968663817 0.42336474841185789408 0.25002095614875341489 -0.19465751844892678624 0.43514174769650715291 -0.53405350888771774276 0.24646080136337950028 -0.39886084007651778638 -0.46930077125432767549 0.12181113717786945516 -0.5202488353385190667 0.21046441648581129535 -0.14410217857539908692 0.057262223207651397061 -0.11523530295309647453 0.14564365223690875495 -0.5348599694885329825 -0.56506541167219614952 -0.23370096066746473551 -0.59373217998715854815 -0.29158661701287985624 -0.14090792992726886013 0.32398454083183747532 0.37168211830393993456 -0.33905423931627531875 0.55052523870867287048 0.16824047995677676726 -0.60399534509024299656 -0.28398730514068160069 -0.10984746344575938015 -0.67723918251807435631 0.62857262911339617517 0.045126507860798609206 0.10414598729837432067 0.02443488122626842618 0.17266336991792308186 0.119201213506588799 0.28216924135637794224 -0.23620519439162371289 -0.3683105894479855591 -0.33306617341993993708 0.56230108457494032415 -0.18139841320990440776 -0.33562162331171097041 -0.62030788792419455646 0.50009456345725888937 0.06901394899463597632 -0.21524929420253130496 -0.45618400457187613384 -0.14660591982199894234];

% Layer 2
b2 = 0.56495343919029383795;
LW2_1 = [0.63140601829337827944 0.11806543705199537553 -0.48835532627953359697 -0.24749237107069210762 -0.56714386082039491832 0.32016280434863586546 0.44885085118590223319 -0.062010861198139463624 0.46141788176949188882 -0.33986034650055757522];

% Output 1
y1_step1.ymin = -1;
y1_step1.gain = 0.4;
y1_step1.xoffset = 0;

% ===== SIMULATION ========

% Dimensions
Q = size(x1,1); % samples

% Input 1
x1 = x1';
xp1 = mapminmax_apply(x1,x1_step1);

% Layer 1
a1 = tansig_apply(repmat(b1,1,Q) + IW1_1*xp1);

% Layer 2
a2 = repmat(b2,1,Q) + LW2_1*a1;

% Output 1
y1 = mapminmax_reverse(a2,y1_step1);
y1 = y1';
end

% ===== MODULE FUNCTIONS ========

% Map Minimum and Maximum Input Processing Function
function y = mapminmax_apply(x,settings)
y = bsxfun(@minus,x,settings.xoffset);
y = bsxfun(@times,y,settings.gain);
y = bsxfun(@plus,y,settings.ymin);
end

% Sigmoid Symmetric Transfer Function
function a = tansig_apply(n,~)
a = 2 ./ (1 + exp(-2*n)) - 1;
end

% Map Minimum and Maximum Output Reverse-Processing Function
function x = mapminmax_reverse(y,settings)
x = bsxfun(@minus,y,settings.ymin);
x = bsxfun(@rdivide,x,settings.gain);
x = bsxfun(@plus,x,settings.xoffset);
end
