function [y1] = scNeuralNetworkFunction(x1)
%MYNEURALNETWORKFUNCTION neural network simulation function.
%
% Generated by Neural Network Toolbox function genFunction, 20-Nov-2016 13:02:55.
%
% [y1] = myNeuralNetworkFunction(x1) takes these arguments:
%   x = Qx256 matrix, input #1
% and returns:
%   y = Qx1 matrix, output #1
% where Q is the number of samples.

%#ok<*RPMT0>

% ===== NEURAL NETWORK CONSTANTS =====

% Input 1
x1_step1.xoffset = [0;0;0;0;0;0;0;0;0;0;0;0;0;0;0;0;0;0;0;0;0;0;0;0;0;0;0;0;0;0;0;0;0;0;0;0;0;0;0;0;0;0;0;0;0;0;0;0;0;0;0;0;0;0;0;0;0;0;0;0;0;0;0;0;0;0;0;0;0;0;0;0;0;0;0;0;0;0;0;0;0;0;0;0;0;0;0;0;0;0;0;0;0;0;0;0;0;0;0;0;0;0;0;0;0;0;0;0;0;0;0;0;0;0;0;0;0;0;0;0;0;0;0;0;0;0;0;0;0;0;0;0;0;0;0;0;0;0;0;0;0;0;0;0;0;0;0;0;0;0;0;0;0;0;0;0;0;0;0;0;0;0;0;0;0;0;0;0;0;0;0;0;0;0;0;0;0;0;0;0;0;0;0;0;0;0;0;0;0;0;0;0;0;0;0;0;0;0;0;0;0;0;0;0;0;0;0;0;0;0;0;0;0;0;0;0;0;0;0;0;0;0;0;0;0;0;0;0;0;0;0;0;0;0;0;0;0;0;0;0;0;0;0;0;0;0;0;0;0;0;0;0;0;0;0;0];
x1_step1.gain = [0.0606999022156956;0.0535571254518826;0.0792630289601656;0.0964590459148576;0.0412537492553422;0.0890885823818071;0.0577075839274922;0.0568436779341084;0.1166011942166;0.0725659186079094;0.0651520629649515;0.081181684292951;0.0880010366333051;0.0700207643095608;0.049304812562661;0.0447550575524971;0.0580437427125371;0.0368432891782325;0.0618586720575281;0.0827106035196273;0.0911917264269079;0.0607579563397216;0.071335922602222;0.0457686671340538;0.0586358241658939;0.107314050817426;0.0623743902951174;0.0431747748795291;0.0728967137818055;0.07195040564462;0.089181483880839;0.070619329395999;0.0428410185952907;0.0425774024217782;0.0567422247682071;0.0673812827528178;0.0568411635282789;0.071172265123095;0.0667560502636307;0.0742108651694451;0.0880581112857963;0.064948291032979;0.0806537983762725;0.0799813825074745;0.077310973440131;0.0578206572361953;0.0820161511221671;0.0641230917577437;0.0704892297104047;0.123571357610802;0.0784146272426846;0.0823073137836822;0.0667949129470882;0.0454606781712649;0.0736869097612654;0.0600176542713961;0.096875423539419;0.0620325049246749;0.0956609914358372;0.0844252126539914;0.058516826232746;0.119042123780077;0.0699514118087037;0.0888271581825442;0.0783439769317059;0.0829120950371793;0.0628068725923905;0.0517321439108107;0.0616510077989193;0.0686035610682171;0.0528998199972556;0.0831407267106679;0.0597196359194437;0.0808033170960106;0.0728046678816794;0.0695855160598168;0.0538066870219262;0.0896154234357302;0.0427518363406265;0.0611414862467574;0.0870158739142164;0.125233317482743;0.354203924420016;0.0735845905316093;0.105370003791437;0.114302009258609;0.078393059506075;0.0666342702061802;0.0935246645954484;0.104302595459302;0.0903195253387555;0.0749693566644036;0.0571485875484515;0.0512389846610834;0.0888649785832703;0.0521185953324408;0.0612181821345072;0.0555865201246787;0.0751824107849866;0.0608250962921713;0.0653944781749197;0.0630915039082008;0.0589057591893627;0.116746269567361;0.0641639540977969;0.0923700064570632;0.0452989492355897;0.0747555027041208;0.0737512950379561;0.0860406550169144;0.0374899828377327;0.0668819277335903;0.0733311313442654;0.0557116892876391;0.0513543187247539;0.0703993357093933;0.049674855799395;0.0722647317708283;0.101308176846813;0.0789772044698536;0.0521715161680174;0.126347298065773;0.0539400435954172;0.0524684399063492;0.0536602106111683;0.0582523840358815;0.0659267105295339;0.0778249889245663;0.102271252079048;0.0564399050349681;0.0644879538652729;0.0648391533566408;0.0416022675064016;0.106501471513099;0.0468650639633824;0.0644384481052444;0.0397509048030094;0.0587561828205227;0.0706325156542239;0.0822109496891342;0.0587985135287901;0.0759684698277064;0.0801969620059153;0.198616340157304;0.0879844447056796;0.0528541756913818;0.0737538939550035;0.0892913269023827;0.0564602662685317;0.268805659455092;0.0793704656237253;0.0666113824852649;0.072426588695212;0.0907483151332034;0.0536755268292149;0.0679010882683842;0.0577427815740913;0.0736777920383724;0.0682458197014297;0.0601448971112122;0.0880444030698862;0.0618843294857074;0.073220899507846;0.0562467265544052;0.0691421931922988;0.0516985782614878;0.0969778401580684;0.0470300595608119;0.121770315675227;0.0829378351432403;0.0661710936137312;0.11214092906063;0.198768765558192;0.0691365858601962;0.072421451385073;0.0450277391134597;0.0913070335889745;0.150020895530503;0.0681752115732769;0.0891232926498204;0.0597564121077947;0.104429522501362;0.0689091774522907;0.0679167450928931;0.0662946385528648;0.0853621694633335;0.0493119401960296;0.0869153583682814;0.0568417366453284;0.0411240270372155;0.0585406093878598;0.0552491823608285;0.0585807775119751;0.0474410045887532;0.0607320985928202;0.103539899469403;0.0607319016122992;0.0478667537289995;0.0558751454460235;0.156492365561758;0.0899889120412486;0.104670167131717;0.0548047732569164;0.0856844877211221;0.0649161561970718;0.0693621643819052;0.0959618237812862;0.0909665920450558;0.0490286897809079;0.0922856463667922;0.0944429678323636;0.101835014565673;0.0569745423485503;0.0473428734612424;0.0591981565613112;0.0487708361027052;0.0716352098052442;0.0644879102388432;0.0658625423686549;0.0642895147078966;0.0598305238514485;0.076598392507299;0.0435288337177098;0.0889744882767956;0.0663244904137222;0.0618013447375121;0.0500734548456608;0.0656162527781635;0.06817023862145;0.0412014048248161;0.0679080229991074;0.0495287341250303;0.0794256258111469;0.0791936891924725;0.0811339640148784;0.0479765388165894;0.0837575891576251;0.0612128858467385;0.038079350670838;0.0500356164780991;0.062196484175182;0.0744325770296491;0.0738937685465378;0.0779410196116908;0.0624731149738961;0.0567446690123398;0.0480666328979306;0.0604849962511826;0.0478855309593026;0.0811475827860106;0.0596508881165839;0.148173311632027;0.0501221007290863;0.0621369312186619;0.0325803048636803;0.104178263958553];
x1_step1.ymin = -1;

% Layer 1
b1 = [1.4061869489731468885;-1.086416936477498707;-0.79046765022036569182;-0.44763652201514325668;0.1464230855284366084;-0.1387981846693966681;0.47924333206180330658;-0.78351095895171007921;1.0897183812258608437;-1.4127767981629479888];
IW1_1 = [-0.038347887926472035147 0.010333920554300657368 0.14530968257791171405 -0.11533317340841173215 -0.016747494656455967632 0.077297094189396578501 -0.064871244074105063881 0.10399997947536092358 0.13788598616237543459 -0.10439868080559043528 0.09837872408449349626 0.15322437705312672018 -0.066420711453140046654 0.081801795390507761607 0.13407044519240604585 0.13534243854303618093 0.045769176047536122565 0.012635023003954606174 -0.10899239319779382984 0.11270392275743076893 -0.12171907472790657878 -0.12949828398358753656 0.15061768740731626415 0.15206032710802663832 -0.043441530976662728891 -0.058110464363081669459 0.13829730983545290846 0.070967484790022919428 -0.045692227279048383548 0.050648160178779447205 0.064789671129881501455 -0.10391452696779780729 -0.11638878317072247348 -0.0097744293490320578732 0.065780838970121768838 0.10957019537771253703 -0.12911221440438686026 -0.13441241351349533795 0.14544288222540283084 0.11295366578629256749 0.032919334848666471915 0.020589739090086923295 -0.13527530653468866628 -0.055388818304786036073 -0.049720730271189783611 0.086073475219516248913 0.053367168399386925859 0.086388373924140893223 -0.1123172684361565532 -0.013439914990971026446 -0.042079804913589681503 0.099910768984545192395 0.056167315133179969433 -0.11979543146342017113 -0.041474628917810819895 0.09445820592487517986 -0.11302727132870692139 -0.048684916621358945155 -0.015253326622549617103 -0.11484948551069149025 0.072277364120028747552 0.036121523048244931486 -0.00056385001413808877486 -0.084274879556388390678 0.047066965933478144279 0.13195766432346797692 0.0216791328032012523 0.07254748588194501191 -0.0072561252440846166559 0.063145879717322522806 0.065082449306157391655 0.14006298912328682404 -0.12185474510794262748 -0.097096771079050639419 0.12435733322919612087 -0.087182407161102440374 0.013902191260976937484 0.15555914202781062627 0.03369418908072086688 -0.13794816367730616813 0.045779705830522043897 0.074290626928914374472 0.11206068841501530542 -0.10968788344299286452 -0.096885390625132378206 -0.039853935861593907386 0.061456229243559930275 0.098853972164538686518 0.017470683501954201167 0.11238015458787900536 -0.10809891065599518123 -0.024060758449629470607 0.007350400410812405784 0.022228942525955412701 -0.11610544039234645119 0.014673810103335325344 -0.11828983125672898336 -0.0096193298516619018396 0.03190827394928158478 -0.089618587000967975253 0.03830732628787291566 -0.039295855058180680086 -0.1182733996738855875 0.021617967823905043234 -0.028146864449176349499 -0.0034576573294631514702 -0.15851136788369718511 0.13636300144563928693 -0.11695777160440341824 -0.027769741089048054217 -0.08484635334087099745 -0.098564828922167779801 -0.14224260714602532385 -0.049462039136181502885 0.12785848497966167958 -0.0069531491264108822442 0.11283736266490183853 -0.11903212219215958401 0.10416577760338127656 0.055042161608358362856 -0.14622711549423439426 -0.074355641320843754438 0.10202621279476618843 -0.04465988905409692955 -0.020255062533839577471 -0.13779897737539353875 -0.018350702978480914335 -0.10754937819032685253 -0.042475967764437169705 -0.051233759161765562995 -0.10967843734270421585 -0.050503369510583512314 0.063630710175151747321 -0.07668958501745586076 0.054666909777069595811 -0.087030368563342577759 0.015577433817724526885 -0.12293108018146275962 -0.099369225859848683835 0.096987872008635955812 0.087617980099110870373 0.015294161055185573686 0.11085887864400037484 0.092758603004648818025 -0.0065216497223670021749 0.042884001774582757027 0.16425539339256725602 -0.077141632350058997325 -0.038470011193223317691 0.074004001422941376176 -0.048191318636579362489 0.10122245705786299397 0.042120763745972074343 0.078588636500666608775 0.13529020829694765604 0.092933743743966470974 0.055287225987688523587 0.1249420098858435163 0.00018942870209331778581 -0.062979139017810326084 0.083464352833152288813 0.15295292172326588331 -0.12715104549973649251 0.12423909672130109549 0.052404515094245027185 -0.065627986305259830568 -0.12169511876390881611 0.097214825870554535947 -0.020794466079381498935 0.12619551101940879034 0.0072131957470683251074 -0.088592198787008483163 0.018777918267919940787 0.090424580909962790076 -0.043871217625954875285 0.13974122113560855096 -0.055489176957034369586 0.08937286305505681705 -0.04169916586634960648 -0.10244154924893536518 -0.057986419476692564745 0.071577628898640346944 0.12757142183339256758 -0.024171961321818501156 0.074903247091609420627 -0.018983870870115590601 0.089535960420964469386 -0.054271849327458439316 -0.13616462140076154852 0.10615740763805261992 0.0067255246072793978609 -0.035223179152809876158 0.021024263039531393416 -0.10049911212137459249 0.0037095560976688210855 -0.0057565086021034309396 -0.10572929879283562982 0.10822194738430834793 0.13818732465891575556 0.14509535852408009249 0.044723429448952030374 0.12732488709722872278 0.051667869220574209888 -0.11812549245237408124 -0.15162204977172952236 0.14151255311701596562 -0.0016458033543556259415 -0.11123953290559472629 0.15713516189005571899 -0.074074418808028077987 0.024077300618153940626 -0.033786300926444801096 -0.021296952399445987641 -0.097785821878807382967 -0.025364735877710386375 0.0023325167142889020877 -0.064054156458156957799 0.073787084187544801916 -0.10840636320173574481 0.021067231770033369165 0.015089553245309713855 0.039208028385439519514 0.10074108443203265428 -0.13325898662045593257 0.086059537255357504426 -0.08105549042947583771 0.092837519312734706478 -0.033180210533470193279 0.061600933876422937774 -0.061300916115944292795 0.12758171472411461433 -0.0075501119662410897185 -0.048188728496648645938 -0.087233352228208271839 -0.057554219663581672461 0.022453931937485925585 -0.019579653429548832949 0.089983995912640307724 -0.015243633327976671352 -0.092581329182096661068 0.048799629219879625541 0.080568276447907191673 0.12223872521367395994 0.041434444470094276836 0.13903259966532902081 0.091565263514060635242 0.10641531080038776902 -0.12816617302806659895 0.082280379703892500554 -0.14388313256704485243 0.055476043082401428619 -0.032528352220570044828 -0.092005771189463306237 0.13612503501024703079 -0.067977993780577658511 -0.14362020440711834035;0.0026482301620664163919 -0.078979353756238962481 -0.13104404115155557364 0.01336501372168170769 0.13587177708704409329 -0.0033495993948360162917 0.11575165625858720164 0.038313170656548850568 -0.095784228530985976446 0.1221837660098762518 -0.077842885324171606776 0.021230033332786397982 0.056833386900230729866 -0.065717324746918368006 0.093075625052130836479 -0.0011597607953539256463 -0.043443852455003942326 -0.12502091910597265545 0.11897221232387353296 -0.10439093672906370192 0.099956205121067523423 -0.14369505380526187421 0.028153379051583250769 0.016915621993737587486 -0.10254248490788263337 -0.14035368687048693781 -0.0550586152834631401 -0.036497277230261540582 0.072422605302517775727 -0.11710559188146940635 0.11903671595545470274 0.095076606931184318161 -0.070652659640450546363 -0.10238221398395838668 0.087268865796731764917 -0.096807534533974989865 0.033300107876930079565 -0.10200681596007633856 -0.11874411170701268392 -0.056765056945713737724 -0.0043986011938847531175 0.14350146136645577921 -0.10127949785232515101 0.052185203893593101743 0.081242938782206425286 0.09922841894766101789 -0.041554307317920646803 -0.033365830991956557661 0.068750055315959568425 -0.070054415246660270422 -0.15482921532237617357 0.059464754811753242625 0.11323084079180742445 -0.14293208819751207495 -0.098850151211177253452 -0.066473880384756808826 -0.071226523292025570311 -0.11120189226241268543 -0.014933498674700236564 0.046089777431476172675 0.014970304821886146196 -0.06809268615845351369 0.0022312976349026479583 -0.15062033850932776691 -0.096552219987396437073 0.029948584959980168591 -0.065222971124119261122 -0.083399829937995467732 0.081194323362723822002 -0.045084943633027910193 -0.11574941558568394018 -0.13790292736434658916 -0.008173085317227640062 -0.067859257941233597222 0.10153813015389488716 0.032200335546651942531 -0.10754955503000539208 0.085495197269389047734 0.031788597108367580568 0.060942675300188493825 0.13173876949579280127 -0.10596055440467343212 -0.024860898563911507098 0.12287938769545553308 0.010414233527516837674 -0.11409237337536679013 -0.029114733965107685021 -0.021479840538601125549 0.021752540417887482327 0.13672871729342178648 0.13142368435659018688 0.024483416344830491451 -0.15988252064246677442 -0.093068861071808325902 -0.13596309515602358897 0.11919207449827688705 0.10552633603438209275 -0.16684467517124682012 0.0044869943380315639031 0.085549312824825751722 0.027489317309216023538 0.0083306331589812314398 0.10708837878830407275 0.032530817315659620037 -0.091065741495965191188 0.066175639585547882393 -0.084039983524015871019 -0.098166936884403713237 -0.12863640999154607458 0.045012508351427886477 0.066874056915513679922 -0.11056308651240714935 -0.059326853403068896542 0.010074358451430386399 0.037865086452809511297 0.056057104328765788859 -0.092488040648226660378 0.046752437269896245098 -0.13820321961463366556 0.015341449574421175614 -0.087406584068721857039 -0.077606181608492100232 0.043028386158836813558 0.049041028058601471296 0.013626969399836283067 0.030352484286500464733 0.080123092110803692534 0.048000294406109075829 0.067646289056661049188 -0.12323610583516715622 -0.075819566286533024435 -0.01405152781948212741 -0.13237576179594942594 0.047732256387741291148 -0.055017032785440150855 -0.12465537263072191954 -0.019665194590743558661 -0.081152548709231844826 0.0002638973406291504533 -0.044900049268093787658 -0.084058082653207841228 0.10016897258563008111 -0.037056367493747389974 -0.0051181576923018954131 -0.0049055327871129457765 0.005787069110402116856 -0.13366995864327063659 -0.084627278767835850681 -0.11257021393440258539 -0.099633660856748129664 -0.057592258810838486971 -0.0064665930032628297572 -0.028422289794490910447 0.12671348930534781507 0.069066345957689984081 -0.059819822469079068916 0.037185987459505576158 -0.048042882995466551499 -0.013256975592887142862 -0.01159453338946074899 -0.10689978352432755182 0.075454532812365915362 -0.13662107056438735353 -0.072901539612194254936 0.049127592880740519887 0.014111102455800016153 -0.065849626416663836759 -0.13923970542684230289 0.067799755476852865965 0.086351428889127029853 -0.11017452653732585921 0.037180210211351524818 -0.076269123054882689838 -0.034584326813117280408 0.13026452219212164563 -0.069055557008810330988 -0.15219409396126393208 -0.13688756186298101092 0.13655878191044687475 0.1112204930998205582 -0.019636505109425515803 -0.095877205917752283959 -0.12671305391930134943 -0.0015825025394900936113 -0.034394811684664662599 -0.15114136576843434367 -0.087169979583354886832 0.021766267610480016098 -0.1360546842970469239 -0.095278339318731211649 0.074835352667991184017 -0.08063072766209772313 -0.042766839829708143406 -0.14470364807580404776 -0.14520434936370124612 0.018280394253206353611 -0.073477240150206485358 -0.016294046864376344336 0.041164411616148768869 0.0342091061012879602 0.13779284151545775905 -0.13890702043449162928 -0.010734597244860352716 0.04041068638585246231 0.039539120285722144377 -0.085866331576470625309 -0.14886306712557303977 -0.12263116245509797508 -0.085632073250919940599 -0.033398574269674942416 2.9583192329572174527e-05 -0.11272223924160156006 0.13602179811688494548 -0.10122073255681937609 0.11677952139320590952 -0.008160290859438637176 -0.14679643357422597627 -0.084322688851761515294 0.0062968496174991873959 -0.14880819137846995615 0.022902832015188431813 -0.13217317449938742469 0.10259164670813328279 -0.15662478463560572384 0.076826157604180975169 -0.017589529444854236362 0.084962753899787885059 -0.0080568536701540686279 -0.070454157036290293581 -0.097184909854351589353 -0.15217535625792905085 -0.0098761135309163739643 0.086789672089592970194 -0.11412019807993764586 -0.15501344162276509131 -0.10061851477481692507 -0.16184969703769577776 -0.15727532661809742742 0.13592425407435237972 -0.065464556944624871515 -0.15153768214562624017 -0.0076940569881061831453 0.0056097255967457139089 0.048788989433154683617 -0.011468222422783273806 0.10993842554640766151 -0.10627045594280229435 -0.15415423611017423089 0.095501300056493571011 -0.13452837947384321815 0.063011706111834320243 0.10392169786930324782 -0.11311143766026648949 -0.083667337119874618523 0.12769386139142338554 -0.12148122465325014718;0.10768515787359461688 0.043982036164793118782 -0.14892172959641336583 0.05033525158290247381 0.032581778637458098935 -0.091286035291882103304 0.0052317158973885285675 0.16100186401161101224 0.010113807323538559491 0.14055809398899493656 -0.069692963567642290945 0.080530496506241083798 0.053763325913568513204 0.15232543021958599994 0.022050091191927814749 0.013084461011444364908 0.080926638337376122223 0.053504453582178708448 -0.067211147053381631311 -0.081826208334405792222 -0.031446836786678873665 0.10667591081042554491 -0.098849419639040356222 -0.039704917856534793774 0.010000606307097174505 -0.079838197464206769882 0.063265377148510451577 -0.1212965933581289929 0.11964191207763695546 0.026664863423245838137 -0.0090920920655541762057 0.040937625688978469818 -0.15219750584887181688 -0.080403071150582344773 -0.05303664009639888488 0.071439958699857447622 -0.095373691041737956864 -0.17777683960659051987 0.11145585314028026713 0.0012967000057883273055 -0.14361042559445019728 0.0068631677657265445502 0.0088236745209956859298 -0.06278783945822066781 -0.10398927390507479995 0.16369481585509501609 -0.082926344935816187487 0.046778785296013578043 0.093134601024233404365 0.085551379060053264758 -0.087914288843110380278 0.043900118156284868853 -0.10128155113791924291 -0.11656639594433890195 -0.11083761199885182325 -0.040072833577184531484 -0.092312541714258539161 -0.12390096949570608698 0.10354206245831358568 0.12141333984711866201 -0.024871198078192682107 0.1178846035097978473 -0.12081446240504480072 0.036513283585612517357 0.13384407724925187488 0.032519798294234722458 -0.0012677387958573739513 -0.10014608889492419841 -0.12241963912377268331 0.050687241920150220842 0.12955265984527988832 0.10073006596647610111 -0.050071394930050978911 -0.070903280603039783858 0.10669871000202492406 0.0089192463631913698058 0.0006072596365255778731 0.087201455497394483873 -0.18846795637306029692 -0.17666670442456083867 0.024284293324770403477 -0.12303796104405438638 -0.07900958679787158101 0.021318085049693912686 0.078882960175178110096 0.059312963828407679057 -0.15341545771765835449 0.020091633737981513808 -0.10929975887166060167 0.16553930869561905848 0.17654642404766646147 -0.10447382709958298597 -0.14235371254316986356 0.047210961091890421559 0.11158275193184100105 -0.15808632680419226757 0.026181612649348477706 -0.10215843444345340529 0.043445645424350753938 0.04112558690926912397 0.047803621758413961107 -0.0082528146086382776075 -0.056294442312517720128 -0.087674382708513728946 -0.089077412431904576251 -0.035568482160781601797 0.097290506045571004123 -0.12709114712662403224 0.025449209830840039542 0.0033542991677495935521 0.11514005997906529011 0.024783774952749828419 -0.11804435018044436012 0.0048789950289436700634 0.10819920020469453448 0.091921752009934090677 0.16396024950686194366 -0.07082571110879101739 0.022456059374606960471 -0.057832334745762527251 -0.0067204223998237142684 0.10078610782191045614 -0.12542527969319874903 0.05646011463371964495 -0.17034233328271930485 0.075582868070788650217 0.053904780994838488728 0.059293491916751116244 -0.11906460764861380441 -0.11092204780045435142 0.10504495326193004356 0.018753898540433498049 -0.10033706810988600455 0.023273980207931876246 0.02398610002771359509 -0.16792622087328026859 0.041671798082944175312 -0.10536380404513187581 -0.15762207574788406061 0.10188602190140025328 -0.17351361988701383132 -0.050714752533620552355 -0.088934853504990626916 0.095818121413849696721 -0.026926648783083921568 -0.085452325011250857001 0.010877273122189294943 0.059654728765897335752 0.085597907627849745271 0.082126770044870581189 0.031805515680975796067 -0.059051842937779583376 -0.058408712820317995607 0.060184139579212883597 0.10588145775564222761 -0.097643277397682998187 -0.035392100643273909089 0.11673064169630421871 -0.058159508668018694566 -0.12673369779785839673 -0.042926753987621461828 -0.014819203090230527453 0.12877335242024476325 0.05939950906111970963 -0.084218389089480399923 0.15468697278504028869 0.13447967053128659365 -0.091779663701269512122 0.01451480895233914041 -0.037640713885010182449 0.14581044664563208579 0.088476951790453839397 -0.10369823470612817007 0.14087648380499334655 0.071031449345885941393 0.11272093099051504195 0.066331029323072734916 -0.042481346912570210061 -0.074266479845049693242 0.028483700238834498003 0.01056027036074260253 0.05134527542478833223 0.013639648214191791784 0.15881864168846901442 -0.13070908381953630362 0.032016805893921036763 0.011651712439314079739 -0.068965651155985810417 -0.14367594538645189761 -0.028840165699743205291 0.10062488158023810692 0.13713484225309388598 0.046240762356297308855 -0.051989192981459528276 0.061527591711625202742 -0.038811610063047993768 0.060626704686169145819 -0.061108078467540703771 -0.10906979835185380556 -0.038482471738932537419 -0.12613161510311712843 0.13351752902853039617 -0.078148074419125870826 -0.043624912644330333944 0.11113048038715502008 0.071923409962798529049 -0.0075383530920669636691 0.055072330336375527327 0.0068943006104435870796 -0.12586361087247679991 0.023576556712670976301 -0.054702411203655217087 -0.089488547545181720833 0.034569727660743669595 -0.07256657633459946688 0.040824280842297069882 0.071372906142109032723 -0.17259650960497843752 -0.078124744730992387587 -0.035763401380248312222 -0.020258728658709403148 0.076519255603436392432 0.07905183505392189558 -0.056759949892007895145 0.12784709196252130869 -0.12573625945423252959 -0.090678343119264065431 0.074693303652033166129 0.13731024024358931546 -0.051328365748964203952 0.049538154438911609356 -0.12935275415636113272 0.028961952892610980798 -0.1506242379460790981 -0.094992381615061488587 -0.081268800246032377177 -0.0473244507022557645 -0.029470355356967167793 -0.08852463417861758388 -0.043217151167942030598 -0.052795507853257588049 0.020699865949401794613 -0.058198879159767957781 -0.03836486001593158307 -0.046322423638384631339 0.083682544828645177848 0.10021648826077823868 0.13491200232421082794 -0.11332756279105271613 0.0110276312711017066 0.050818751004274104188 0.14093585243716175159 0.11060989150645716972 -0.039012353496204008052 0.012808437130528262451 0.12477902395447618145;-0.0025321064272659701139 -0.051187308066870003398 0.093569110523031420734 0.047260365881270943733 0.057682346324005567828 0.071796295642326007913 -0.014521750431185019917 -0.1054176155763856676 0.072074710731637889327 -0.057880620135369147128 0.081348248151196039801 0.076443804373759888238 -0.084837901959806616414 0.11939968556771511643 -0.070164839264471798308 0.093857761655659843747 0.04067229194401212472 -0.07093582122638839027 -0.071360339164835279169 -0.041504167359561264239 0.1143319491983342262 -0.034005884170373666675 0.090577413166688866553 0.11291692237887050732 0.068888279336245070161 -0.137560372369990358 -0.1405657655711181897 0.061421031794366066914 0.10331163112468981502 0.037628304281761018601 -0.0079566575260174160489 -0.058145491085522103825 -0.12680663385085755301 0.075597850747178729769 -0.14880922664423390511 -0.10146755922541610129 -0.076670318597331560406 0.09268469003743817769 0.033969448599402825295 0.07549700657865328346 -0.055103278631623564543 -0.064105701379243415494 0.10936706047029520761 -0.069172969880129150932 0.039140122301635237034 -0.14331719027469999594 -0.15810487962720787269 0.079162026408129457233 0.093044968854850876316 0.00067421328730611499239 -0.10659989324069793493 -0.13847578591938514148 0.10230500529793365438 0.071787286932486302216 0.015142958950243355989 0.11674082190438650475 0.024441817303028506164 0.079331140046048298498 -0.13004227081401320554 -0.15735763507139116646 -0.02129893687403780142 -0.073392850766354933434 0.0043509531958538152224 -0.15618811296944459799 0.10682475264945265336 -0.10536126507406426422 -0.15433208922042526701 -0.14259514455555613588 -0.077559789673767642881 -0.048323726510820154412 0.064633830203352324317 -0.145908143946982094 0.061853408999478665109 -0.068120050104833310134 0.065927073815739811735 -0.10669979916049419921 0.10084143469018798378 0.072030430612558787873 -0.1519876684420634616 -0.015376182627909931039 -0.024414779037676834911 -0.14920052320531690393 -0.17269838377893750869 -0.07456799877569905699 -0.12557836478585637785 -0.17203934225212297315 -0.069503552368973778308 -0.17185144401043209172 0.034507358622690741112 0.010468489085407095551 0.082889486756666783118 0.060046064148729420828 0.0080027691221557489126 -0.021447287845915593424 -0.045597842113935541097 -0.14866393928273485825 -0.13323937652346282134 -0.020264805754071926747 -0.017105483248238635696 0.044741195014820905884 0.0059609858466109300404 -0.012621852811499755659 0.12204026095065691193 -0.021363706913118861441 -0.031213797777964003705 0.010142610685675157098 0.031653466962649340344 -0.059078326147348834974 0.031569873046573916631 0.0053217761302602880832 0.099537661117688844281 -0.11347257175983428701 -0.16255349764292276182 0.055479328982283644678 0.02382193498989477326 0.12122841143959681154 -0.1017966128145824517 0.03005729771812404999 0.11514448904958361763 -0.11725476666304585072 -0.050397984430168928094 0.12321893618686190208 -0.13426445759920010992 -0.0032007631837723880645 -0.15397395370497152234 0.064510045968878840239 0.095291460148166237665 -0.05637690490997875753 0.029162007136795391193 0.031859433784761158337 0.028995538337895317149 0.0091219561210633230697 -0.044562726155446520659 -0.01101939180043173816 -0.039116643598315535557 -0.10392355710500106314 0.12019849450231272214 0.069307059816678187603 -0.10406426871265773981 -0.084682819746780976788 0.082946116798131214187 0.035918639849876095316 0.02900475948142169913 -0.068703029617773775373 -0.10135228772097379379 -0.075759596783385702023 0.00065750701379205201899 -0.011412933824872285166 0.10774716751927364278 0.0069424549682127771263 -0.10443889568680155 0.099858378579041229273 0.060416313721209043142 -0.023733755110979738029 -0.064739043794566963896 0.12584625861354747922 0.038996301233793793928 0.082108564850253432099 -0.056855715569014766975 0.030555632531955295023 -0.086486603948198501057 0.028830852897219351461 -0.041796434858422298886 -0.033657666258670226878 -0.11246745856069952085 0.11127041343763569015 -0.020275603540644206169 0.053963482777087942721 0.036338753953954028297 -0.11798201857057530328 -0.14544632215977060241 0.083506879976379275177 0.026585864723702168355 -0.10568108057684788559 -0.09547610696987382517 -0.13461567017936787449 0.12309991376499519744 0.083804243825792643086 -0.0032716626004581383404 0.058124638616979570904 0.098286653350038208354 0.13011672307059285458 0.066555092536768625799 -0.15909532514217905597 0.084573804816814243668 -0.086170948427119503643 -0.0032098480990365779383 -0.14017907413353797308 0.0039128850553364156323 -0.13684930784352025701 -0.14079480981869973988 -0.089154796799017804743 -0.11232645706966097598 -0.14695702570944221832 -0.099749399109930428353 -0.10760192716916551492 0.056215562974866878365 0.072722491394400845532 -0.1260878784416189502 -0.16358704643119728606 -0.074857736238208821833 -0.14487885362330649164 -0.10047792177889426635 0.11333371439781943224 0.020013224443452229395 -0.11279126478705725489 -0.072447197198951748809 0.043532915723828009835 0.022796444763288924162 0.094815616031472649272 -0.12516187653900964771 -0.031510967367071270051 0.064899148278988585958 -0.11687347107278484026 -0.12884701169789600228 -0.12311869249131185411 0.034248400753583332912 -0.034329451291209379937 0.11270354175147846709 0.035465593988720969798 -0.0085576761972154871683 0.073444603357095544771 0.071974505217976103566 -0.10015332324099701644 -0.11607210882250880435 0.03785735248129121211 0.056840561825228674842 -0.095402203689899836569 -0.16738404935591971734 0.045183190762965431964 -0.12102617701083531743 -0.024390439565446619952 -0.12354907996816420768 -0.13381428780605114648 -0.056517275393871919953 0.075803563951745103755 -0.062800014597349518297 -0.13859875575067437392 -0.10135817926081319706 0.11101284094686975079 -0.048784005666353123798 0.086015057139706641021 0.018411425686109279126 -0.0001345327616835270202 -0.027534487303194393054 -0.14267317902783077654 0.037420420795433943784 -0.077632701455835881332 0.09661870637210429047 -0.16390008556620278002 0.077867933884627232866 -0.095987847465269116043 -0.042003712081420743751 0.042600512444062335615 0.099994229107207052709 -0.15568333754660268475;-0.070897770669341844685 -0.017219084784006730149 0.074767045997908884725 0.10346045570488351939 -0.037738570671088975117 -0.028450077932876224884 -0.13614310578546451325 -0.062967850556938126383 0.11675822162866630882 -0.028322521067704390513 -0.15426666056545243477 -0.10568365434821234972 -0.128095856284987486 0.11334001707728691422 -0.044188096368222448684 0.034635614104375822553 0.070187419249570004443 0.14587730667267820306 0.031748219261939290836 -0.108976346452550929 0.12413720260342396562 0.045883135483333288562 -0.091038333644271551837 -0.01875194865211298953 -0.02535520012229483533 0.05173346263929026051 0.081777786420954137747 -0.087922791555569521083 -0.016976445101956758738 -0.1138094726154932762 0.022131106051769471738 -0.12294330070049490355 -0.049086860534390028277 0.001238021431369485878 0.016365426911083915534 -0.11002566286515853833 0.030133020118576239049 0.16152004929369034869 0.10446999431417405835 -0.12586452007009993337 -0.032875940078144351431 -0.17480126534604531474 -0.011862414234546609509 0.035651026622995268811 0.13364568060634546276 -0.10120863004502432536 -0.0088737604533022478026 -0.12403410071564274775 0.093232307897709601474 0.0046885902068556830485 0.10941847986470386311 0.015807679160188638223 0.076427110006750731408 -0.13561039785330855634 0.1716965679122524624 -0.012701711343845916227 0.0055505548123981592393 0.045193702313886051358 -0.036998368490469564496 0.095575614645801734715 0.10306467610515898659 -0.046096345262502141926 -0.0061675058817764255234 -0.056029140093406828993 -0.087494249622496050867 0.034503354895781587763 -0.07489825678514969165 0.14150564123802494843 -0.067619842515757005996 -0.13435454433925372864 -0.055778061153404764894 0.044734251270260962097 -0.11438353845470169978 -0.024905183857861289826 0.024731037528966239719 0.0075206985415997591043 0.019047167530323264734 0.058104282098817031099 0.00085367801352284708883 -0.031471615454284854185 0.046394957215433851871 0.10098964004390245663 0.12627221020673023988 -0.033675256950466934958 0.019437686126704899203 -0.080947283806816233698 0.11118391272174429907 0.082481240579474077168 0.011700577925552211461 -0.085667841620114301704 -0.1847395787524550026 0.025427306633019446103 0.090517127635357047533 -0.019687104998220680135 -0.086907305047645780349 0.073249627890269369823 -0.0066691233321483399735 0.045439992292867485701 -0.074435313864936319961 0.0077149002669595302326 0.16769951535044583246 -0.0087140111037443193642 0.10521752793561744976 0.05291539913503539444 0.041135063615459759034 -0.079386010733558165509 0.0084241556980932715687 0.10433987924758375554 -0.13699453384667115152 -0.089026630522425681535 0.14258009660347084613 -0.056569599876935897087 0.089603552387710214133 0.060929523723655940048 -0.09897515577629696637 0.048888665287554936012 0.067292830227849945168 0.12195047772237731232 0.012642554181957001841 -0.13846358879457518198 -0.045964322955444239516 -0.15303924386510855959 0.044198588306849764806 0.13553738491080755124 -0.025408001026699086888 0.089829322795907246002 -0.023745613077817022407 0.044800228353070806198 0.14430920979983452579 0.061396812106793943742 0.14621469714923968075 -0.046335839130865877356 -0.060399616569370109809 0.11488105216923916174 -0.1387470045291196441 -0.0031590383456251798153 -0.073011623985592369324 -0.12639085983621778375 0.1074181785737894218 0.014591865893237725843 -0.067248610208628725737 -0.17191259875753542308 -0.06268759108487688414 0.14233727443212085273 -0.1753596491069817076 -0.025329134546537488554 0.068854043259332267657 0.1114522497493476566 -0.066696409302362924532 -0.10955885553943241206 0.14294158623810615527 0.021006978047218127781 0.12681187413825720234 0.13415786603992482795 -0.12879129577912637461 -0.063193767286083946111 0.01530984504700924273 0.087489523227838941755 -0.074340544351558401903 0.038480580948540690778 0.083057162297406172957 -0.1598304153877520839 -0.021371910131445709391 0.052182713751547357695 -0.056970398384515869017 -0.11579882592983384293 0.015238159977713411353 -0.06362949002001831722 0.1311904737631122142 0.010399707117124666958 0.13090120938454033461 -0.046191850829298927716 0.01789331858517148599 0.0060827482116445957469 0.043904021707151567877 0.097530534721693068478 -0.068914901231191150188 -0.15578535201401416677 -0.12797379593820817911 0.088032044531956191169 -0.10496144740677713914 -0.086327880232180104203 -0.044781173716553809849 -0.0041630978568173515955 0.11036313036702823098 0.12924997042234903644 -0.0406273554481727181 -0.14656439874053661665 0.015458445841708544355 0.085321744516411640591 0.071437975238787476684 0.065292243486495316063 -0.06633137185706841632 0.057511985649192742809 -0.043865309853955834762 0.015099890724519962615 0.008167954537517618796 0.016428982240293276557 -0.0442704254398966629 0.14156825317171065071 0.15845699617284095262 0.050676090653846664336 -0.060228279336812212685 -0.12799586722251624082 0.061767297857941473593 -0.0018395812249092755204 0.11971093298125781712 -0.016183676907964426872 0.13879463450904008792 -0.0045669172588016591213 0.11477293080584879958 -0.092196933590255630842 -0.058904476579689113436 0.13438855361533122434 0.14393559084676321724 0.09084119809544731472 0.03155147769994128687 -0.03336128000796724502 -0.036640321340989365217 0.012832839312856897038 0.1428578593395257168 -0.043824104633201708958 0.16201297056209862379 0.015681400570382454662 0.14475145865701741221 0.099607878308706140902 -0.062737527374782650624 -0.11163912872230287443 -0.098906613603520043831 0.027823666321879235441 0.055533342446781409907 0.14715257396046366178 -0.11421569627045428941 0.097556184606423443362 0.084602841643093507074 -0.093718004683099070951 0.055776624701183365185 -0.14620335435505715793 -0.011992652369828018383 0.17943926724075284773 -0.1081758765377765219 -0.038441754284514621787 -0.012826440725549408464 0.012250921370509161232 0.12362021680332825613 -0.059387881835385777918 -0.055126689672284151511 -0.022470819958667707233 0.038309507695211478251 0.043193435554069264937 0.091425810756430622717 0.13941242690326530185 0.15639437740896006135 -0.039810743493381234304 0.083115933993930246615 -0.14948795565835271137;-0.097685185068942081976 -0.14329842017946201049 0.09051641689002577762 0.070267830860800559178 0.0011309815586266866623 0.078818419033261546969 0.04132907605417207586 0.12451078763894925239 -0.11849865060504988223 0.019913808249886814222 -0.12978446588924180682 -0.10360369576479527831 -0.073636328753877475228 0.011505954003398726274 0.020356166144473341467 -0.12254403332761565348 -0.13124627262654942061 0.12908143814521177983 0.046715792218929172441 0.019557667782426915726 0.11894896512422924173 0.0087334066836827605601 -0.10666844107714280876 0.011538037912582758612 -0.022199142825767643333 -0.16494032745966463738 -0.081276618355894933443 -0.043990730266651165148 0.060002232544295319716 -0.067137995599617222853 0.041040553610288577069 0.0033649171723621278639 -0.11726797768962787805 -0.076592575497390610884 -0.15507931726743945378 -0.035972332339712267957 -0.047369990539630889292 -0.15986012124370979626 0.06578153362729335929 -0.10609897944991968088 -0.12991093269732886806 -0.16806515141035341387 -0.088711232392877162334 -0.1520899151900952373 -0.047609468665669292531 -0.022429314248812882299 0.0068531809272403456518 -0.016333418539678103143 -0.071422824555939734559 -0.15333118765104417069 0.03809446158621308115 0.098188174626103671971 0.050695357353991117588 -0.066303128517035028744 -0.11518879049750969934 -0.017804498582222112735 0.057968657887043167909 0.065792722085085048045 -0.09974907937583249451 0.095086643872096310304 -0.10231515488074313658 0.061702486037767817484 -0.080089530528133501264 -0.027828043645172148568 0.11414149067405909843 -0.023405523593661679838 -5.9300301980184854322e-05 0.12888864510070968672 -0.084847812621441101588 0.11652444838886429068 0.098451314306899934126 -0.057857302838207072537 -0.0043171680588364996084 0.015270699622373833451 -0.16315662055973298439 0.036359610930617472513 -0.071257887128215458006 -0.11977115947117622508 -0.13684767198725891757 0.065342374375862655178 0.076541419022974524489 -0.074187677906821555829 0.029364384522117412124 -0.13352532756623358701 -0.14642309350808127566 -0.11786051584906497014 -0.04158844500610426459 -0.037544718034124069383 0.052448346103172616139 0.11983061983949178098 -0.025328676217877942739 -0.0644532699791214303 -0.096540104388212116815 0.076264078030905027572 0.05742602901540277277 -0.027697581639923928715 -0.020881220631483399242 -0.078959373516989145303 -0.054793671893826924324 -0.051651126466540853155 0.028172640390792366011 0.053203798659341057509 -0.048412820670599279738 -0.061229303955543809557 -0.094985552146517937544 -0.13936273837756399385 0.011164105678996403062 0.13514766542544837113 -0.16189176488480505611 -0.05626171389790526195 0.076737418200107126998 0.05311719612512918326 -0.017416908589377770589 0.049439608530117119811 -0.1312751666262393091 -0.15264811065616251673 0.10852812905443809388 0.01826892520660975891 -0.062922106866650895363 -0.0090093154801685320504 -0.054081809805208547193 -0.026065912910756609128 -0.042799890371355973906 0.0086958501514551294481 0.067071018096379955709 0.036552751671991637328 -0.13573734415291452415 -0.052189660819147602744 0.073037945453488475889 -0.06701409676805616944 0.11986647559744303959 0.04987037849185256555 0.090341032700522364007 0.1099195107281757261 0.05805962964055656067 -0.1554920835956393188 0.073482120208924278648 -0.04360179796960280546 0.12719490275857206485 0.10893749651168858905 0.087136592016572797514 0.042526093302381731687 -0.042802607268909255434 -0.011926203257766753926 0.10700646793486688624 -0.02193679942201366001 -0.074299743181798896807 -0.037076288860700704064 0.12120161981925720029 -0.14038462832363279853 -0.15063436525309514824 0.12571171674422759734 0.079930669415865462923 -0.10335011324684700851 0.091228011907452305485 0.12663813089632258713 -0.091488098818473070906 0.11762924389833495642 -0.043341927526408932647 -0.12358196797906582931 -0.095822359034055365479 -0.13386112573857977814 -0.0041572073789386942283 0.10692244907352099759 0.032336642597590573023 -0.12185829422278185441 -0.026855010143358989949 -0.02066766088859209316 -0.13643980845349723552 0.062982129786962992579 -0.13377339479235378361 -0.15527693733552561106 0.11992315671419254142 -0.13023580327494618802 -0.1073055801029444839 -0.11947969524112803108 -0.053376747924049304517 0.056822268488863909852 0.0045135435338054252785 -0.026224464343240577735 0.04387133922297911659 0.12669896590081136667 -0.12283963854450220821 -0.013062503097308381453 -0.0124396325144409646 0.060708735255230031336 0.10013510403227440793 -0.0024889310175012827574 0.011121380186720188077 0.10148306453638325508 -0.066712720276557335719 -0.1429449095105198575 0.078523683186727477601 -0.14062413555489294836 -0.079430115763641687132 0.096321113810129574406 0.052131096545244864915 -0.018846867839016498425 0.11233230095843033114 -0.028750854654589895476 0.065713942131775643363 0.065830914297191137075 -0.035404170027681737543 -0.049022233434773153371 -0.012615647096215144157 -0.064096628407157740792 -0.075278754154135582577 -0.16378101983092741012 0.084236764647535683492 -0.0058522794773603302454 -0.12148398741841448523 -0.15141613699988135111 0.013162942934013582147 -0.15310056731051607803 0.11229546354240806105 0.0038266751919653727194 -0.097185479016713788303 0.091845966737665082902 -0.15411813444191904687 -0.015660589346838716535 -0.14772398687112964222 0.006092306229926131543 0.12598129654180303949 -0.08464435364090121261 0.10270615150068328203 -0.026695409192429370854 -0.044439157940663900903 -0.080513400049209288278 0.075307356918411616498 -0.11915860139759558434 0.092668232243787479474 0.033733457000768074519 0.058029462933073969189 0.12622087680549645694 0.11414027069666606018 0.13272572866934395641 0.11652711074086019583 -0.057008261099224445678 -0.10462410049224117603 -0.03207693982285401979 0.13343449861108269694 0.0030760243595053162607 -0.12557435235767283599 0.12679463303208041158 0.055759850864289056682 0.0015158810967144129098 -0.079446608552706909911 -0.048489915262222439696 0.096165974635638987178 0.096742051139924942205 0.0041804990963589918132 -0.055137674749610177116 0.086738175335726780402 -0.13560775528073909513 0.080214346035570205373 -0.11362382149993760505;0.07578419431128259609 -0.047319337058187194156 0.024517097511941716298 -0.0097252588073103163335 0.12288825003947451142 0.15253903257326112408 0.026554614596530513176 0.048419370386483931434 -0.1151454505728936456 -0.004820709379830284691 -0.070578158637126034436 -0.05323110313397366733 -0.0594602201592306992 -0.13227733242110295553 -0.088450841098946145213 -0.13073509469529831506 0.13118274566869625453 0.13576503368160225405 -0.053363384399382887691 -0.13614299432194706951 -0.090773144901869995405 0.0050395599967686978415 0.13104967609043918775 -0.1140306131115813304 0.11824532125158074281 0.092711156927028137709 0.08895990244228714483 0.11081432222364345774 -0.025256914090588500343 -0.13040517706780593854 -0.11320765786271287656 -0.014623863175879377868 0.11165684033463200986 0.11580014088819549911 0.0029791009644167922368 0.021394972417762905814 0.13540489006066072641 -0.16531720438722349864 -0.022778739682224623253 0.096026902992970550321 -0.00093388122250314883899 -0.093008630244091491934 -0.1269483818054215063 0.081805051188546556995 -0.050209813028256257417 0.13310204563933983324 0.065399287379946810517 0.093100855295774401221 -0.13266569283928780765 0.12940402564110803363 -0.050856282542264028002 -0.085610914558364406557 -0.043186678197197687912 -0.031563388615700856132 0.10606372158982577125 -0.15176068958593527669 -0.11263142166031503422 0.14615762643412341659 -0.1098871264246642776 0.069359056258440049403 0.13972540617377124383 -0.084149181408524273418 0.013764075525245297524 0.11497045485003522247 -0.033910388888705532418 0.018913055239579125433 0.10759950408399010513 0.11616783868756357101 0.074206793679712501621 0.099341984801875962696 -0.11306478543351224098 -0.092786879552887543965 0.048826817099127110822 0.037583260129879704492 -0.039895787867734365528 0.071553869078228499179 0.013606479689137054162 0.12444257245620461705 0.030956164430473658011 0.020997658738851596866 -0.1227781253773132103 0.044611813456139876033 -0.048820854181970393948 0.055040503497743795136 -0.12550534584767619739 0.12945508602471214599 0.068616462192446797674 0.061128688515958776173 -0.048175440649932121939 0.13898471746655619019 0.01718576967457996485 -0.12951951597098432245 0.079064773755919345866 0.084230834623782085968 0.014896849260830008835 -0.052917527010895512585 -0.034086573450251275719 -0.068167247606660666404 -0.10249936974318998861 -0.010918535731255374008 -0.082179304769796193697 0.046612705825039291163 -0.15456392736156771006 0.016956887526788123888 -0.1049378593908250612 0.096432434509252595856 -0.084744354735402163681 -0.10450148202557220378 -0.10374830373312854404 -0.035488589525834036975 0.11280989380293687807 0.14198959387237758412 0.09721660256526536148 -0.011765882322628692935 -0.064091600260069478412 -0.13662038258876876839 -0.10746672274258997626 -0.14751461524453221563 -0.006845659418988000143 0.043115281998563709243 0.028541076430821217536 -0.015740614865935045885 -0.14353505288246332094 -0.035622833535033510133 0.073849115335818268924 0.050474555404609225406 -0.1708670154758332449 0.03146727146198221442 -0.10166556860350181579 0.10063808478448746375 -0.029195101842047415514 0.080172208815670248372 -0.00030764664885419808812 0.1217360293557201989 -0.1375397614655349543 0.076130255904232946307 -0.16124611275721878467 -0.13629372078501861276 0.068815879197205748197 0.035803364700248085928 0.015830470342776927634 -0.01730385830882309392 -0.024072595559748600352 0.081542070939517846684 -0.069585708238837085116 0.0001795176271567464532 -0.061838423966329880699 -0.053125840559272843877 -0.030233304427158942673 0.047994353267688756592 -0.053223262171284729805 0.062286220202706236992 -0.076099734038692593008 0.058065575268601836434 -0.062360900585497140713 -0.10501549904784281131 -0.054511948534033703717 0.11815694008841133578 -0.0895861172443405962 -0.1448322479801701923 0.0070296328978805850546 0.052932843098585993791 0.093059356509194210427 0.045616146455397452164 0.028441978197430464043 -0.087027163279060196222 0.14604177648097427245 -0.1390459758399951451 -0.011381710764293534455 -0.081646392338842327385 0.077639497071748025947 -0.022856285558975585059 0.033098557005923290308 -0.13608749929816765789 -0.027285960490564385716 -0.15400926079135413005 0.076486931801934929243 0.041007734763539985257 0.053824999152817826209 -0.15022744781304075978 -0.107243492576861707 0.062332172641121466605 -0.11461021284849001733 -0.041217325891301011265 -0.096972496569847577153 -0.15975042042031717404 -0.10924992423380276707 0.0092496176056012565508 -0.087624258018916517665 -0.11787913629165007456 -0.095932530859168987925 0.060474023431157673814 0.05565913805304268519 0.052585044016309485937 -0.11830305167438454061 -0.020947221693106147372 -0.020413033267642204105 -0.11856701407990814789 0.094707769180642317752 0.019628376929611248553 0.064698070828533876808 -0.15353337177306175532 -0.072869175975868644146 -0.028979114581070455903 -0.0462039265386339007 0.050330146168883482805 0.038790257729861679636 -0.05677993360411519308 -0.0072409454929364455017 -0.13271116195466403642 0.03039064265369963852 -0.00054683185260175179616 0.011142244439831338818 -0.035167827993041543555 -0.11368375687415822883 0.10267587413143612618 -0.072625520280131417028 0.0387767718775414022 0.12042748011754197957 -0.16039837851528393475 -0.11149368843347005897 0.12904256594143245773 -0.079712184681939510233 -0.14469210737725199389 0.05721345405167592435 -0.039942207498581211444 -0.043310207744154526066 -0.15401302817233725184 0.10619701180438688437 -0.00034628855919989910261 0.10008363771701810074 -0.044087544660715918821 0.035987590497034524506 -0.11344730231071771531 -0.10914877675107152732 0.093274317965349601289 -0.091726527622047110411 0.06458173448414146478 -0.1246510973808338113 -0.042641411198136962291 -0.037423762360492905665 -0.087214815984881344235 -0.097162203502237920461 -0.13323671962656813417 -0.052794158950805476771 -0.094210610525364973933 -0.1169818542602739514 -0.091353258057384464919 0.014810763021017258473 0.12236007760990981474 -0.0061969772121669179296 -0.039218918963843947545 -0.040253022195245895254 -0.013062732840088327538 -0.033174726751619074139 -0.14084639293752512779;-0.13901185814037544941 0.0076522753059901074332 0.086133703622133531153 -0.041953567316968545797 0.1238965058768396188 0.11270808114427065261 0.0067865253747484378596 0.030877906870428500213 -0.049508848021222025271 0.019661157697959386753 0.020795635786504215736 -0.090482268326012776916 -0.018974502896495281518 -0.095263758956320374049 -0.062505947903974054536 -0.10855735870490887396 -0.056013835626541212676 -0.14642759300534030631 -0.079240609347637741555 0.021707071940151936862 -0.089787271693164569242 0.13988059626825682935 -0.016507599709365911034 0.027682962259773104263 0.099311570980542190901 -0.077559699165322945613 0.1164294110745463795 0.11887086934781203318 0.057981716194538908404 0.025152837812292508368 -0.065695240331327189875 0.0017869286702394998785 -0.12083971918823335767 0.11121666269713294251 -0.085940526411169462784 0.14303283766120636344 0.14143235024022043911 -0.055288318279658604792 0.077834598197767820849 -0.057678235071554895264 0.11658163475667601694 0.082629380182921499665 0.11516027484077978604 0.060578572195044380622 -0.13756858756308099068 0.0018230067077100080633 0.14245256131734140848 -0.038036825131034110448 0.05995341254577409712 -0.068312811002328249765 0.1511739306739772748 -0.032785680922175805541 0.097740163872332974648 0.15031845142932090398 0.071012675485303405898 -0.059985518925979891547 0.092065965707787827954 -0.059727468304746844652 0.13379006899991538471 0.14138578079399008458 0.042626645158609935415 -0.11423378816056505014 -0.018282724016693379515 0.057707807181546895425 -0.082532174150645273847 0.0066424208943716700482 -0.10365443399304112571 0.079124099539134365444 0.0035182631931587144899 0.11191801920333813158 0.080095234512724572395 0.080669196709885024332 0.078315747880027083982 -0.010229858519896464081 0.11448379785983370249 0.096830285644137606416 -0.0040609782523721065298 -0.071978921588577368662 -0.050280389261432162362 0.1179670396786292319 -0.12206672168646534593 0.08926198185513771477 0.035459415057409390815 0.11026833320721901588 0.047877318572460539348 0.062726722617935298798 -0.024071688452570912109 -0.042805890541904478841 -0.0029677473446230737478 0.049181874659075683343 0.065188304670899394067 0.038444640730667230255 -0.080201612825352042169 0.032162588014129293856 0.04935733214291165849 -0.0034724017129078074001 -0.033478142128095328411 -0.1210398073300896632 -0.14554303821977762623 -0.052155339837511249801 -0.11972696490440168371 0.14928853967335287134 0.047631217968360409221 -0.10780527804642385525 -0.13766270554253293157 -0.13141322291226414931 -0.13934604526559399296 0.06495574308490884019 0.10408633116550493336 0.0036273877351521060033 -0.11048053636364484065 0.039633883201437729304 -0.13648042004277044503 -0.010884959109858914975 -0.052717872660812653551 0.079787706861188661955 -0.037127756268859800348 0.019565196694303239877 0.0081906439592534501654 -0.052676879036657763 0.13948712185797704222 -0.11491841732128231512 0.11129197103036551908 0.0056942581914222684461 -0.12858950236895269614 0.095471023010437625067 0.13005450680792024487 0.058168112484146335117 0.017849832989679095124 -0.037141485220469130923 0.0034937746442260464788 0.14810326718355737441 0.030105880915392100455 0.059893868634233633774 -0.10369139140833487367 -0.072122115807519829311 0.14354302587444150996 0.090025137501766536174 0.14344688622332962824 -0.11984331723201802067 -0.0039334985811790082466 0.005228465694103708386 0.092725531452854503822 -0.14530795883497918397 0.15366192025144284616 0.11269580570151623011 -0.096865382253200363327 -0.089974118284187692973 0.14187622655165604835 -0.022659202532504051086 -0.067040310150272189316 0.11550625624644787759 0.093719986771961125149 -0.049909741452565985209 0.071011746689248658737 -0.061465980941947294391 -0.099230123582576976182 -0.028754234781134167809 0.040650038513303558829 -0.0011678788646338929269 -0.087371806132603743733 0.12784142689742969412 -0.0033619779253557030216 0.046079323199331181926 0.11190328603175360433 0.091894108881143146683 -0.051351457319089202636 -0.031086286305244258121 0.095526061860170624618 0.094962117086770325702 -0.0044586014081799962838 0.14329843805849923344 0.11616802852037183547 -0.018715631824723428372 0.1055288848188272316 -0.076280187845508093392 -0.035614901323975718672 0.038892787854323214447 -0.11264477533826398881 -0.053916389804017125775 -0.068340056830943768373 0.080240858426521274871 -0.056233410448681228622 -0.1507777014441742669 0.13736477492746421158 -0.10587948730421806176 0.02655004222492460611 -6.0168810748278141306e-05 0.076772218251901197528 -0.018617178874636489821 -0.15419679399717811652 0.10874724424660291155 -0.12923525838551974676 -0.12139140188095359774 -0.11357941040078638195 0.099639492785961278343 -0.14132649798269442121 0.014313943585515265591 0.020816912442372725173 0.06684777039037943791 0.0715452332332464358 -0.029221610479177529546 -0.13050652683259322817 0.029267800999883568369 0.11055166998504606379 0.14687072044863741516 0.070938106649021323569 0.021720510306973476317 -0.093347319116046975629 0.094403340386134279583 -0.055310960478982318378 0.1277130022985744906 0.010546929226823157505 -0.10752125434654508096 -0.14343319963617748303 0.08902165827115379737 0.0087780604070729559285 -0.11309128074561704269 -0.10432606491596686793 0.065051722122353133893 0.083707633435648812203 -0.049681258941139630481 0.1147200077381390626 0.10058704175961262484 -0.016379343189480803644 0.028444468141094421398 -0.054820578698363708892 -0.13347727187317956488 0.095122893571574135274 0.12479727026394192568 -0.03925420979915739822 -0.11408527484467434476 0.060035066517492033378 -0.13798921819287712776 0.00084334168912117142385 -0.064557735115369538348 0.023861730527251961975 0.022972589335257379006 -0.075706206942742854116 0.14757092182337630537 -0.023426193438343512199 -0.13912646702503811413 -0.095453201895165651347 0.049283872527387605211 -0.13334967714573842112 0.01459577707139881643 -0.0079951497911956159736 0.12558814290787065349 0.077020598544633486759 0.028970113479265827139 0.0062523797980966857105 0.12102498475551068391 -0.077417109502042419367 0.10909573244369913381 0.049215989387484421203 0.063282078683696396659;-0.0048893668980081010644 -0.020185629860453947748 -0.075708044486889169988 0.04138940633630758259 -0.02064214622098316243 -0.079263670235102556827 0.10538067953251699371 0.013574743843113199274 -0.061384895303561094748 0.10812083520927461 0.041106650797725671764 -0.11603789309118701933 -0.10235960827624651648 0.0063387225843449229029 -0.14796159887368384722 0.15106707005100275532 0.15138587373872003372 -0.018491833036679193591 0.074474220219557199507 0.062000726730113468743 0.041017702518380175225 0.025381265135437622998 0.037825681910153924337 -0.016629816844938673237 0.10649703827164071213 0.16875033558967431069 -0.22021899764566915669 -0.066280139300540580338 0.055880930829482436395 -0.039713469460072745032 0.016914224661485829926 0.11304619746967371763 0.081628870921988602727 0.087418007787307627776 0.082316243366951674654 0.036603286315056410283 0.033704588356659605231 0.027644341516434974004 0.17244062307765686826 0.13751126300104471456 0.12588450216912336344 0.20962160571268420584 -0.02190282561601991293 0.012175352618909113592 -0.10295958299165659799 -0.051174798788761299839 0.0023894463194205897358 -0.085840795082013268691 -0.03740084758714863622 0.10617061295243447605 -0.086843689818621352949 -0.056672725641951408881 0.0090522792719310088416 0.15619941830972053354 -0.080332485083345048227 -0.1329991769668609769 -0.17908984062392205305 -0.041265329517020575556 0.10126442197181954874 0.091119927189842242488 0.035583239778307747259 0.017482930641514966841 0.010850275533009259496 -0.022743959572409294667 -0.14684162796760080738 0.04073166129759539511 -0.10144966071236127814 -0.060742663407423042043 -0.069462127092908498849 0.1011673976548942977 0.029989098024958447258 -0.037211575263372959066 -0.042675151464316420091 -0.17421993684220332677 -0.12446644354263904086 0.16298242975812132771 -0.1140416122514124192 0.12728371258784673681 -0.1181096711065888899 -0.0097652905860315525333 0.14755529682788312562 0.053112990809644960999 -0.068674834308834378782 -0.17487836465839606825 0.0080406655247340329262 -0.1146128638353624829 0.018528811292719250814 0.15896457563231972121 0.065463975583036973505 0.019985171815606106449 0.056749838452667483724 -0.083806399914690077324 0.05893242287534155438 0.21295898561717926945 -0.039458098895731055777 -0.11896851090930149475 -0.0060270479044042925623 0.0067653152160255889541 -0.11270768132891711977 0.07627413793156631594 0.084013575371362975153 0.14724206111074589209 0.17568630889336761536 -0.13208181581665362492 0.080954139125180096803 0.13001822362578518977 -0.21460796567249926237 0.12457018296156048554 -0.0054565603570434660294 0.18523836762302950398 0.11897333923628802821 -0.024539620242948007034 -0.12284507470581583488 0.02166560151733083403 0.091723812978288882247 -0.058603465482316693946 0.1391697080332652825 0.11943049104019382023 0.11818786754868428057 -0.05471831221381585203 0.11035631983232850606 -0.024687937904664891686 -0.017362570852944358285 0.13215215908212188389 -0.1615498557171589078 -0.13885822706977216101 -0.04007540559382501838 -0.052914276072298649378 0.017688129941980438448 -0.18345156355670114157 -0.11765966458651717919 -0.039116494108953084319 -0.065382172779831840281 0.062936670842248049196 0.13307101339721560951 -0.15626611275367308096 -0.07807075543305885823 0.015127031670315930351 -0.10640718661985236471 -0.074461417837464086156 -0.22414433377417505855 0.24891627555896972401 0.11933646280881751722 -0.028654068033762258166 0.23997543364759946205 -0.038518330542519893522 -0.029222272692695502178 0.1087050628383595674 0.086284441149467080989 -0.057588746310872102052 0.037309558580042957721 -0.0057336415076510976324 0.01559992157499868852 -0.10441686804204070027 -0.048141403875018265457 0.19860747064365882886 0.06003691114496713388 0.0096377426996552707089 -0.042149973165927299978 -0.014912590444039284382 0.086340523119398826513 0.037555739466532109261 -0.038739452486223784067 0.12898687851498735757 -0.09482679765502313729 0.061797047495962501018 0.0079111603827834546532 -0.069718105674919678139 -0.05972836794639493907 0.10559340773517034151 0.13173586910777293491 0.053052145028957685413 0.080626948471482287606 0.10301258802303624174 -0.086146858856259167503 0.10253597427039949641 -0.032115837012871142897 -0.042154636568313183509 0.052266708645916863663 -0.17796165118252260662 0.059649416568085866786 0.031323379846751923938 0.068786941353472380589 0.18904685963638070967 -0.081820052137158871819 0.061066285508662318526 -0.1039875406461450158 0.071680391344504726381 0.085355071074528707231 0.1831017866941592187 -0.16154452125437188115 0.078048662368072715956 0.024025149103561235092 -0.15370961512502015478 -0.027424613878440692177 0.061670285366593115273 -0.11184162130250392686 -0.23131774700882451468 0.014653812745024797498 -0.11597544028922679438 -0.090569952849629570268 0.012490260665067854512 -0.11920815167345452656 0.092378111799929857328 -0.014994910698698959983 0.04256214309607907198 0.0091640901958658597254 -0.015607058912686766483 -0.093717062908314469061 -0.011067359577348291275 0.043542243905625749312 0.022386436135321638452 0.04096706583763462528 -0.10471970486828470481 -0.071524336202907559668 -0.14483786476098489682 -0.12340877893228845152 0.056134434940965316496 -0.071646586518535781973 -0.036087172134615139174 0.036518226623999471003 -0.006238850480061280436 -0.19164258046968057903 0.11261230989732215479 -0.1803425208956987158 0.067818734741223962725 0.10391355445346403541 -0.18049100859015018705 0.11159859782082862112 -0.23305653077006102669 0.018922104803741422729 -0.1091621554086006779 0.16060401899526516312 -0.034399376178491203326 -0.029967558685210456126 -0.1100316144038538807 0.098037927333473842695 0.20298139322251121386 -0.1030592199646822027 0.018311620185565584407 0.11185284912126122747 0.010653144885226360772 0.063873122797618836488 -0.019109981475531535866 0.12740785213105232376 -0.054183875311858503698 0.023874552958771312616 0.10462268920367562286 0.001310774826533899276 0.10023824429889990895 -0.21040082270667978537 0.15272657228547609209 -0.0022604500531092593975 0.075107214009119210862 0.10517363161772683156 -0.044950262674780416816;-0.095057792466637258677 0.0099998486213989847687 0.14261489941102994949 -0.086049416132741640695 -0.1237140828146317123 0.076194671036915101459 0.10975431402620239307 -0.18912903067315572914 -0.1071257065224650723 0.054913971854350797364 0.071891978721357233106 -0.057353285605297101013 -0.019848207645923123671 -0.12782957749172990658 0.13018972461636116322 0.0040712552816844181647 0.0061615966137020094368 -0.15413606149670747159 0.10339089764995391951 0.011785936789278162254 0.0046008422555764618561 0.062421142787142065711 -0.03995303813812654814 0.053857190704414262261 0.1355510573675098307 -0.10908928471860306064 0.086809864290956786914 -0.027002775861032307647 -0.085490707794731155 0.17605011679504783961 -0.014014334266470909393 -0.10675802848701045067 0.13507312544543007005 -0.1219004827186919715 -0.15288625379485074052 -0.011687561723400021266 0.10980011844963526169 0.052697622702635574243 -0.13717897731643646786 -0.20981811584577284013 0.085164845941578859456 -0.085962460345040667131 -0.036587404866635774014 -0.010228189170675866179 -0.1386770738181365703 -0.149955448211002762 -0.031350913514244238556 0.05020125216661906753 -0.028880664643435621092 -0.14640905670534901106 -0.0018633077572906904702 -0.031341124872275180624 0.13551530761596375374 -0.097861759480295171243 -0.066319811530109920583 -0.14125143856688612831 0.076055946122547721244 0.040102999763492443164 -0.077506451160642697573 -0.065505405333528193834 -0.004286418159310719303 -0.10922278449917804943 -0.08676396428159259544 -0.012027385576736734571 0.032222906188799971261 0.068955673424155441986 -0.02970924607629644304 0.10367733056727042318 -0.017838911344095952083 0.0012865266534603683572 0.0014764984907936990009 -0.033506504140959708637 -0.065570651707741775538 0.14484470316857936401 -0.11388972598996321972 0.089746130358662731807 0.13556473410968564175 0.028042862553333578607 -0.061702026765480109949 0.12294893204271237219 0.081397434504926063914 0.016336525185291730922 -0.11789074034416596737 0.090749820107221698673 0.0030860669222924981721 -0.037640926267416732753 0.15830160207245394521 -0.0017018218333429060291 0.1294127970428200769 -0.14088065290114679118 -0.029671072413915880461 -0.11275100459757504689 -0.1179145881225886483 0.0074936826830498933297 0.0013289551314249854145 -0.034827818870605688206 0.071919901916438155887 -0.0025331756453010954681 -0.053283552615470318459 0.11742272729455127678 -0.094988854368255687399 -0.0076078251172645681988 0.067815589780519713869 0.043250701094982517414 -0.12219920880129642171 0.031249225626017691076 0.040095632631764202558 0.1472598777186186203 -0.14296267352896935288 -0.16890363828235727128 0.0026589146976374500482 -0.13525388938720428467 0.030741575483890375836 -0.039439418263632605721 0.055709112139153069143 0.096739386627648749073 -0.043629719522581648927 -0.018446320424951579559 -0.062385626508378595745 -0.10879502698920191783 -0.11154521412438089811 -0.013364329915404966551 0.11175100140510353663 -0.011018300821090929592 -0.038854910001262170371 0.12281527203617827182 0.1671135054592001179 -0.03146896166497871461 0.023114383251934027957 -0.057117502794703692293 0.12428325292551874182 0.032794051841351645749 0.076435452979432855214 0.095640731670563930433 0.043212035138581926519 -0.034453656476155024302 -0.033121726529682975204 0.094843963709202713797 0.10951675549414537081 -0.098893402316315576206 -0.041770123004056608496 -0.20278786108660162846 -0.14607438113535745061 0.043099445378304110377 -0.010995937780266588218 0.054545366739626295616 -0.12492163705741261837 -0.12488368302017599509 -0.17615977418066020022 -0.034230026745244356012 -0.078232649127142339651 -0.0061346127487437208947 -0.026728592869837291407 0.090849380890309791581 -0.093756064032896546667 0.079676112913332375332 -0.089597499550995995943 -0.051751944361419020824 0.053284876384997154064 0.10151292637250804163 0.06307990170995311785 -0.13567848383721814454 -0.028703673636471763175 0.13133556608523655473 -0.061799426546692091955 0.11724499657075974912 -0.012868169090343805835 -0.069424112000670765155 0.019527624618373283505 -0.024556281876157735888 -0.01045091933507126189 0.004441961806392251931 -0.024938368222367144483 -0.064203694336081043592 -0.0052294295037895862852 0.10920177816621945421 0.1068833493527521078 0.044834548660216716476 -0.0010623879841985550427 0.026321749404693440405 -0.098953005481919251163 -0.068011946136388126694 -0.14760768496853082787 0.10096081648138242881 0.041051366747176930294 0.0052953794616600264114 0.077444325219559101425 -0.15894619845195301355 0.0049305527138579991267 0.0051029419986825053437 0.0072203592205553404626 0.071828866128741425401 0.025368112853925938593 0.16069420968428801966 0.026512132351968930449 0.050829862839544652509 0.048688105407223354615 0.13935268598038272336 0.015765504710359558999 0.083460382679872671674 0.063312814164477398959 -0.00391758108413398521 -0.077415864650775698119 0.086230742353674158518 0.10189898165243418959 -0.09154644015851128025 -0.072580663210292259424 -0.063824448483083662254 -0.017284126877874891187 0.030852695369226770111 0.061740535221475170702 -0.0090857884272699997869 0.085910352362148903471 -0.041190239217804257288 0.096671635296588440123 -0.027200991670857155302 -0.033605986548873506559 0.060793228045577289709 -0.03694173953016269274 -0.13881016261337794648 -0.11348028509827746968 0.10584967212874986375 0.12711320755737784416 -0.12238301123858193187 -0.11348209324983386803 -0.10484379277240206407 -0.22035821198170069124 0.074845432510185869179 0.12954331319785497567 -0.030386481655835170801 -0.055652218990579378766 -0.041765569090233052585 -0.033105861710309429646 -0.078174123395483824384 -0.085595692883726912092 0.077996215725874284974 0.1285267523511876564 -0.02288062875652527306 -0.00045738697900421244327 0.16684733067470872148 0.14477345115411402454 0.011205796839246974506 0.048687134717976296439 0.1517067449315346872 0.094077115520983065067 0.023159313982029330198 -0.028659069988113700794 -0.1434640212631110856 0.088797436919671332567 0.05687676380555849176 0.0029771570196887153087 0.11573730247204509769 -0.037877667936135658855 0.064854745711962036303 0.080508852609066608452 0.055547379381173600521];

% Layer 2
b2 = 0.76770262007485079447;
LW2_1 = [0.13652823441308931107 0.39466188931762602454 0.23303831388723661444 -1.0086506753445516615 -0.37108816526133603375 -0.78236011233480073912 0.13807268652782642149 0.29336607231473182944 0.62991065781664956624 -0.68125241922100421288];

% Output 1
y1_step1.ymin = -1;
y1_step1.gain = 0.4;
y1_step1.xoffset = 0;

% ===== SIMULATION ========

% Dimensions
Q = size(x1,1); % samples

% Input 1
x1 = x1';
xp1 = mapminmax_apply(x1,x1_step1);

% Layer 1
a1 = tansig_apply(repmat(b1,1,Q) + IW1_1*xp1);

% Layer 2
a2 = repmat(b2,1,Q) + LW2_1*a1;

% Output 1
y1 = mapminmax_reverse(a2,y1_step1);
y1 = y1';
end

% ===== MODULE FUNCTIONS ========

% Map Minimum and Maximum Input Processing Function
function y = mapminmax_apply(x,settings)
y = bsxfun(@minus,x,settings.xoffset);
y = bsxfun(@times,y,settings.gain);
y = bsxfun(@plus,y,settings.ymin);
end

% Sigmoid Symmetric Transfer Function
function a = tansig_apply(n,~)
a = 2 ./ (1 + exp(-2*n)) - 1;
end

% Map Minimum and Maximum Output Reverse-Processing Function
function x = mapminmax_reverse(y,settings)
x = bsxfun(@minus,y,settings.ymin);
x = bsxfun(@rdivide,x,settings.gain);
x = bsxfun(@plus,x,settings.xoffset);
end
